FANN_FLO_2.1
num_layers=3
learning_rate=0.700000
connection_rate=1.000000
network_type=0
learning_momentum=0.000000
training_algorithm=2
train_error_function=1
train_stop_function=0
cascade_output_change_fraction=0.010000
quickprop_decay=-0.000100
quickprop_mu=1.750000
rprop_increase_factor=1.200000
rprop_decrease_factor=0.500000
rprop_delta_min=0.000000
rprop_delta_max=50.000000
rprop_delta_zero=0.100000
cascade_output_stagnation_epochs=12
cascade_candidate_change_fraction=0.010000
cascade_candidate_stagnation_epochs=12
cascade_max_out_epochs=150
cascade_max_cand_epochs=150
cascade_num_candidate_groups=2
bit_fail_limit=3.49999994039535522461e-01
cascade_candidate_limit=1.00000000000000000000e+03
cascade_weight_multiplier=4.00000005960464477539e-01
cascade_activation_functions_count=10
cascade_activation_functions=3 5 7 8 10 11 14 15 16 17 
cascade_activation_steepnesses_count=4
cascade_activation_steepnesses=2.50000000000000000000e-01 5.00000000000000000000e-01 7.50000000000000000000e-01 1.00000000000000000000e+00 
layer_sizes=26 26 2 
scale_included=0
neurons (num_inputs, activation_function, activation_steepness)=(0, 0, 0.00000000000000000000e+00) (0, 0, 0.00000000000000000000e+00) (0, 0, 0.00000000000000000000e+00) (0, 0, 0.00000000000000000000e+00) (0, 0, 0.00000000000000000000e+00) (0, 0, 0.00000000000000000000e+00) (0, 0, 0.00000000000000000000e+00) (0, 0, 0.00000000000000000000e+00) (0, 0, 0.00000000000000000000e+00) (0, 0, 0.00000000000000000000e+00) (0, 0, 0.00000000000000000000e+00) (0, 0, 0.00000000000000000000e+00) (0, 0, 0.00000000000000000000e+00) (0, 0, 0.00000000000000000000e+00) (0, 0, 0.00000000000000000000e+00) (0, 0, 0.00000000000000000000e+00) (0, 0, 0.00000000000000000000e+00) (0, 0, 0.00000000000000000000e+00) (0, 0, 0.00000000000000000000e+00) (0, 0, 0.00000000000000000000e+00) (0, 0, 0.00000000000000000000e+00) (0, 0, 0.00000000000000000000e+00) (0, 0, 0.00000000000000000000e+00) (0, 0, 0.00000000000000000000e+00) (0, 0, 0.00000000000000000000e+00) (0, 0, 0.00000000000000000000e+00) (26, 3, 5.00000000000000000000e-01) (26, 3, 5.00000000000000000000e-01) (26, 3, 5.00000000000000000000e-01) (26, 3, 5.00000000000000000000e-01) (26, 3, 5.00000000000000000000e-01) (26, 3, 5.00000000000000000000e-01) (26, 3, 5.00000000000000000000e-01) (26, 3, 5.00000000000000000000e-01) (26, 3, 5.00000000000000000000e-01) (26, 3, 5.00000000000000000000e-01) (26, 3, 5.00000000000000000000e-01) (26, 3, 5.00000000000000000000e-01) (26, 3, 5.00000000000000000000e-01) (26, 3, 5.00000000000000000000e-01) (26, 3, 5.00000000000000000000e-01) (26, 3, 5.00000000000000000000e-01) (26, 3, 5.00000000000000000000e-01) (26, 3, 5.00000000000000000000e-01) (26, 3, 5.00000000000000000000e-01) (26, 3, 5.00000000000000000000e-01) (26, 3, 5.00000000000000000000e-01) (26, 3, 5.00000000000000000000e-01) (26, 3, 5.00000000000000000000e-01) (26, 3, 5.00000000000000000000e-01) (26, 3, 5.00000000000000000000e-01) (0, 3, 0.00000000000000000000e+00) (26, 4, 1.00000000000000000000e+00) (0, 0, 1.00000000000000000000e+00) 
connections (connected_to_neuron, weight)=(0, 2.55938231945037841797e-01) (1, 2.47100338339805603027e-01) (2, 2.39098742604255676270e-01) (3, 2.66554594039916992188e-01) (4, 1.14476248621940612793e-01) (5, 2.04341709613800048828e-01) (6, 2.01313316822052001953e-01) (7, 2.71774530410766601562e-01) (8, 2.87695318460464477539e-01) (9, 2.84502297639846801758e-01) (10, 2.93307572603225708008e-01) (11, 2.37106487154960632324e-01) (12, 7.88101494312286376953e-01) (13, 1.73860922455787658691e-01) (14, 2.29216203093528747559e-01) (15, 1.75488993525505065918e-01) (16, 2.58470684289932250977e-01) (17, 1.29724726080894470215e-01) (18, 2.83254802227020263672e-01) (19, 1.71976923942565917969e-01) (20, 2.95921415090560913086e-01) (21, 2.60998785495758056641e-01) (22, 1.38601422309875488281e-01) (23, 1.69558435678482055664e-01) (24, 1.62459686398506164551e-01) (25, 2.40602046251296997070e-01) (0, -1.35025411844253540039e-01) (1, -1.13663613796234130859e-01) (2, -1.31380528211593627930e-01) (3, -1.53778344392776489258e-01) (4, -1.49040758609771728516e-01) (5, -1.73842310905456542969e-01) (6, -2.05078035593032836914e-01) (7, -2.08342015743255615234e-01) (8, -2.05687731504440307617e-01) (9, -1.89001798629760742188e-01) (10, -1.02400302886962890625e-01) (11, -1.02774411439895629883e-01) (12, 6.57972812652587890625e-01) (13, -1.13105028867721557617e-01) (14, -1.16672128438949584961e-01) (15, -2.20719724893569946289e-01) (16, -1.74398571252822875977e-01) (17, -1.72730743885040283203e-01) (18, -1.45258814096450805664e-01) (19, -4.35823760926723480225e-02) (20, -9.56417322158813476562e-02) (21, -1.85188144445419311523e-01) (22, -2.12257653474807739258e-01) (23, -1.10786944627761840820e-01) (24, -1.11611217260360717773e-01) (25, -2.14736253023147583008e-01) (0, 3.56518179178237915039e-02) (1, 1.12430199980735778809e-01) (2, 4.02621775865554809570e-02) (3, 9.97115075588226318359e-02) (4, 5.46322166919708251953e-02) (5, 1.34676769375801086426e-01) (6, 1.54878934845328330994e-02) (7, 1.52691707015037536621e-01) (8, 1.03384247049689292908e-02) (9, 9.58871394395828247070e-02) (10, 8.28938838094472885132e-03) (11, 3.47004011273384094238e-02) (12, 8.06745171546936035156e-01) (13, 3.20416539907455444336e-02) (14, 7.51386135816574096680e-02) (15, 4.40247915685176849365e-02) (16, -4.12927791476249694824e-02) (17, 8.89513343572616577148e-02) (18, -3.96402403712272644043e-02) (19, 7.14750960469245910645e-02) (20, 9.76715981960296630859e-02) (21, 1.54011910781264305115e-02) (22, 1.28184363245964050293e-01) (23, -1.81472096592187881470e-02) (24, 1.25881924759596586227e-03) (25, 6.19826205074787139893e-02) (0, -1.57735347747802734375e-01) (1, -1.65398836135864257812e-01) (2, -2.03204333782196044922e-01) (3, -3.99065725505352020264e-02) (4, -1.50695085525512695312e-01) (5, -1.21952533721923828125e-01) (6, -8.18763971328735351562e-02) (7, -6.48328959941864013672e-02) (8, -1.76641017198562622070e-01) (9, -1.81644171476364135742e-01) (10, -8.45561623573303222656e-02) (11, -1.15553140640258789062e-01) (12, 6.90247595310211181641e-01) (13, -2.28617727756500244141e-01) (14, -1.74066007137298583984e-01) (15, -1.29463076591491699219e-01) (16, -1.48317337036132812500e-01) (17, -2.11480885744094848633e-01) (18, -5.18214367330074310303e-02) (19, -2.27578699588775634766e-01) (20, -1.21856093406677246094e-01) (21, -4.75141964852809906006e-02) (22, -9.30273830890655517578e-02) (23, -1.15896314382553100586e-01) (24, -1.30439102649688720703e-01) (25, -1.49755805730819702148e-01) (0, 2.72944897413253784180e-01) (1, 1.71185269951820373535e-01) (2, 2.05537006258964538574e-01) (3, 1.19803696870803833008e-01) (4, 2.78767883777618408203e-01) (5, 2.77241677045822143555e-01) (6, 1.83844864368438720703e-01) (7, 1.05003543198108673096e-01) (8, 2.66775101423263549805e-01) (9, 2.62589782476425170898e-01) (10, 2.12491020560264587402e-01) (11, 2.14338690042495727539e-01) (12, 7.72956907749176025391e-01) (13, 2.65289992094039916992e-01) (14, 2.62134522199630737305e-01) (15, 1.72080725431442260742e-01) (16, 1.79176852107048034668e-01) (17, 1.08222045004367828369e-01) (18, 1.72903001308441162109e-01) (19, 2.34550863504409790039e-01) (20, 2.08198949694633483887e-01) (21, 2.54025697708129882812e-01) (22, 2.52509981393814086914e-01) (23, 1.85817524790763854980e-01) (24, 2.55886971950531005859e-01) (25, 1.60093903541564941406e-01) (0, -3.62567007541656494141e-02) (1, -1.17004523053765296936e-02) (2, 6.96375668048858642578e-02) (3, 6.27442002296447753906e-02) (4, 6.79837465286254882812e-02) (5, 4.41824123263359069824e-02) (6, -6.44705519080162048340e-02) (7, -2.48792637139558792114e-02) (8, 6.55861049890518188477e-02) (9, -8.41026827692985534668e-02) (10, -4.60376068949699401855e-02) (11, -4.89690527319908142090e-02) (12, 6.72260940074920654297e-01) (13, -7.76625499129295349121e-02) (14, -8.47792550921440124512e-02) (15, 3.65918651223182678223e-02) (16, 3.82761284708976745605e-02) (17, 4.40175905823707580566e-02) (18, 3.48184909671545028687e-03) (19, 2.01064255088567733765e-03) (20, -8.23016986250877380371e-02) (21, 8.42587053775787353516e-02) (22, 1.18326684460043907166e-02) (23, -7.79868755489587783813e-03) (24, 2.04095672816038131714e-02) (25, -7.83683881163597106934e-02) (0, 1.51826977729797363281e-01) (1, 1.78519546985626220703e-01) (2, 2.13049143552780151367e-01) (3, 1.09313927590847015381e-01) (4, 2.40213438868522644043e-01) (5, 2.82392472028732299805e-01) (6, 2.03213483095169067383e-01) (7, 2.15450987219810485840e-01) (8, 2.50736653804779052734e-01) (9, 1.76797226071357727051e-01) (10, 1.65233403444290161133e-01) (11, 2.91866093873977661133e-01) (12, 8.03278028964996337891e-01) (13, 1.36419519782066345215e-01) (14, 1.13363415002822875977e-01) (15, 1.17080353200435638428e-01) (16, 1.93050473928451538086e-01) (17, 1.41464278101921081543e-01) (18, 1.45017787814140319824e-01) (19, 2.13871210813522338867e-01) (20, 2.83656150102615356445e-01) (21, 2.88893938064575195312e-01) (22, 1.63488805294036865234e-01) (23, 1.92737996578216552734e-01) (24, 1.96504563093185424805e-01) (25, 1.86787128448486328125e-01) (0, 1.82596713304519653320e-01) (1, 1.13937243819236755371e-01) (2, 2.84588456153869628906e-01) (3, 1.08606271445751190186e-01) (4, 1.41168862581253051758e-01) (5, 1.38015404343605041504e-01) (6, 1.88725799322128295898e-01) (7, 2.55818009376525878906e-01) (8, 1.48929327726364135742e-01) (9, 1.30539223551750183105e-01) (10, 2.39810436964035034180e-01) (11, 2.53742814064025878906e-01) (12, 7.93350279331207275391e-01) (13, 1.92147061228752136230e-01) (14, 1.32140010595321655273e-01) (15, 1.14423595368862152100e-01) (16, 1.85613140463829040527e-01) (17, 2.91257977485656738281e-01) (18, 1.52443096041679382324e-01) (19, 2.00576543807983398438e-01) (20, 1.09938308596611022949e-01) (21, 2.47093573212623596191e-01) (22, 2.43640825152397155762e-01) (23, 1.56556099653244018555e-01) (24, 1.62564769387245178223e-01) (25, 2.28896960616111755371e-01) (0, 3.05000599473714828491e-03) (1, 8.36535692214965820312e-02) (2, -2.07650605589151382446e-02) (3, 1.01154565811157226562e-01) (4, -2.79593188315629959106e-02) (5, 6.34316429495811462402e-02) (6, 1.16691797971725463867e-01) (7, -4.17708978056907653809e-02) (8, 7.36378952860832214355e-02) (9, -4.05393615365028381348e-02) (10, -2.15549860149621963501e-03) (11, -3.60363125801086425781e-02) (12, 8.06638717651367187500e-01) (13, 4.83738258481025695801e-02) (14, -3.89710161834955215454e-03) (15, 5.82890324294567108154e-02) (16, 3.71660944074392318726e-03) (17, 1.45293086767196655273e-01) (18, 1.52036085724830627441e-01) (19, 3.74566167593002319336e-02) (20, -3.86833325028419494629e-02) (21, 3.92492190003395080566e-02) (22, 3.03145777434110641479e-02) (23, 1.53597583994269371033e-02) (24, 1.41425758600234985352e-01) (25, 4.18528839945793151855e-02) (0, 1.08053334057331085205e-01) (1, 2.30666577816009521484e-01) (2, 2.44008973240852355957e-01) (3, 1.72218084335327148438e-01) (4, 1.61163508892059326172e-01) (5, 2.92658984661102294922e-01) (6, 1.01471655070781707764e-01) (7, 1.85998439788818359375e-01) (8, 2.39413544535636901855e-01) (9, 1.19112335145473480225e-01) (10, 2.95030087232589721680e-01) (11, 2.01705336570739746094e-01) (12, 6.68701469898223876953e-01) (13, 2.14267984032630920410e-01) (14, 2.06765964627265930176e-01) (15, 1.66385933756828308105e-01) (16, 2.23831668496131896973e-01) (17, 1.69244587421417236328e-01) (18, 2.60359764099121093750e-01) (19, 2.65534579753875732422e-01) (20, 2.73133635520935058594e-01) (21, 1.09676375985145568848e-01) (22, 2.56427645683288574219e-01) (23, 2.70769715309143066406e-01) (24, 1.92732989788055419922e-01) (25, 2.63344317674636840820e-01) (0, -4.83810827136039733887e-02) (1, 6.46475553512573242188e-02) (2, -7.96959325671195983887e-02) (3, -6.13553449511528015137e-02) (4, -4.78995665907859802246e-02) (5, -7.00426325201988220215e-02) (6, 7.09112286567687988281e-02) (7, -1.02290622889995574951e-01) (8, 3.77546157687902450562e-03) (9, -6.63252696394920349121e-02) (10, 9.19683724641799926758e-02) (11, 6.84709753841161727905e-03) (12, 7.71033227443695068359e-01) (13, 3.29819023609161376953e-02) (14, 2.75594275444746017456e-02) (15, 1.79032366722822189331e-02) (16, -6.37127980589866638184e-02) (17, 5.21008521318435668945e-02) (18, -6.62287995219230651855e-02) (19, 4.46531698107719421387e-02) (20, -7.99132212996482849121e-02) (21, 5.92028647661209106445e-02) (22, -8.45022425055503845215e-02) (23, 8.20465385913848876953e-02) (24, 2.63373982161283493042e-02) (25, 9.02313739061355590820e-02) (0, -3.05170994251966476440e-02) (1, -1.39474958181381225586e-01) (2, -6.12389408051967620850e-02) (3, -1.36184126138687133789e-01) (4, -1.74530655145645141602e-01) (5, -2.04020023345947265625e-01) (6, -1.65936559438705444336e-01) (7, -1.48626595735549926758e-01) (8, -1.59775376319885253906e-01) (9, -1.08236134052276611328e-01) (10, -1.13069236278533935547e-01) (11, -1.83264136314392089844e-01) (12, 7.68673300743103027344e-01) (13, -2.03693777322769165039e-01) (14, -1.43989413976669311523e-01) (15, -1.07358396053314208984e-01) (16, -9.12466645240783691406e-02) (17, -2.17116236686706542969e-01) (18, -1.68776482343673706055e-01) (19, -1.58087223768234252930e-01) (20, -9.36129987239837646484e-02) (21, -1.26889288425445556641e-01) (22, -2.00386375188827514648e-01) (23, -5.42418025434017181396e-02) (24, -1.76636099815368652344e-01) (25, -1.74699574708938598633e-01) (0, 2.38401055335998535156e-01) (1, 1.72301650047302246094e-01) (2, 1.40786960721015930176e-01) (3, 1.70338451862335205078e-01) (4, 1.68133020401000976562e-01) (5, 1.39709860086441040039e-01) (6, 2.60303497314453125000e-01) (7, 1.36334076523780822754e-01) (8, 2.32965737581253051758e-01) (9, 1.15212827920913696289e-01) (10, 1.61754041910171508789e-01) (11, 2.96469181776046752930e-01) (12, 7.41786301136016845703e-01) (13, 2.31418684124946594238e-01) (14, 2.17673033475875854492e-01) (15, 1.12396992743015289307e-01) (16, 2.77594566345214843750e-01) (17, 1.42186284065246582031e-01) (18, 1.38143226504325866699e-01) (19, 1.63045123219490051270e-01) (20, 2.64267921447753906250e-01) (21, 2.76336580514907836914e-01) (22, 1.75368875265121459961e-01) (23, 1.24931402504444122314e-01) (24, 1.47689342498779296875e-01) (25, 1.11195854842662811279e-01) (0, 2.27482125163078308105e-01) (1, 1.76742970943450927734e-01) (2, 2.86394059658050537109e-01) (3, 2.80286043882369995117e-01) (4, 2.31483384966850280762e-01) (5, 2.26395085453987121582e-01) (6, 1.54187664389610290527e-01) (7, 2.73870348930358886719e-01) (8, 2.98333555459976196289e-01) (9, 2.23920673131942749023e-01) (10, 1.15180186927318572998e-01) (11, 2.60237038135528564453e-01) (12, 8.07614803314208984375e-01) (13, 2.49745920300483703613e-01) (14, 2.77049839496612548828e-01) (15, 1.25208765268325805664e-01) (16, 2.47815072536468505859e-01) (17, 1.74676045775413513184e-01) (18, 2.58227437734603881836e-01) (19, 1.67088091373443603516e-01) (20, 1.88673019409179687500e-01) (21, 2.37421974539756774902e-01) (22, 2.10874363780021667480e-01) (23, 2.28416249155998229980e-01) (24, 1.02067083120346069336e-01) (25, 1.76742240786552429199e-01) (0, 6.23527877032756805420e-02) (1, 3.50359380245208740234e-02) (2, 5.92736341059207916260e-02) (3, 1.11642122268676757812e-01) (4, 4.78317812085151672363e-02) (5, -1.16442525759339332581e-02) (6, -1.00149223580956459045e-02) (7, 3.58258187770843505859e-02) (8, -2.97582466155290603638e-02) (9, 1.23068451881408691406e-01) (10, -3.61791104078292846680e-02) (11, 2.60294061154127120972e-02) (12, 7.88298845291137695312e-01) (13, -3.62455919384956359863e-02) (14, 1.51550069451332092285e-01) (15, 1.15318939089775085449e-01) (16, 1.25591412186622619629e-01) (17, 1.15004792809486389160e-01) (18, 6.66648447513580322266e-02) (19, 1.04241237044334411621e-01) (20, 1.41813546419143676758e-01) (21, 1.60799007862806320190e-02) (22, -1.94827336817979812622e-02) (23, 1.01640984416007995605e-01) (24, 8.47679823637008666992e-02) (25, 7.07902833819389343262e-02) (0, -1.93370599299669265747e-02) (1, -6.27576634287834167480e-02) (2, -5.91934844851493835449e-02) (3, -1.56699884682893753052e-02) (4, 1.55845722183585166931e-02) (5, 4.87592965364456176758e-02) (6, 6.49659484624862670898e-02) (7, -7.95417949557304382324e-02) (8, 6.00141193717718124390e-03) (9, -4.16022762656211853027e-02) (10, -4.55860421061515808105e-02) (11, 4.15864810347557067871e-02) (12, 7.89583623409271240234e-01) (13, -2.97442991286516189575e-02) (14, 1.02549334987998008728e-02) (15, 4.92444336414337158203e-02) (16, 4.18851152062416076660e-02) (17, -4.56063076853752136230e-02) (18, 5.85988312959671020508e-02) (19, 3.90351787209510803223e-02) (20, -8.46873745322227478027e-02) (21, 2.97902505844831466675e-02) (22, -3.60028003342449665070e-04) (23, 2.75774728506803512573e-02) (24, -2.03685332089662551880e-02) (25, -1.29464874044060707092e-02) (0, 2.93257385492324829102e-01) (1, 2.09748744964599609375e-01) (2, 1.38294503092765808105e-01) (3, 2.23625376820564270020e-01) (4, 1.26139029860496520996e-01) (5, 2.24557444453239440918e-01) (6, 2.66467720270156860352e-01) (7, 1.72545537352561950684e-01) (8, 1.14487454295158386230e-01) (9, 1.87652274966239929199e-01) (10, 1.26904830336570739746e-01) (11, 2.85053402185440063477e-01) (12, 7.59470522403717041016e-01) (13, 2.38506242632865905762e-01) (14, 1.49051129817962646484e-01) (15, 2.73724436759948730469e-01) (16, 1.85692727565765380859e-01) (17, 2.94474691152572631836e-01) (18, 1.49580150842666625977e-01) (19, 1.01547658443450927734e-01) (20, 2.49319091439247131348e-01) (21, 2.97065287828445434570e-01) (22, 1.61541357636451721191e-01) (23, 2.13517919182777404785e-01) (24, 2.41700455546379089355e-01) (25, 1.82453975081443786621e-01) (0, -5.50918504595756530762e-02) (1, -5.70596083998680114746e-02) (2, -8.83685573935508728027e-02) (3, 3.01396381109952926636e-02) (4, 3.55939194560050964355e-02) (5, -9.35111865401268005371e-02) (6, -5.85116371512413024902e-02) (7, 7.54884183406829833984e-02) (8, 3.17141711711883544922e-02) (9, -3.07726133614778518677e-02) (10, 1.64583220612257719040e-03) (11, -2.18139131902717053890e-04) (12, 7.93133020401000976562e-01) (13, 1.77332740277051925659e-02) (14, 8.90341401100158691406e-02) (15, 7.18777328729629516602e-02) (16, 4.38666250556707382202e-03) (17, 4.34459652751684188843e-03) (18, 1.19839599356055259705e-02) (19, 5.50377815961837768555e-02) (20, -2.03309673815965652466e-02) (21, -1.00723318755626678467e-01) (22, 5.11124432086944580078e-02) (23, 3.08491718024015426636e-02) (24, -9.75756570696830749512e-02) (25, 2.03151907771825790405e-03) (0, 8.95144343376159667969e-02) (1, 2.55656894296407699585e-02) (2, -2.28505674749612808228e-02) (3, 3.28148677945137023926e-02) (4, 1.09619662165641784668e-01) (5, 2.76575889438390731812e-02) (6, 8.13552737236022949219e-02) (7, 1.26851111650466918945e-01) (8, -3.66027802228927612305e-02) (9, 2.25491952151060104370e-02) (10, 1.38939917087554931641e-01) (11, 1.04855885729193687439e-02) (12, 6.93397700786590576172e-01) (13, 7.62540847063064575195e-02) (14, 8.53129774332046508789e-02) (15, 1.10883444547653198242e-01) (16, -1.83640588074922561646e-02) (17, 3.42859029769897460938e-02) (18, 3.42167317867279052734e-02) (19, -2.37299222499132156372e-02) (20, 1.17636313661932945251e-02) (21, 1.44203394651412963867e-01) (22, 8.62146914005279541016e-02) (23, 1.29347607493400573730e-01) (24, 1.04841187596321105957e-01) (25, -2.85162869840860366821e-02) (0, 2.78224319219589233398e-01) (1, 2.05553635954856872559e-01) (2, 2.51932919025421142578e-01) (3, 2.86248654127120971680e-01) (4, 1.13185144960880279541e-01) (5, 1.87047332525253295898e-01) (6, 1.57414332032203674316e-01) (7, 1.35934576392173767090e-01) (8, 2.65462219715118408203e-01) (9, 1.12633988261222839355e-01) (10, 2.09192156791687011719e-01) (11, 1.92417472600936889648e-01) (12, 8.30845177173614501953e-01) (13, 2.18189373612403869629e-01) (14, 2.60566681623458862305e-01) (15, 2.69625008106231689453e-01) (16, 2.74274975061416625977e-01) (17, 1.09804257750511169434e-01) (18, 1.91479071974754333496e-01) (19, 2.05187946557998657227e-01) (20, 2.66287714242935180664e-01) (21, 2.18715026974678039551e-01) (22, 2.85073846578598022461e-01) (23, 1.46104425191879272461e-01) (24, 2.40585103631019592285e-01) (25, 1.42437472939491271973e-01) (0, 1.35907813906669616699e-01) (1, 1.72399774193763732910e-01) (2, 1.17385074496269226074e-01) (3, 2.86348998546600341797e-01) (4, 1.89483493566513061523e-01) (5, 2.97209382057189941406e-01) (6, 1.93502619862556457520e-01) (7, 1.43016383051872253418e-01) (8, 2.85058021545410156250e-01) (9, 2.08287760615348815918e-01) (10, 2.31663703918457031250e-01) (11, 1.44072309136390686035e-01) (12, 7.91582405567169189453e-01) (13, 1.98725894093513488770e-01) (14, 1.58306285738945007324e-01) (15, 1.56614467501640319824e-01) (16, 2.92743355035781860352e-01) (17, 1.44991368055343627930e-01) (18, 2.76403844356536865234e-01) (19, 2.54910022020339965820e-01) (20, 1.16216354072093963623e-01) (21, 2.52278804779052734375e-01) (22, 2.66314268112182617188e-01) (23, 2.09295421838760375977e-01) (24, 1.59066721796989440918e-01) (25, 2.34201952815055847168e-01) (0, -1.98229581117630004883e-01) (1, -1.82099461555480957031e-01) (2, -4.59336303174495697021e-02) (3, -5.60444854199886322021e-02) (4, -1.38062000274658203125e-01) (5, -2.08425849676132202148e-01) (6, -1.82044744491577148438e-01) (7, -1.19076937437057495117e-01) (8, -2.20476835966110229492e-01) (9, -9.09612476825714111328e-02) (10, -1.20267570018768310547e-01) (11, -1.25374227762222290039e-01) (12, 8.27255189418792724609e-01) (13, -1.33609592914581298828e-01) (14, -2.15486496686935424805e-01) (15, -1.13081187009811401367e-01) (16, -8.79372954368591308594e-02) (17, -6.80641829967498779297e-02) (18, -2.12755292654037475586e-01) (19, -2.28030979633331298828e-01) (20, -2.09849715232849121094e-01) (21, -2.18411952257156372070e-01) (22, -1.81439638137817382812e-01) (23, -3.18458788096904754639e-02) (24, -6.19019530713558197021e-02) (25, -1.63623303174972534180e-01) (0, 4.58728969097137451172e-02) (1, 2.98522692173719406128e-02) (2, 7.11121112108230590820e-02) (3, -9.34604033827781677246e-02) (4, -3.43457907438278198242e-02) (5, -9.76774916052818298340e-02) (6, -4.61198315024375915527e-02) (7, -5.08394464850425720215e-02) (8, 7.57180452346801757812e-02) (9, 4.52581718564033508301e-02) (10, -2.98252869397401809692e-02) (11, -7.68867060542106628418e-02) (12, 7.05381333827972412109e-01) (13, -2.08621341735124588013e-02) (14, 6.15920573472976684570e-02) (15, 6.47936761379241943359e-02) (16, 8.32036435604095458984e-02) (17, 4.46871742606163024902e-02) (18, -3.93759235739707946777e-02) (19, -1.02842859923839569092e-01) (20, -3.89540120959281921387e-02) (21, -9.78732034564018249512e-02) (22, 5.85329830646514892578e-02) (23, -2.22693104296922683716e-02) (24, -9.64642092585563659668e-02) (25, 7.81232714653015136719e-02) (0, -1.12412581220269203186e-02) (1, -4.84638139605522155762e-02) (2, 7.57173895835876464844e-02) (3, -4.37032207846641540527e-02) (4, 1.73528771847486495972e-02) (5, 2.71902810782194137573e-02) (6, 9.17490422725677490234e-02) (7, -5.93501422554254531860e-03) (8, 3.93298938870429992676e-02) (9, -3.69967520236968994141e-02) (10, 1.98753084987401962280e-03) (11, -1.01189963519573211670e-01) (12, 7.67523884773254394531e-01) (13, -1.66944433003664016724e-02) (14, 4.96682375669479370117e-02) (15, 9.35385227203369140625e-02) (16, 1.20188733562827110291e-02) (17, -8.91105160117149353027e-02) (18, -2.17236001044511795044e-02) (19, -2.07890737801790237427e-02) (20, 8.12831521034240722656e-02) (21, -3.29199582338333129883e-02) (22, -7.05018863081932067871e-02) (23, -5.24927601218223571777e-02) (24, -3.01628131419420242310e-02) (25, -3.85588500648736953735e-03) (0, -4.47659417986869812012e-02) (1, -6.60298392176628112793e-02) (2, 7.94748216867446899414e-02) (3, -3.56301367282867431641e-02) (4, -8.23065862059593200684e-02) (5, -2.61664558202028274536e-02) (6, 2.15060394257307052612e-02) (7, -1.00989215075969696045e-01) (8, 3.57303097844123840332e-02) (9, -5.55410906672477722168e-02) (10, 3.18010896444320678711e-02) (11, 3.30793708562850952148e-02) (12, 7.93883979320526123047e-01) (13, -2.32690144330263137817e-02) (14, -9.83174070715904235840e-02) (15, -4.82885763049125671387e-02) (16, -1.88589561730623245239e-02) (17, 2.50464063137769699097e-02) (18, 4.06169965863227844238e-02) (19, -6.35907277464866638184e-02) (20, 2.41849403828382492065e-02) (21, -4.17641326785087585449e-02) (22, -4.71012517809867858887e-02) (23, -9.19386669993400573730e-02) (24, 4.30468097329139709473e-02) (25, -6.02180883288383483887e-02) (26, -1.43098622560501098633e-01) (27, 5.87904989719390869141e-01) (28, 1.57049164175987243652e-01) (29, 5.65938591957092285156e-01) (30, -1.43950968980789184570e-01) (31, 2.75483250617980957031e-01) (32, -2.28091269731521606445e-01) (33, -1.58876150846481323242e-01) (34, 8.78530815243721008301e-02) (35, -2.04797863960266113281e-01) (36, 2.66157418489456176758e-01) (37, 5.60559153556823730469e-01) (38, -2.00187057256698608398e-01) (39, -1.38112276792526245117e-01) (40, 6.50180280208587646484e-02) (41, 2.82814085483551025391e-01) (42, -1.99432909488677978516e-01) (43, 2.72341966629028320312e-01) (44, 1.07545033097267150879e-01) (45, -1.92150294780731201172e-01) (46, -2.15946614742279052734e-01) (47, 5.39886116981506347656e-01) (48, 2.84096151590347290039e-01) (49, 2.75870412588119506836e-01) (50, 2.93895393610000610352e-01) (51, -1.31718963384628295898e-01) 
