FANN_FLO_2.1
num_layers=3
learning_rate=0.700000
connection_rate=1.000000
network_type=0
learning_momentum=0.000000
training_algorithm=2
train_error_function=1
train_stop_function=0
cascade_output_change_fraction=0.010000
quickprop_decay=-0.000100
quickprop_mu=1.750000
rprop_increase_factor=1.200000
rprop_decrease_factor=0.500000
rprop_delta_min=0.000000
rprop_delta_max=50.000000
rprop_delta_zero=0.100000
cascade_output_stagnation_epochs=12
cascade_candidate_change_fraction=0.010000
cascade_candidate_stagnation_epochs=12
cascade_max_out_epochs=150
cascade_max_cand_epochs=150
cascade_num_candidate_groups=2
bit_fail_limit=3.49999994039535522461e-01
cascade_candidate_limit=1.00000000000000000000e+03
cascade_weight_multiplier=4.00000005960464477539e-01
cascade_activation_functions_count=10
cascade_activation_functions=3 5 7 8 10 11 14 15 16 17 
cascade_activation_steepnesses_count=4
cascade_activation_steepnesses=2.50000000000000000000e-01 5.00000000000000000000e-01 7.50000000000000000000e-01 1.00000000000000000000e+00 
layer_sizes=26 26 2 
scale_included=0
neurons (num_inputs, activation_function, activation_steepness)=(0, 0, 0.00000000000000000000e+00) (0, 0, 0.00000000000000000000e+00) (0, 0, 0.00000000000000000000e+00) (0, 0, 0.00000000000000000000e+00) (0, 0, 0.00000000000000000000e+00) (0, 0, 0.00000000000000000000e+00) (0, 0, 0.00000000000000000000e+00) (0, 0, 0.00000000000000000000e+00) (0, 0, 0.00000000000000000000e+00) (0, 0, 0.00000000000000000000e+00) (0, 0, 0.00000000000000000000e+00) (0, 0, 0.00000000000000000000e+00) (0, 0, 0.00000000000000000000e+00) (0, 0, 0.00000000000000000000e+00) (0, 0, 0.00000000000000000000e+00) (0, 0, 0.00000000000000000000e+00) (0, 0, 0.00000000000000000000e+00) (0, 0, 0.00000000000000000000e+00) (0, 0, 0.00000000000000000000e+00) (0, 0, 0.00000000000000000000e+00) (0, 0, 0.00000000000000000000e+00) (0, 0, 0.00000000000000000000e+00) (0, 0, 0.00000000000000000000e+00) (0, 0, 0.00000000000000000000e+00) (0, 0, 0.00000000000000000000e+00) (0, 0, 0.00000000000000000000e+00) (26, 3, 5.00000000000000000000e-01) (26, 3, 5.00000000000000000000e-01) (26, 3, 5.00000000000000000000e-01) (26, 3, 5.00000000000000000000e-01) (26, 3, 5.00000000000000000000e-01) (26, 3, 5.00000000000000000000e-01) (26, 3, 5.00000000000000000000e-01) (26, 3, 5.00000000000000000000e-01) (26, 3, 5.00000000000000000000e-01) (26, 3, 5.00000000000000000000e-01) (26, 3, 5.00000000000000000000e-01) (26, 3, 5.00000000000000000000e-01) (26, 3, 5.00000000000000000000e-01) (26, 3, 5.00000000000000000000e-01) (26, 3, 5.00000000000000000000e-01) (26, 3, 5.00000000000000000000e-01) (26, 3, 5.00000000000000000000e-01) (26, 3, 5.00000000000000000000e-01) (26, 3, 5.00000000000000000000e-01) (26, 3, 5.00000000000000000000e-01) (26, 3, 5.00000000000000000000e-01) (26, 3, 5.00000000000000000000e-01) (26, 3, 5.00000000000000000000e-01) (26, 3, 5.00000000000000000000e-01) (26, 3, 5.00000000000000000000e-01) (0, 3, 0.00000000000000000000e+00) (26, 4, 1.00000000000000000000e+00) (0, 0, 1.00000000000000000000e+00) 
connections (connected_to_neuron, weight)=(0, 1.03622414171695709229e-01) (1, 5.95862716436386108398e-02) (2, 4.51008528470993041992e-02) (3, 2.94426698237657546997e-02) (4, 1.32023841142654418945e-01) (5, 1.83701470494270324707e-01) (6, 8.71409401297569274902e-02) (7, 5.65024763345718383789e-02) (8, 7.98282399773597717285e-02) (9, 1.78930625319480895996e-01) (10, 1.50142937898635864258e-01) (11, 1.79189652204513549805e-01) (12, 5.38941681385040283203e-01) (13, 1.33628129959106445312e-01) (14, 1.78187206387519836426e-01) (15, 1.03382520377635955811e-01) (16, 1.01764194667339324951e-01) (17, 4.13878485560417175293e-02) (18, 1.82860959321260452271e-02) (19, 1.32986694574356079102e-01) (20, 1.39733076095581054688e-01) (21, 7.65963122248649597168e-02) (22, 1.12288065254688262939e-01) (23, 5.34767061471939086914e-02) (24, 1.84324577450752258301e-01) (25, 1.54299557209014892578e-01) (0, 1.42599031329154968262e-01) (1, 1.21838532388210296631e-01) (2, 3.84436845779418945312e-02) (3, 6.85926452279090881348e-02) (4, 9.63077545166015625000e-02) (5, 1.30066096782684326172e-01) (6, 1.16178922355175018311e-01) (7, 1.29408612847328186035e-01) (8, 1.47508770227432250977e-01) (9, 3.62027511000633239746e-02) (10, 1.01110063493251800537e-01) (11, 2.26496998220682144165e-02) (12, 5.05505263805389404297e-01) (13, 1.68938308954238891602e-01) (14, 1.89580321311950683594e-01) (15, 1.88481602817773818970e-02) (16, 1.36127948760986328125e-01) (17, 9.17219594120979309082e-02) (18, 1.40476286411285400391e-01) (19, 1.02315135300159454346e-01) (20, 1.83104485273361206055e-01) (21, 3.02404779940843582153e-02) (22, 1.31702989339828491211e-01) (23, 1.89390569925308227539e-01) (24, 1.51227161288261413574e-01) (25, 5.94360455870628356934e-02) (0, 5.39868697524070739746e-02) (1, 5.15152215957641601562e-02) (2, 1.00912749767303466797e-01) (3, 2.63114441186189651489e-02) (4, 1.93814769387245178223e-01) (5, 3.15117686986923217773e-02) (6, 1.36149972677230834961e-01) (7, 2.02584434300661087036e-02) (8, 8.81044194102287292480e-02) (9, 2.04577166587114334106e-02) (10, 1.38324543833732604980e-01) (11, 1.92283347249031066895e-01) (12, 5.62666356563568115234e-01) (13, 7.38333016633987426758e-02) (14, 1.64860803633928298950e-02) (15, 2.69763786345720291138e-02) (16, 8.44829976558685302734e-02) (17, 8.51913094520568847656e-02) (18, 1.83914691209793090820e-01) (19, 6.20633065700531005859e-02) (20, 9.20394659042358398438e-02) (21, 1.08042620122432708740e-01) (22, 1.41785278916358947754e-01) (23, 2.05157492309808731079e-02) (24, 1.98357760906219482422e-01) (25, 1.12889736890792846680e-01) (0, 3.87562215328216552734e-02) (1, 1.18060722947120666504e-01) (2, 9.02802944183349609375e-02) (3, 1.77983388304710388184e-01) (4, 1.65496781468391418457e-01) (5, 1.32267177104949951172e-01) (6, 1.74985919147729873657e-02) (7, 5.44095188379287719727e-02) (8, 1.46578609943389892578e-01) (9, 1.99313357472419738770e-01) (10, 7.39212930202484130859e-02) (11, 7.07285776734352111816e-02) (12, 6.32371842861175537109e-01) (13, 1.50025710463523864746e-01) (14, 7.91862905025482177734e-02) (15, 1.33896335959434509277e-01) (16, 1.30309045314788818359e-01) (17, 2.05052614212036132812e-01) (18, 1.95729628205299377441e-01) (19, 1.34795129299163818359e-01) (20, 2.00289878994226455688e-02) (21, 6.82126209139823913574e-02) (22, 2.07986429333686828613e-01) (23, 1.91943675279617309570e-01) (24, 1.18275932967662811279e-01) (25, 8.80258828401565551758e-02) (0, -1.52137298136949539185e-02) (1, -5.51388151943683624268e-02) (2, -6.65837712585926055908e-03) (3, -2.88559813052415847778e-02) (4, 4.57509271800518035889e-02) (5, 2.00978498905897140503e-02) (6, 7.72047489881515502930e-02) (7, -7.59687870740890502930e-02) (8, -1.39187891036272048950e-02) (9, 3.07015161961317062378e-02) (10, 4.42983768880367279053e-02) (11, -8.42020101845264434814e-03) (12, 6.01111114025115966797e-01) (13, -2.11230237036943435669e-02) (14, -2.11068559437990188599e-02) (15, -6.49676769971847534180e-02) (16, 3.76055650413036346436e-02) (17, -2.55350638180971145630e-02) (18, 7.30580240488052368164e-02) (19, 1.04791849851608276367e-01) (20, 9.63612645864486694336e-02) (21, -8.63294489681720733643e-03) (22, 9.78444665670394897461e-02) (23, 8.00908803939819335938e-02) (24, -8.58378261327743530273e-02) (25, 1.05873450636863708496e-01) (0, 3.95034998655319213867e-02) (1, 1.33485877886414527893e-02) (2, 1.89017102122306823730e-01) (3, 1.45779430866241455078e-01) (4, 8.93744677305221557617e-02) (5, 6.50033727288246154785e-02) (6, 1.81840628385543823242e-01) (7, 1.73916101455688476562e-01) (8, 1.27347394824028015137e-01) (9, 1.18791535496711730957e-01) (10, 8.52139443159103393555e-02) (11, 9.57521349191665649414e-02) (12, 5.58822810649871826172e-01) (13, 1.62495166063308715820e-01) (14, 1.76536459475755691528e-02) (15, 6.95211216807365417480e-02) (16, 4.52749580144882202148e-02) (17, 1.81964680552482604980e-01) (18, 1.39598116278648376465e-01) (19, 1.15368105471134185791e-01) (20, 2.08196997642517089844e-01) (21, 6.84036538004875183105e-02) (22, 1.81033045053482055664e-01) (23, 1.72455012798309326172e-01) (24, 6.43955022096633911133e-02) (25, 1.68594300746917724609e-01) (0, 5.50220534205436706543e-02) (1, 5.34399524331092834473e-02) (2, 1.39885187149047851562e-01) (3, 6.03842213749885559082e-02) (4, 5.05133867263793945312e-02) (5, 1.67388677597045898438e-01) (6, 6.17328062653541564941e-02) (7, 2.75304857641458511353e-02) (8, 1.01168096065521240234e-01) (9, 1.39107272028923034668e-01) (10, 8.05338546633720397949e-02) (11, 7.10087120532989501953e-02) (12, 5.25823414325714111328e-01) (13, 1.95881247520446777344e-01) (14, 1.77800253033638000488e-01) (15, 1.74237310886383056641e-01) (16, 7.96333700418472290039e-02) (17, 9.98229756951332092285e-02) (18, 1.24732457101345062256e-01) (19, 8.52870121598243713379e-02) (20, 1.57344102859497070312e-01) (21, 1.58007428050041198730e-01) (22, 5.52516877651214599609e-02) (23, 8.49421918392181396484e-02) (24, 6.13755211234092712402e-02) (25, 5.14486804604530334473e-02) (0, 1.41345858573913574219e-01) (1, 3.04085556417703628540e-02) (2, 2.11903691291809082031e-01) (3, 1.93741351366043090820e-01) (4, 1.87002867460250854492e-01) (5, 5.49257397651672363281e-02) (6, 3.51812914013862609863e-02) (7, 1.14888027310371398926e-01) (8, 1.03309959173202514648e-01) (9, 7.36946836113929748535e-02) (10, 7.02766999602317810059e-02) (11, 1.53042763471603393555e-01) (12, 5.14025211334228515625e-01) (13, 1.59444808959960937500e-01) (14, 8.01500305533409118652e-02) (15, 1.57759025692939758301e-01) (16, 1.84535030275583267212e-02) (17, 1.69173404574394226074e-01) (18, 1.41640260815620422363e-01) (19, 1.84253752231597900391e-01) (20, 1.31410703063011169434e-01) (21, 2.09273636341094970703e-01) (22, 7.20767155289649963379e-02) (23, 4.41431477665901184082e-02) (24, 8.25606361031532287598e-02) (25, 1.74208078533411026001e-02) (0, 1.90150573849678039551e-01) (1, 1.25812321901321411133e-01) (2, 9.03629958629608154297e-02) (3, 3.95260751247406005859e-02) (4, 1.65261000394821166992e-01) (5, 1.97088439017534255981e-02) (6, 5.79346343874931335449e-02) (7, 1.65164694190025329590e-01) (8, 2.01450198888778686523e-01) (9, 3.29374819993972778320e-02) (10, 2.08090424537658691406e-01) (11, 2.46314797550439834595e-02) (12, 5.60625553131103515625e-01) (13, 9.94003713130950927734e-02) (14, 8.63261595368385314941e-02) (15, 1.94102212786674499512e-01) (16, 4.04431298375129699707e-02) (17, 1.63551330566406250000e-01) (18, 1.41547009348869323730e-01) (19, 1.08593158423900604248e-01) (20, 1.09310328960418701172e-01) (21, 1.48000508546829223633e-01) (22, 6.57665431499481201172e-02) (23, 3.89505699276924133301e-02) (24, 1.20254233479499816895e-01) (25, 1.85177236795425415039e-01) (0, 3.62241864204406738281e-02) (1, 1.80330947041511535645e-01) (2, 1.73203740268945693970e-02) (3, 1.06784820556640625000e-01) (4, 1.85751751065254211426e-01) (5, 1.95470944046974182129e-01) (6, 2.05971393734216690063e-02) (7, 6.41147345304489135742e-02) (8, 2.29970160871744155884e-02) (9, 1.73858135938644409180e-01) (10, 7.18235820531845092773e-02) (11, 6.89316466450691223145e-02) (12, 5.51822841167449951172e-01) (13, 6.12737610936164855957e-02) (14, 8.98691341280937194824e-02) (15, 1.23113222420215606689e-01) (16, 7.39052370190620422363e-02) (17, 1.36946374550461769104e-02) (18, 2.10513591766357421875e-01) (19, 1.48231402039527893066e-01) (20, 1.95796847343444824219e-01) (21, 3.89567092061042785645e-02) (22, 9.97827053070068359375e-02) (23, 1.25343844294548034668e-01) (24, 1.35549873113632202148e-01) (25, 1.97093039751052856445e-01) (0, -4.18556667864322662354e-02) (1, 8.61164033412933349609e-02) (2, -7.91564136743545532227e-02) (3, 6.63985759019851684570e-02) (4, 5.92936314642429351807e-02) (5, -5.49322105944156646729e-02) (6, 3.47295068204402923584e-02) (7, 6.46140128374099731445e-02) (8, 3.98526005446910858154e-02) (9, 8.48124735057353973389e-03) (10, 4.80849333107471466064e-02) (11, 4.84497286379337310791e-02) (12, 5.88596045970916748047e-01) (13, 5.90819455683231353760e-02) (14, 1.03078614920377731323e-02) (15, -7.95804411172866821289e-02) (16, -8.39864164590835571289e-02) (17, -7.46693313121795654297e-02) (18, -3.03066838532686233521e-02) (19, -6.11727125942707061768e-03) (20, 3.64438854157924652100e-02) (21, 3.15985493361949920654e-02) (22, -4.42263670265674591064e-03) (23, 3.49574647843837738037e-02) (24, -3.21700610220432281494e-02) (25, -2.06258017569780349731e-02) (0, 1.65114194154739379883e-01) (1, 1.58812656998634338379e-01) (2, 1.95918053388595581055e-01) (3, 8.86640399694442749023e-02) (4, 1.43905684351921081543e-01) (5, 4.52623739838600158691e-02) (6, 6.59804418683052062988e-02) (7, 1.55949279665946960449e-01) (8, 2.02860951423645019531e-01) (9, 1.64740774780511856079e-02) (10, 1.92217066884040832520e-01) (11, 1.28790453076362609863e-01) (12, 5.97088158130645751953e-01) (13, 1.23269654810428619385e-01) (14, 2.84716952592134475708e-02) (15, 1.11573025584220886230e-01) (16, 6.29193931818008422852e-02) (17, 1.80267691612243652344e-01) (18, 6.18549734354019165039e-02) (19, 1.64427265524864196777e-01) (20, 1.91887244582176208496e-01) (21, 6.90685734152793884277e-02) (22, 1.80957928299903869629e-01) (23, 5.27805536985397338867e-02) (24, 1.54151305556297302246e-01) (25, 1.08601808547973632812e-01) (0, 7.23791122436523437500e-02) (1, -6.22713454067707061768e-02) (2, -6.84407204389572143555e-02) (3, -6.85909539461135864258e-02) (4, 8.30285064876079559326e-03) (5, 8.46734642982482910156e-02) (6, 7.82216936349868774414e-02) (7, -7.77910836040973663330e-03) (8, -3.86625118553638458252e-02) (9, 1.01273637264966964722e-02) (10, 2.54832785576581954956e-02) (11, 1.53179299086332321167e-02) (12, 4.82076644897460937500e-01) (13, 1.63442175835371017456e-02) (14, 1.97920035570859909058e-02) (15, -6.57063275575637817383e-02) (16, -6.68653398752212524414e-02) (17, -1.99199188500642776489e-02) (18, 4.55633364617824554443e-02) (19, -5.03936447203159332275e-02) (20, 7.96531140804290771484e-02) (21, 9.64827239513397216797e-02) (22, -8.21259766817092895508e-02) (23, -7.04919248819351196289e-02) (24, 4.89099659025669097900e-02) (25, 9.77612733840942382812e-02) (0, 8.97766500711441040039e-02) (1, 1.21067896485328674316e-01) (2, 4.17418181896209716797e-02) (3, 3.19279357790946960449e-02) (4, 1.76697019487619400024e-02) (5, 2.05320939421653747559e-01) (6, 6.08565881848335266113e-02) (7, 4.04289737343788146973e-02) (8, 2.79299784451723098755e-02) (9, 1.60359457135200500488e-01) (10, 1.63024235516786575317e-02) (11, 1.97351679205894470215e-01) (12, 4.68580365180969238281e-01) (13, 6.88399076461791992188e-02) (14, 9.86790284514427185059e-02) (15, 1.60463631153106689453e-01) (16, 1.75357848405838012695e-01) (17, 1.43955662846565246582e-01) (18, 6.80078268051147460938e-02) (19, 8.63498374819755554199e-02) (20, 1.69449344277381896973e-01) (21, 9.23424884676933288574e-02) (22, 1.57629936933517456055e-01) (23, 1.06212660670280456543e-01) (24, 1.33148849010467529297e-01) (25, 1.28483027219772338867e-01) (0, -9.30462963879108428955e-03) (1, 3.90228740870952606201e-02) (2, 4.59911040961742401123e-02) (3, -6.91946446895599365234e-02) (4, 2.79841255396604537964e-02) (5, -7.62322545051574707031e-02) (6, 3.98732535541057586670e-02) (7, 5.77259398996829986572e-02) (8, -5.63043244183063507080e-02) (9, 4.55429516732692718506e-02) (10, 5.10468669235706329346e-02) (11, -7.44772143661975860596e-03) (12, 6.01971983909606933594e-01) (13, 6.69768601655960083008e-02) (14, -5.90882934629917144775e-02) (15, 7.82743394374847412109e-02) (16, 5.23285157978534698486e-02) (17, -2.73079443722963333130e-02) (18, -6.48857504129409790039e-02) (19, -6.09924681484699249268e-02) (20, -7.88443237543106079102e-02) (21, 9.84720885753631591797e-02) (22, 7.09632039070129394531e-02) (23, -2.28364933282136917114e-02) (24, -2.71780807524919509888e-02) (25, 2.84125190228223800659e-02) (0, 5.75059838593006134033e-02) (1, -8.15481692552566528320e-02) (2, -7.73748308420181274414e-02) (3, -2.13451702147722244263e-02) (4, 3.49348597228527069092e-02) (5, 4.52054850757122039795e-03) (6, -9.11223143339157104492e-02) (7, -2.78740394860506057739e-02) (8, 2.65258979052305221558e-02) (9, 2.80618201941251754761e-02) (10, -1.29062999039888381958e-02) (11, -4.24008555710315704346e-02) (12, 5.04987835884094238281e-01) (13, 2.19893883913755416870e-02) (14, 9.43420976400375366211e-02) (15, -8.07653516530990600586e-02) (16, 1.05741664767265319824e-01) (17, 5.95140047371387481689e-02) (18, 7.74114876985549926758e-02) (19, -6.21466375887393951416e-02) (20, 2.89883445948362350464e-02) (21, 2.09400039166212081909e-02) (22, 1.74543051980435848236e-03) (23, 5.53025938570499420166e-02) (24, 5.11475391685962677002e-02) (25, 1.41011010855436325073e-02) (0, 1.48174688220024108887e-01) (1, 1.16510733962059020996e-01) (2, 1.85664609074592590332e-01) (3, 1.21965939179062843323e-02) (4, 3.61232534050941467285e-02) (5, 1.34370595216751098633e-01) (6, 2.18484345823526382446e-02) (7, 4.99484315514564514160e-02) (8, 2.04225420951843261719e-01) (9, 1.47983297705650329590e-01) (10, 1.45668983459472656250e-01) (11, 2.04303115606307983398e-01) (12, 6.36109292507171630859e-01) (13, 6.33948817849159240723e-02) (14, 1.23564928770065307617e-01) (15, 8.96029621362686157227e-02) (16, 1.12194031476974487305e-01) (17, 1.91752701997756958008e-01) (18, 2.02792346477508544922e-01) (19, 9.77361276745796203613e-02) (20, 2.02187344431877136230e-01) (21, 1.99734002351760864258e-01) (22, 4.84501346945762634277e-02) (23, 1.70798823237419128418e-01) (24, 2.87873689085245132446e-02) (25, 1.68638497591018676758e-01) (0, 8.29388126730918884277e-02) (1, 1.21732793748378753662e-01) (2, 1.15141078829765319824e-01) (3, 2.52863559871912002563e-02) (4, 2.70338971167802810669e-02) (5, 5.13157546520233154297e-02) (6, 1.29797086119651794434e-01) (7, 2.00698509812355041504e-01) (8, 5.15123456716537475586e-02) (9, 1.53920352458953857422e-01) (10, 1.23069092631340026855e-01) (11, 6.13607764244079589844e-02) (12, 6.16668820381164550781e-01) (13, 1.15294508635997772217e-01) (14, 1.97344079613685607910e-01) (15, 1.25537753105163574219e-01) (16, 1.07597619295120239258e-01) (17, 1.96653336286544799805e-01) (18, 1.76932632923126220703e-01) (19, 1.91625375300645828247e-02) (20, 7.42562860250473022461e-02) (21, 7.71266520023345947266e-02) (22, 1.98915243148803710938e-01) (23, 6.50486201047897338867e-02) (24, 1.62862792611122131348e-01) (25, 1.89102560281753540039e-01) (0, 5.27826100587844848633e-02) (1, 1.99312925338745117188e-01) (2, 1.47901371121406555176e-01) (3, 6.95699825882911682129e-02) (4, 1.55951395630836486816e-01) (5, 1.88401807099580764771e-02) (6, 1.79302781820297241211e-01) (7, 5.90924695134162902832e-02) (8, 3.21265310049057006836e-02) (9, 1.94336682558059692383e-01) (10, 9.84082221984863281250e-02) (11, 1.49923622608184814453e-01) (12, 6.07835233211517333984e-01) (13, 1.37920573353767395020e-01) (14, 9.18439552187919616699e-02) (15, 9.41042602062225341797e-02) (16, 1.87281355261802673340e-01) (17, 7.17127174139022827148e-02) (18, 1.97398781776428222656e-01) (19, 1.72625422477722167969e-01) (20, 1.85250476002693176270e-01) (21, 9.29963812232017517090e-02) (22, 1.57278746366500854492e-01) (23, 1.50183096528053283691e-01) (24, 1.00158914923667907715e-01) (25, 1.95350218564271926880e-02) (0, -8.78902524709701538086e-02) (1, -1.61258596926927566528e-02) (2, -3.06163597851991653442e-02) (3, 6.29725158214569091797e-02) (4, -3.90233136713504791260e-02) (5, 1.01662557572126388550e-02) (6, 5.02854175865650177002e-02) (7, 9.68780666589736938477e-02) (8, 6.77362382411956787109e-02) (9, -5.76318986713886260986e-03) (10, 1.03718236088752746582e-01) (11, 3.50389890372753143311e-02) (12, 5.69329321384429931641e-01) (13, -7.61552304029464721680e-02) (14, 1.73756610602140426636e-02) (15, -7.22625106573104858398e-02) (16, 6.17683790624141693115e-02) (17, -1.15891713649034500122e-02) (18, 5.36580570042133331299e-02) (19, -5.83876706659793853760e-02) (20, 7.05150812864303588867e-02) (21, 2.89393942803144454956e-02) (22, 1.32503896020352840424e-03) (23, 5.59138394892215728760e-02) (24, -1.04351807385683059692e-02) (25, -2.54244972020387649536e-02) (0, 4.01102155447006225586e-02) (1, 3.80435511469841003418e-02) (2, 1.59585792571306228638e-02) (3, 1.28269135951995849609e-01) (4, 4.55785617232322692871e-02) (5, 1.92683134227991104126e-02) (6, 2.03343272209167480469e-01) (7, 1.06162205338478088379e-01) (8, 1.73440828919410705566e-01) (9, 5.55199533700942993164e-02) (10, 2.07528457045555114746e-01) (11, 1.14926241338253021240e-01) (12, 4.68398034572601318359e-01) (13, 1.66464686393737792969e-01) (14, 2.00363054871559143066e-01) (15, 3.85162308812141418457e-02) (16, 9.27036628127098083496e-02) (17, 1.32892325520515441895e-01) (18, 5.35609945654869079590e-02) (19, 2.01279327273368835449e-01) (20, 1.51829823851585388184e-01) (21, 2.06529378890991210938e-01) (22, 8.08901414275169372559e-02) (23, 9.66878682374954223633e-02) (24, 3.93417030572891235352e-02) (25, 4.26052138209342956543e-02) (0, 1.68272722512483596802e-02) (1, 1.31866753101348876953e-01) (2, 1.89719066023826599121e-01) (3, 9.75920781493186950684e-02) (4, 1.97642251849174499512e-01) (5, 1.78292710334062576294e-02) (6, 1.23635627329349517822e-01) (7, 2.01600834727287292480e-01) (8, 1.34098410606384277344e-01) (9, 1.57214194536209106445e-01) (10, 2.08869144320487976074e-01) (11, 1.25441670417785644531e-01) (12, 4.76176410913467407227e-01) (13, 1.70309960842132568359e-01) (14, 1.68961614370346069336e-01) (15, 4.69048395752906799316e-02) (16, 7.32361972332000732422e-02) (17, 2.00559630990028381348e-01) (18, 2.01369524002075195312e-01) (19, 6.15992322564125061035e-02) (20, 2.70758438855409622192e-02) (21, 8.20731669664382934570e-02) (22, 1.82491570711135864258e-01) (23, 6.86368420720100402832e-02) (24, 7.13524892926216125488e-02) (25, 1.22321367263793945312e-01) (0, -4.00337912142276763916e-02) (1, 3.70426289737224578857e-02) (2, 1.03809237480163574219e-01) (3, -1.26920808106660842896e-02) (4, 6.76478445529937744141e-02) (5, 1.08636498451232910156e-01) (6, 1.07174664735794067383e-01) (7, 4.53668944537639617920e-02) (8, -5.77143020927906036377e-03) (9, 9.28169041872024536133e-02) (10, 5.11961467564105987549e-02) (11, 1.05864211916923522949e-01) (12, 6.10417783260345458984e-01) (13, -2.67054457217454910278e-02) (14, 5.10783828794956207275e-02) (15, 7.92868733406066894531e-02) (16, 8.67362171411514282227e-02) (17, 9.04547870159149169922e-02) (18, 3.75968180596828460693e-02) (19, 4.36978302896022796631e-02) (20, -7.46403783559799194336e-02) (21, 9.88330096006393432617e-02) (22, 3.22574339807033538818e-02) (23, -8.52708667516708374023e-02) (24, -5.15677668154239654541e-02) (25, 4.73332814872264862061e-02) (0, -1.51977110654115676880e-02) (1, -8.10762196779251098633e-02) (2, 1.03970125317573547363e-01) (3, 4.41547743976116180420e-02) (4, 2.92451512068510055542e-02) (5, -4.48636747896671295166e-02) (6, -2.76026148349046707153e-02) (7, 2.42543797940015792847e-02) (8, 3.36442403495311737061e-02) (9, -6.87547773122787475586e-02) (10, 2.40908842533826828003e-02) (11, 3.20188961923122406006e-02) (12, 5.95812141895294189453e-01) (13, -9.04805511236190795898e-02) (14, 1.60357933491468429565e-02) (15, 1.02082621306180953979e-02) (16, 1.06583669781684875488e-01) (17, -1.03464890271425247192e-02) (18, 7.47028142213821411133e-02) (19, 4.88620437681674957275e-02) (20, -3.98596264421939849854e-02) (21, 5.26390112936496734619e-02) (22, 3.05168312042951583862e-02) (23, 8.89371931552886962891e-02) (24, -1.24631542712450027466e-02) (25, 4.70764450728893280029e-02) (0, 1.82170212268829345703e-01) (1, 1.41942733898758888245e-02) (2, 1.56205564737319946289e-01) (3, 2.18024421483278274536e-02) (4, 1.52727559208869934082e-01) (5, 3.22078466415405273438e-02) (6, 3.19262295961380004883e-02) (7, 1.47897675633430480957e-01) (8, 1.67562618851661682129e-01) (9, 1.52371391654014587402e-01) (10, 1.94233998656272888184e-01) (11, 3.11599988490343093872e-02) (12, 4.92625802755355834961e-01) (13, 1.19078233838081359863e-01) (14, 5.36052137613296508789e-02) (15, 1.83116659522056579590e-01) (16, 4.22971248626708984375e-02) (17, 1.26173133030533790588e-02) (18, 1.83836117386817932129e-01) (19, 1.49532929062843322754e-01) (20, 1.14025570452213287354e-01) (21, 1.81619778275489807129e-01) (22, 3.03864348679780960083e-02) (23, 7.99283832311630249023e-02) (24, 1.21681809425354003906e-01) (25, 8.17268118262290954590e-02) (26, -7.94325917959213256836e-02) (27, 2.28198662400245666504e-01) (28, -4.13360036909580230713e-02) (29, -6.95767113938927650452e-04) (30, 3.66475105285644531250e-01) (31, -7.11658000946044921875e-02) (32, 2.89498537778854370117e-01) (33, 2.26806383579969406128e-02) (34, -6.13633729517459869385e-02) (35, 2.30226069688796997070e-01) (36, 4.28884886205196380615e-02) (37, -4.14371378719806671143e-02) (38, 3.66123735904693603516e-01) (39, -1.54891819693148136139e-03) (40, 3.86934250593185424805e-01) (41, 3.48357707262039184570e-01) (42, 1.76110845059156417847e-02) (43, 2.42760032415390014648e-01) (44, -3.25640626251697540283e-02) (45, 5.92162944376468658447e-02) (46, -7.41233378648757934570e-02) (47, -2.26694555021822452545e-03) (48, 5.98336048424243927002e-02) (49, 9.77127701044082641602e-02) (50, -6.47340267896652221680e-02) (51, -3.81408222019672393799e-02) 
