FANN_FLO_2.1
num_layers=3
learning_rate=0.700000
connection_rate=1.000000
network_type=0
learning_momentum=0.000000
training_algorithm=2
train_error_function=1
train_stop_function=0
cascade_output_change_fraction=0.010000
quickprop_decay=-0.000100
quickprop_mu=1.750000
rprop_increase_factor=1.200000
rprop_decrease_factor=0.500000
rprop_delta_min=0.000000
rprop_delta_max=50.000000
rprop_delta_zero=0.100000
cascade_output_stagnation_epochs=12
cascade_candidate_change_fraction=0.010000
cascade_candidate_stagnation_epochs=12
cascade_max_out_epochs=150
cascade_max_cand_epochs=150
cascade_num_candidate_groups=2
bit_fail_limit=3.49999994039535522461e-01
cascade_candidate_limit=1.00000000000000000000e+03
cascade_weight_multiplier=4.00000005960464477539e-01
cascade_activation_functions_count=10
cascade_activation_functions=3 5 7 8 10 11 14 15 16 17 
cascade_activation_steepnesses_count=4
cascade_activation_steepnesses=2.50000000000000000000e-01 5.00000000000000000000e-01 7.50000000000000000000e-01 1.00000000000000000000e+00 
layer_sizes=26 26 2 
scale_included=0
neurons (num_inputs, activation_function, activation_steepness)=(0, 0, 0.00000000000000000000e+00) (0, 0, 0.00000000000000000000e+00) (0, 0, 0.00000000000000000000e+00) (0, 0, 0.00000000000000000000e+00) (0, 0, 0.00000000000000000000e+00) (0, 0, 0.00000000000000000000e+00) (0, 0, 0.00000000000000000000e+00) (0, 0, 0.00000000000000000000e+00) (0, 0, 0.00000000000000000000e+00) (0, 0, 0.00000000000000000000e+00) (0, 0, 0.00000000000000000000e+00) (0, 0, 0.00000000000000000000e+00) (0, 0, 0.00000000000000000000e+00) (0, 0, 0.00000000000000000000e+00) (0, 0, 0.00000000000000000000e+00) (0, 0, 0.00000000000000000000e+00) (0, 0, 0.00000000000000000000e+00) (0, 0, 0.00000000000000000000e+00) (0, 0, 0.00000000000000000000e+00) (0, 0, 0.00000000000000000000e+00) (0, 0, 0.00000000000000000000e+00) (0, 0, 0.00000000000000000000e+00) (0, 0, 0.00000000000000000000e+00) (0, 0, 0.00000000000000000000e+00) (0, 0, 0.00000000000000000000e+00) (0, 0, 0.00000000000000000000e+00) (26, 3, 5.00000000000000000000e-01) (26, 3, 5.00000000000000000000e-01) (26, 3, 5.00000000000000000000e-01) (26, 3, 5.00000000000000000000e-01) (26, 3, 5.00000000000000000000e-01) (26, 3, 5.00000000000000000000e-01) (26, 3, 5.00000000000000000000e-01) (26, 3, 5.00000000000000000000e-01) (26, 3, 5.00000000000000000000e-01) (26, 3, 5.00000000000000000000e-01) (26, 3, 5.00000000000000000000e-01) (26, 3, 5.00000000000000000000e-01) (26, 3, 5.00000000000000000000e-01) (26, 3, 5.00000000000000000000e-01) (26, 3, 5.00000000000000000000e-01) (26, 3, 5.00000000000000000000e-01) (26, 3, 5.00000000000000000000e-01) (26, 3, 5.00000000000000000000e-01) (26, 3, 5.00000000000000000000e-01) (26, 3, 5.00000000000000000000e-01) (26, 3, 5.00000000000000000000e-01) (26, 3, 5.00000000000000000000e-01) (26, 3, 5.00000000000000000000e-01) (26, 3, 5.00000000000000000000e-01) (26, 3, 5.00000000000000000000e-01) (0, 3, 0.00000000000000000000e+00) (26, 4, 1.00000000000000000000e+00) (0, 0, 1.00000000000000000000e+00) 
connections (connected_to_neuron, weight)=(0, -3.85461840778589248657e-03) (1, -9.14784893393516540527e-02) (2, 8.14623832702636718750e-02) (3, -9.62778851389884948730e-02) (4, -2.61213053017854690552e-02) (5, 1.71490442007780075073e-02) (6, -7.84726366400718688965e-02) (7, -2.47896034270524978638e-02) (8, -2.27794069796800613403e-02) (9, 4.99142613261938095093e-03) (10, 1.76420938223600387573e-02) (11, 4.46523353457450866699e-02) (12, 7.78991937637329101562e-01) (13, 3.27820628881454467773e-02) (14, 8.49311351776123046875e-02) (15, -5.93060180544853210449e-02) (16, -2.62082386761903762817e-02) (17, -1.84841323643922805786e-02) (18, -4.40189763903617858887e-02) (19, 5.64543604850769042969e-02) (20, -3.79371047019958496094e-02) (21, 7.44403600692749023438e-02) (22, -7.47409984469413757324e-02) (23, 4.20795455574989318848e-02) (24, 1.17737194523215293884e-02) (25, 2.53541897982358932495e-02) (0, 2.48338952660560607910e-01) (1, 2.65635967254638671875e-01) (2, 1.09171450138092041016e-01) (3, 1.32522016763687133789e-01) (4, 1.58422350883483886719e-01) (5, 2.10916832089424133301e-01) (6, 1.46643519401550292969e-01) (7, 1.45484745502471923828e-01) (8, 2.20238953828811645508e-01) (9, 2.26122215390205383301e-01) (10, 2.68233805894851684570e-01) (11, 2.47366309165954589844e-01) (12, 6.52692675590515136719e-01) (13, 1.51054382324218750000e-01) (14, 1.57957732677459716797e-01) (15, 2.30174720287322998047e-01) (16, 1.01306729018688201904e-01) (17, 2.92789578437805175781e-01) (18, 1.68556779623031616211e-01) (19, 2.91837871074676513672e-01) (20, 1.39083549380302429199e-01) (21, 2.47948542237281799316e-01) (22, 1.78953737020492553711e-01) (23, 2.00664564967155456543e-01) (24, 2.10002899169921875000e-01) (25, 2.46616646647453308105e-01) (0, -2.32950914651155471802e-02) (1, 3.68618890643119812012e-02) (2, -9.70383081585168838501e-03) (3, 9.40786302089691162109e-02) (4, -3.21839153766632080078e-02) (5, -5.97648844122886657715e-02) (6, 6.13145977258682250977e-02) (7, -2.14124787598848342896e-02) (8, -2.56428886204957962036e-02) (9, -7.86630734801292419434e-02) (10, 9.11043435335159301758e-02) (11, 2.26006340235471725464e-02) (12, 7.18181729316711425781e-01) (13, 1.29432817921042442322e-02) (14, -4.96771559119224548340e-02) (15, -6.17445632815361022949e-02) (16, -3.80904227495193481445e-02) (17, -4.11445423960685729980e-02) (18, -9.09017119556665420532e-03) (19, 2.14672964066267013550e-02) (20, 9.06301587820053100586e-02) (21, -6.18344638496637344360e-03) (22, 1.58568602055311203003e-02) (23, -3.92130836844444274902e-02) (24, -1.27455899491906166077e-02) (25, 5.65404146909713745117e-02) (0, -8.96645411849021911621e-02) (1, 6.78081512451171875000e-02) (2, -4.11950275301933288574e-02) (3, 2.19383370131254196167e-02) (4, 1.60247664898633956909e-02) (5, 4.11098822951316833496e-02) (6, -3.55997681617736816406e-02) (7, -8.80790576338768005371e-02) (8, 4.07885089516639709473e-02) (9, 3.78163084387779235840e-02) (10, -4.22439500689506530762e-02) (11, 7.70309474319219589233e-03) (12, 6.71763896942138671875e-01) (13, 3.77131775021553039551e-02) (14, 3.46400365233421325684e-02) (15, -8.12918171286582946777e-02) (16, -3.40861827135086059570e-02) (17, -9.13382992148399353027e-02) (18, 3.72514501214027404785e-02) (19, 2.18366663902997970581e-02) (20, -4.74828407168388366699e-02) (21, -9.52389761805534362793e-02) (22, 8.62921178340911865234e-02) (23, 4.90269958972930908203e-02) (24, 3.18283289670944213867e-02) (25, 8.25222730636596679688e-02) (0, 1.52443557977676391602e-01) (1, 1.57285198569297790527e-01) (2, 1.52909204363822937012e-01) (3, 2.45297968387603759766e-01) (4, 1.19425609707832336426e-01) (5, 1.68844655156135559082e-01) (6, 2.18706116080284118652e-01) (7, 1.83830574154853820801e-01) (8, 2.96382993459701538086e-01) (9, 1.40330880880355834961e-01) (10, 1.30540445446968078613e-01) (11, 1.66383221745491027832e-01) (12, 7.03611910343170166016e-01) (13, 2.76928991079330444336e-01) (14, 1.09799548983573913574e-01) (15, 2.21207886934280395508e-01) (16, 1.90232068300247192383e-01) (17, 1.37403383851051330566e-01) (18, 1.64521083235740661621e-01) (19, 1.30472093820571899414e-01) (20, 1.61711558699607849121e-01) (21, 2.36034899950027465820e-01) (22, 1.44733801484107971191e-01) (23, 1.04563020169734954834e-01) (24, 1.63471564650535583496e-01) (25, 2.02850967645645141602e-01) (0, 1.14924050867557525635e-01) (1, 1.55363678932189941406e-01) (2, 1.57477959990501403809e-01) (3, 2.52352386713027954102e-01) (4, 1.43485948443412780762e-01) (5, 2.11521506309509277344e-01) (6, 1.11237578094005584717e-01) (7, 1.97995141148567199707e-01) (8, 1.58419474959373474121e-01) (9, 1.32263168692588806152e-01) (10, 2.68439799547195434570e-01) (11, 2.78725594282150268555e-01) (12, 7.63453781604766845703e-01) (13, 2.66422778367996215820e-01) (14, 1.20656438171863555908e-01) (15, 2.49834194779396057129e-01) (16, 1.34405985474586486816e-01) (17, 1.80108264088630676270e-01) (18, 2.28363141417503356934e-01) (19, 1.45805522799491882324e-01) (20, 1.02916143834590911865e-01) (21, 1.20195202529430389404e-01) (22, 1.84808894991874694824e-01) (23, 1.69037207961082458496e-01) (24, 1.52267292141914367676e-01) (25, 2.48120442032814025879e-01) (0, 1.06672100722789764404e-01) (1, 1.98601081967353820801e-01) (2, 2.54283457994461059570e-01) (3, 1.71743646264076232910e-01) (4, 1.03052042424678802490e-01) (5, 2.70807504653930664062e-01) (6, 2.28707328438758850098e-01) (7, 1.62129998207092285156e-01) (8, 2.24759861826896667480e-01) (9, 2.73793280124664306641e-01) (10, 2.75251507759094238281e-01) (11, 2.37597435712814331055e-01) (12, 7.19148457050323486328e-01) (13, 1.35270953178405761719e-01) (14, 2.71460592746734619141e-01) (15, 1.43428146839141845703e-01) (16, 1.15596510469913482666e-01) (17, 1.90754324197769165039e-01) (18, 1.11450910568237304688e-01) (19, 1.37852936983108520508e-01) (20, 1.42188489437103271484e-01) (21, 1.47456884384155273438e-01) (22, 2.19561189413070678711e-01) (23, 2.72151648998260498047e-01) (24, 1.94862395524978637695e-01) (25, 2.24077329039573669434e-01) (0, -3.38931940495967864990e-02) (1, -4.65687178075313568115e-02) (2, -3.31254862248897552490e-02) (3, -1.80025905370712280273e-01) (4, -9.68482792377471923828e-02) (5, -2.24853396415710449219e-01) (6, -7.98248350620269775391e-02) (7, -1.40964865684509277344e-01) (8, -1.51509761810302734375e-01) (9, -7.51727819442749023438e-02) (10, -1.68557375669479370117e-01) (11, -2.21202433109283447266e-01) (12, 6.62157237529754638672e-01) (13, -4.21975366771221160889e-02) (14, -4.58092056214809417725e-02) (15, -3.45913283526897430420e-02) (16, -1.03000104427337646484e-01) (17, -1.70820832252502441406e-01) (18, -1.97720378637313842773e-01) (19, -1.29939526319503784180e-01) (20, -1.25792682170867919922e-01) (21, -1.80523872375488281250e-01) (22, -3.75852249562740325928e-02) (23, -1.12741798162460327148e-01) (24, -1.41070961952209472656e-01) (25, -1.93796753883361816406e-01) (0, 1.20155096054077148438e-01) (1, -3.60697731375694274902e-02) (2, -3.62051203846931457520e-02) (3, 1.66174750775098800659e-02) (4, 8.96075367927551269531e-02) (5, -4.06583175063133239746e-02) (6, -5.11252437718212604523e-04) (7, 8.59220474958419799805e-02) (8, 8.75577982515096664429e-03) (9, 1.32080450654029846191e-01) (10, 9.05086547136306762695e-02) (11, -4.16290536522865295410e-02) (12, 7.10315644741058349609e-01) (13, -3.15611138939857482910e-02) (14, 1.12638160586357116699e-01) (15, 8.14381986856460571289e-02) (16, -2.33235675841569900513e-02) (17, 1.30635350942611694336e-01) (18, 6.86806738376617431641e-02) (19, -3.96927818655967712402e-02) (20, 1.25484019517898559570e-01) (21, -4.87944576889276504517e-03) (22, 1.89263951033353805542e-02) (23, -4.27963808178901672363e-02) (24, 9.46210175752639770508e-02) (25, 1.22573703527450561523e-01) (0, -5.38802668452262878418e-02) (1, 2.64757853001356124878e-02) (2, -2.07280982285737991333e-02) (3, 3.44887897372245788574e-02) (4, 6.21190518140792846680e-02) (5, -5.49729987978935241699e-02) (6, 4.40190061926841735840e-02) (7, 7.15139359235763549805e-02) (8, 7.24446680396795272827e-03) (9, -2.07734573632478713989e-02) (10, 7.64556229114532470703e-02) (11, 5.23332208395004272461e-02) (12, 6.60508692264556884766e-01) (13, -6.91886171698570251465e-02) (14, 3.00136636942625045776e-02) (15, 4.68572527170181274414e-02) (16, -6.52176663279533386230e-02) (17, -1.03830777108669281006e-01) (18, 6.08961284160614013672e-02) (19, 9.30204987525939941406e-02) (20, 2.32074391096830368042e-02) (21, 8.31725746393203735352e-02) (22, 6.92558437585830688477e-02) (23, -6.25118836760520935059e-02) (24, 8.90797972679138183594e-02) (25, 4.03398498892784118652e-02) (0, 1.82208672165870666504e-01) (1, 1.57606184482574462891e-01) (2, 2.47143492102622985840e-01) (3, 1.22429691255092620850e-01) (4, 1.25779882073402404785e-01) (5, 9.88632291555404663086e-02) (6, 2.54505485296249389648e-01) (7, 2.10651800036430358887e-01) (8, 2.38952025771141052246e-01) (9, 2.22224518656730651855e-01) (10, 2.61278808116912841797e-01) (11, 1.88571035861968994141e-01) (12, 7.45098531246185302734e-01) (13, 1.74123272299766540527e-01) (14, 2.73397594690322875977e-01) (15, 1.81394070386886596680e-01) (16, 1.32056489586830139160e-01) (17, 2.89746195077896118164e-01) (18, 2.17805460095405578613e-01) (19, 2.67670154571533203125e-01) (20, 2.42203429341316223145e-01) (21, 2.58187830448150634766e-01) (22, 2.69439399242401123047e-01) (23, 2.08699554204940795898e-01) (24, 2.56808310747146606445e-01) (25, 1.98246836662292480469e-01) (0, -1.30367875099182128906e-01) (1, -9.61758494377136230469e-02) (2, -8.65050554275512695312e-02) (3, -1.35688096284866333008e-01) (4, -1.50236010551452636719e-01) (5, -2.02696382999420166016e-01) (6, -7.64819085597991943359e-02) (7, -2.01492547988891601562e-01) (8, -1.78666710853576660156e-01) (9, -4.91020344197750091553e-02) (10, -2.01029330492019653320e-01) (11, -2.22561240196228027344e-01) (12, 7.36749827861785888672e-01) (13, -6.04773126542568206787e-02) (14, -9.87367331981658935547e-02) (15, -1.73971444368362426758e-01) (16, -1.70306295156478881836e-01) (17, -1.97798281908035278320e-01) (18, -9.82481837272644042969e-02) (19, -1.95308744907379150391e-01) (20, -1.14804238080978393555e-01) (21, -6.45917057991027832031e-02) (22, -2.03962564468383789062e-01) (23, -1.95398777723312377930e-01) (24, -9.53215360641479492188e-02) (25, -6.01591430604457855225e-02) (0, 1.48229032754898071289e-01) (1, 5.95578365027904510498e-02) (2, 3.39804068207740783691e-02) (3, 1.06637328863143920898e-01) (4, -4.05953302979469299316e-02) (5, 1.33052513003349304199e-01) (6, 3.99014577269554138184e-02) (7, 1.02339625358581542969e-01) (8, 2.68044229596853256226e-02) (9, 1.19105443358421325684e-01) (10, 1.29083231091499328613e-01) (11, -2.02374998480081558228e-02) (12, 8.36812973022460937500e-01) (13, -2.01434884220361709595e-02) (14, -3.98995354771614074707e-02) (15, -2.45364401489496231079e-02) (16, -1.32647315040230751038e-02) (17, 5.26902303099632263184e-02) (18, 1.44426241517066955566e-01) (19, 1.17438539862632751465e-01) (20, 1.08158782124519348145e-01) (21, 3.55994608253240585327e-03) (22, 1.49080246686935424805e-01) (23, 3.93505915999412536621e-02) (24, 3.76912131905555725098e-02) (25, 6.37160167098045349121e-02) (0, 1.48198887705802917480e-01) (1, 2.07168653607368469238e-01) (2, 2.41757243871688842773e-01) (3, 2.82317340373992919922e-01) (4, 1.76449522376060485840e-01) (5, 2.35586270689964294434e-01) (6, 1.87475174665451049805e-01) (7, 2.56029933691024780273e-01) (8, 1.87823593616485595703e-01) (9, 1.92479848861694335938e-01) (10, 2.34682440757751464844e-01) (11, 2.73325055837631225586e-01) (12, 6.86179518699645996094e-01) (13, 1.07086852192878723145e-01) (14, 2.38030478358268737793e-01) (15, 1.15102685987949371338e-01) (16, 1.32449343800544738770e-01) (17, 2.30683371424674987793e-01) (18, 1.40559196472167968750e-01) (19, 1.38149812817573547363e-01) (20, 2.51746922731399536133e-01) (21, 1.72894462943077087402e-01) (22, 2.36440047621726989746e-01) (23, 2.41773173213005065918e-01) (24, 1.35932996869087219238e-01) (25, 1.90198808908462524414e-01) (0, 1.46933093667030334473e-01) (1, -1.33867645636200904846e-02) (2, 1.31149396300315856934e-01) (3, 3.02243065088987350464e-02) (4, 9.59292501211166381836e-02) (5, -1.90517175942659378052e-02) (6, 1.38992965221405029297e-01) (7, 3.92864868044853210449e-02) (8, -3.51343899965286254883e-02) (9, 1.70424636453390121460e-02) (10, -2.35272515565156936646e-02) (11, 5.39407804608345031738e-02) (12, 6.64432466030120849609e-01) (13, 6.58963322639465332031e-02) (14, 1.48020610213279724121e-01) (15, 1.10954806208610534668e-01) (16, 4.08213660120964050293e-02) (17, -9.95994452387094497681e-03) (18, 1.19641646742820739746e-01) (19, -1.95481721311807632446e-02) (20, 6.74273725599050521851e-03) (21, 1.53690978884696960449e-01) (22, 1.12735182046890258789e-01) (23, 4.89019304513931274414e-02) (24, -6.55921641737222671509e-03) (25, 6.60820901393890380859e-02) (0, 6.33963793516159057617e-02) (1, 7.14808255434036254883e-02) (2, -5.05447611212730407715e-02) (3, -9.90706309676170349121e-02) (4, -3.67203801870346069336e-02) (5, -5.80116733908653259277e-02) (6, -6.68573901057243347168e-02) (7, -5.99709972739219665527e-02) (8, 1.78126376122236251831e-02) (9, 7.46718645095825195312e-02) (10, -3.34227085113525390625e-02) (11, 2.40559782832860946655e-03) (12, 7.09318399429321289062e-01) (13, -2.29571033269166946411e-02) (14, 6.50480687618255615234e-02) (15, -1.83689165860414505005e-02) (16, 7.65836834907531738281e-02) (17, 8.53204429149627685547e-02) (18, 9.31274145841598510742e-02) (19, 7.02042877674102783203e-02) (20, 4.18752208352088928223e-02) (21, -2.04512346535921096802e-02) (22, -9.41556617617607116699e-02) (23, 7.11685325950384140015e-03) (24, 5.60060050338506698608e-03) (25, -4.18129190802574157715e-02) (0, 6.40784110873937606812e-03) (1, -3.60642224550247192383e-02) (2, 5.26890009641647338867e-02) (3, 4.54486235976219177246e-02) (4, 7.56178647279739379883e-02) (5, 2.16853898018598556519e-02) (6, 2.25294511765241622925e-02) (7, -6.93268999457359313965e-02) (8, 2.82147657126188278198e-02) (9, 9.14090722799301147461e-02) (10, -2.17385757714509963989e-02) (11, 6.69573694467544555664e-02) (12, 6.86798155307769775391e-01) (13, -9.83259305357933044434e-02) (14, 4.72292304039001464844e-02) (15, 9.21536888927221298218e-03) (16, 9.67965926975011825562e-03) (17, -8.76124426722526550293e-02) (18, 9.18582826852798461914e-02) (19, -1.96722764521837234497e-02) (20, -3.81351565010845661163e-04) (21, 7.40419626235961914062e-02) (22, -2.87518519908189773560e-02) (23, -1.65394053328782320023e-03) (24, 4.98462468385696411133e-02) (25, -8.12766179442405700684e-02) (0, 1.43494844436645507812e-01) (1, 1.21290594339370727539e-01) (2, 9.14402604103088378906e-02) (3, 5.46954423189163208008e-02) (4, -1.49223366752266883850e-02) (5, 3.44809051603078842163e-03) (6, 1.24231219291687011719e-01) (7, 1.43366664648056030273e-01) (8, -4.55032810568809509277e-02) (9, 1.05449080467224121094e-01) (10, 7.06520527601242065430e-02) (11, 8.26261639595031738281e-02) (12, 8.31482231616973876953e-01) (13, 4.46680840104818344116e-03) (14, 7.96352326869964599609e-02) (15, 2.55836006253957748413e-02) (16, -2.29758191853761672974e-02) (17, 1.22273325920104980469e-01) (18, 3.28576713800430297852e-02) (19, 1.29853412508964538574e-01) (20, 3.70886996388435363770e-02) (21, 1.48137331008911132812e-01) (22, 1.47840991616249084473e-01) (23, 3.45469787716865539551e-02) (24, 3.40650603175163269043e-02) (25, 5.30596375465393066406e-02) (0, 1.41889369115233421326e-02) (1, 1.10913217067718505859e-01) (2, -4.29942980408668518066e-02) (3, -3.03648207336664199829e-02) (4, 1.35236606001853942871e-01) (5, 1.46100550889968872070e-01) (6, 1.36525765061378479004e-01) (7, 7.22768604755401611328e-02) (8, 4.63959872722625732422e-02) (9, -3.27965766191482543945e-02) (10, 1.21324956417083740234e-01) (11, 1.62271913141012191772e-02) (12, 6.45930171012878417969e-01) (13, 1.21421664953231811523e-01) (14, -3.27237397432327270508e-02) (15, 7.24221318960189819336e-02) (16, 4.96478304266929626465e-02) (17, -4.54015806317329406738e-02) (18, 1.22488945722579956055e-01) (19, -2.51169446855783462524e-02) (20, 2.57820244878530502319e-02) (21, 1.45113125443458557129e-01) (22, 1.42756372690200805664e-01) (23, 1.04239687323570251465e-01) (24, 1.20566532015800476074e-01) (25, 2.54450645297765731812e-02) (0, 9.79770272970199584961e-02) (1, 1.14007502794265747070e-01) (2, 1.05592042207717895508e-01) (3, -2.23579276353120803833e-02) (4, 1.26671409234404563904e-02) (5, -3.46190258860588073730e-02) (6, 1.34155303239822387695e-01) (7, 1.52728399261832237244e-02) (8, -1.93838495761156082153e-02) (9, 1.14991903305053710938e-01) (10, 6.97338487952947616577e-03) (11, -3.72580885887145996094e-02) (12, 7.22628831863403320312e-01) (13, 9.89693701267242431641e-02) (14, -2.44546700268983840942e-02) (15, -2.06307609914802014828e-04) (16, -3.92034575343132019043e-02) (17, -2.26845834404230117798e-02) (18, -3.31846475601196289062e-02) (19, -2.63271946460008621216e-02) (20, 9.53375548124313354492e-02) (21, 6.20631761848926544189e-02) (22, -2.61287707835435867310e-02) (23, 6.34264871478080749512e-02) (24, 8.25462341308593750000e-02) (25, 4.52532507479190826416e-02) (0, -5.86040411144495010376e-03) (1, 1.09025975689291954041e-02) (2, -6.49070665240287780762e-02) (3, -3.96938845515251159668e-02) (4, 8.19476693868637084961e-02) (5, 7.86699503660202026367e-02) (6, -8.00863727927207946777e-02) (7, 3.31397056579589843750e-02) (8, -9.80879887938499450684e-02) (9, -2.18192357569932937622e-02) (10, 4.41206619143486022949e-02) (11, 8.16673189401626586914e-02) (12, 7.88813710212707519531e-01) (13, 7.03368186950683593750e-02) (14, 4.22592088580131530762e-02) (15, 9.16269868612289428711e-02) (16, 7.86787420511245727539e-02) (17, -7.92720541357994079590e-02) (18, 3.61963436007499694824e-02) (19, -1.00175939500331878662e-01) (20, -3.38783562183380126953e-02) (21, 4.25928905606269836426e-02) (22, -7.72605165839195251465e-02) (23, -2.14630085974931716919e-02) (24, 6.18657022714614868164e-02) (25, 6.36770278215408325195e-02) (0, 1.46200180053710937500e-01) (1, 1.41336932778358459473e-01) (2, 3.27035039663314819336e-02) (3, 7.43464082479476928711e-02) (4, 3.21901813149452209473e-02) (5, 1.32443100214004516602e-01) (6, -9.15099773555994033813e-03) (7, 7.28831216692924499512e-02) (8, -1.65077403653413057327e-03) (9, -2.16033328324556350708e-02) (10, 5.71530647575855255127e-02) (11, 2.38628517836332321167e-02) (12, 8.06896448135375976562e-01) (13, 6.46650940179824829102e-02) (14, 1.07643619179725646973e-01) (15, 6.68570473790168762207e-02) (16, 5.19324019551277160645e-02) (17, 5.22972270846366882324e-02) (18, 4.27938699722290039062e-02) (19, -2.08393772481940686703e-04) (20, 4.95242103934288024902e-02) (21, 2.70725991576910018921e-02) (22, 2.61195655912160873413e-02) (23, -8.67945048958063125610e-03) (24, 3.24966683983802795410e-02) (25, 9.78412181138992309570e-02) (0, 2.83513456583023071289e-01) (1, 2.04836145043373107910e-01) (2, 1.25978216528892517090e-01) (3, 2.50979155302047729492e-01) (4, 1.74113169312477111816e-01) (5, 1.17778398096561431885e-01) (6, 2.37916082143783569336e-01) (7, 2.52416670322418212891e-01) (8, 2.37724810838699340820e-01) (9, 1.15706264972686767578e-01) (10, 2.30459779500961303711e-01) (11, 2.74173825979232788086e-01) (12, 7.79949426651000976562e-01) (13, 2.74408996105194091797e-01) (14, 2.98170477151870727539e-01) (15, 1.36942431330680847168e-01) (16, 1.43871843814849853516e-01) (17, 2.60906845331192016602e-01) (18, 2.47207522392272949219e-01) (19, 2.97115474939346313477e-01) (20, 1.73363879323005676270e-01) (21, 1.44739925861358642578e-01) (22, 1.95012688636779785156e-01) (23, 2.61757761240005493164e-01) (24, 1.90131530165672302246e-01) (25, 2.90136903524398803711e-01) (0, -6.95696696639060974121e-02) (1, 5.78510910272598266602e-02) (2, -7.69425854086875915527e-02) (3, 8.52699484676122665405e-03) (4, 1.29230215679854154587e-03) (5, -9.18291434645652770996e-02) (6, -8.50368663668632507324e-02) (7, 2.88705211132764816284e-02) (8, 6.07500076293945312500e-02) (9, -9.32371709495782852173e-03) (10, 4.82489019632339477539e-02) (11, 2.66074086539447307587e-04) (12, 6.94453001022338867188e-01) (13, -1.24263027682900428772e-02) (14, 1.75723265856504440308e-02) (15, 7.67527222633361816406e-02) (16, -3.66525202989578247070e-02) (17, -4.66383025050163269043e-02) (18, 5.27617037296295166016e-02) (19, -3.68820577859878540039e-02) (20, -8.09587631374597549438e-03) (21, -1.01766459643840789795e-01) (22, -7.43752345442771911621e-02) (23, -5.92883750796318054199e-02) (24, -1.03050999343395233154e-01) (25, 5.88654424063861370087e-04) (0, 4.70515564084053039551e-02) (1, 5.35616874694824218750e-02) (2, 2.39463876932859420776e-02) (3, 1.38783082365989685059e-01) (4, 4.52985651791095733643e-02) (5, 5.99767155945301055908e-02) (6, 1.02234169840812683105e-01) (7, 7.39559978246688842773e-02) (8, -2.58962903171777725220e-02) (9, 9.12646856158971786499e-03) (10, 8.77268612384796142578e-02) (11, -5.33315632492303848267e-03) (12, 8.33357036113739013672e-01) (13, 5.40768802165985107422e-02) (14, 9.09431427717208862305e-02) (15, 9.74458903074264526367e-02) (16, -4.00570556521415710449e-02) (17, 1.41236096620559692383e-01) (18, -9.38043091446161270142e-03) (19, 8.31152945756912231445e-02) (20, 1.23588815331459045410e-01) (21, 5.95670603215694427490e-02) (22, 1.42076984047889709473e-01) (23, 8.19505155086517333984e-02) (24, 1.28285020589828491211e-01) (25, 3.95811051130294799805e-02) (26, 2.47544094920158386230e-01) (27, -2.24330216646194458008e-01) (28, 2.47652783989906311035e-01) (29, 2.50093102455139160156e-01) (30, -1.18141561746597290039e-01) (31, -2.05295711755752563477e-01) (32, -1.96345239877700805664e-01) (33, 5.85004866123199462891e-01) (34, 6.70873820781707763672e-02) (35, 2.40153342485427856445e-01) (36, -1.43018454313278198242e-01) (37, 5.60521602630615234375e-01) (38, 1.02109320461750030518e-01) (39, -1.23314738273620605469e-01) (40, 6.96480125188827514648e-02) (41, 2.93036222457885742188e-01) (42, 2.62552112340927124023e-01) (43, 5.88449873030185699463e-02) (44, 1.35113060474395751953e-01) (45, 4.87095266580581665039e-01) (46, 2.59490877389907836914e-01) (47, 1.40656009316444396973e-01) (48, -1.59668684005737304688e-01) (49, 2.95710474252700805664e-01) (50, 6.93712979555130004883e-02) (51, -1.90479874610900878906e-01) 
