FANN_FLO_2.1
num_layers=3
learning_rate=0.700000
connection_rate=1.000000
network_type=0
learning_momentum=0.000000
training_algorithm=2
train_error_function=1
train_stop_function=0
cascade_output_change_fraction=0.010000
quickprop_decay=-0.000100
quickprop_mu=1.750000
rprop_increase_factor=1.200000
rprop_decrease_factor=0.500000
rprop_delta_min=0.000000
rprop_delta_max=50.000000
rprop_delta_zero=0.100000
cascade_output_stagnation_epochs=12
cascade_candidate_change_fraction=0.010000
cascade_candidate_stagnation_epochs=12
cascade_max_out_epochs=150
cascade_max_cand_epochs=150
cascade_num_candidate_groups=2
bit_fail_limit=3.49999994039535522461e-01
cascade_candidate_limit=1.00000000000000000000e+03
cascade_weight_multiplier=4.00000005960464477539e-01
cascade_activation_functions_count=10
cascade_activation_functions=3 5 7 8 10 11 14 15 16 17 
cascade_activation_steepnesses_count=4
cascade_activation_steepnesses=2.50000000000000000000e-01 5.00000000000000000000e-01 7.50000000000000000000e-01 1.00000000000000000000e+00 
layer_sizes=26 26 2 
scale_included=0
neurons (num_inputs, activation_function, activation_steepness)=(0, 0, 0.00000000000000000000e+00) (0, 0, 0.00000000000000000000e+00) (0, 0, 0.00000000000000000000e+00) (0, 0, 0.00000000000000000000e+00) (0, 0, 0.00000000000000000000e+00) (0, 0, 0.00000000000000000000e+00) (0, 0, 0.00000000000000000000e+00) (0, 0, 0.00000000000000000000e+00) (0, 0, 0.00000000000000000000e+00) (0, 0, 0.00000000000000000000e+00) (0, 0, 0.00000000000000000000e+00) (0, 0, 0.00000000000000000000e+00) (0, 0, 0.00000000000000000000e+00) (0, 0, 0.00000000000000000000e+00) (0, 0, 0.00000000000000000000e+00) (0, 0, 0.00000000000000000000e+00) (0, 0, 0.00000000000000000000e+00) (0, 0, 0.00000000000000000000e+00) (0, 0, 0.00000000000000000000e+00) (0, 0, 0.00000000000000000000e+00) (0, 0, 0.00000000000000000000e+00) (0, 0, 0.00000000000000000000e+00) (0, 0, 0.00000000000000000000e+00) (0, 0, 0.00000000000000000000e+00) (0, 0, 0.00000000000000000000e+00) (0, 0, 0.00000000000000000000e+00) (26, 3, 5.00000000000000000000e-01) (26, 3, 5.00000000000000000000e-01) (26, 3, 5.00000000000000000000e-01) (26, 3, 5.00000000000000000000e-01) (26, 3, 5.00000000000000000000e-01) (26, 3, 5.00000000000000000000e-01) (26, 3, 5.00000000000000000000e-01) (26, 3, 5.00000000000000000000e-01) (26, 3, 5.00000000000000000000e-01) (26, 3, 5.00000000000000000000e-01) (26, 3, 5.00000000000000000000e-01) (26, 3, 5.00000000000000000000e-01) (26, 3, 5.00000000000000000000e-01) (26, 3, 5.00000000000000000000e-01) (26, 3, 5.00000000000000000000e-01) (26, 3, 5.00000000000000000000e-01) (26, 3, 5.00000000000000000000e-01) (26, 3, 5.00000000000000000000e-01) (26, 3, 5.00000000000000000000e-01) (26, 3, 5.00000000000000000000e-01) (26, 3, 5.00000000000000000000e-01) (26, 3, 5.00000000000000000000e-01) (26, 3, 5.00000000000000000000e-01) (26, 3, 5.00000000000000000000e-01) (26, 3, 5.00000000000000000000e-01) (0, 3, 0.00000000000000000000e+00) (26, 4, 1.00000000000000000000e+00) (0, 0, 1.00000000000000000000e+00) 
connections (connected_to_neuron, weight)=(0, 2.67066717147827148438e-01) (1, 1.54266521334648132324e-01) (2, 2.49622911214828491211e-01) (3, 2.30258509516716003418e-01) (4, 1.71400234103202819824e-01) (5, 1.58231317996978759766e-01) (6, 2.80814021825790405273e-01) (7, 1.29455670714378356934e-01) (8, 1.20050154626369476318e-01) (9, 2.85155653953552246094e-01) (10, 1.34196162223815917969e-01) (11, 2.92407333850860595703e-01) (12, 6.75200343132019042969e-01) (13, 1.54054835438728332520e-01) (14, 1.17955774068832397461e-01) (15, 1.97627171874046325684e-01) (16, 2.83123910427093505859e-01) (17, 2.32806667685508728027e-01) (18, 1.98266610503196716309e-01) (19, 1.12852916121482849121e-01) (20, 2.64160543680191040039e-01) (21, 2.20218315720558166504e-01) (22, 2.21157521009445190430e-01) (23, 1.07023604214191436768e-01) (24, 2.29615539312362670898e-01) (25, 2.24663808941841125488e-01) (0, 6.36502206325531005859e-02) (1, 4.26196530461311340332e-02) (2, -2.59534735232591629028e-02) (3, 6.61417394876480102539e-02) (4, 4.80019003152847290039e-02) (5, -5.72867617011070251465e-02) (6, -7.79917463660240173340e-02) (7, -7.75204156525433063507e-04) (8, 7.45717436075210571289e-02) (9, -4.99151740223169326782e-03) (10, 5.90561032295227050781e-02) (11, 5.69857358932495117188e-02) (12, 7.75824248790740966797e-01) (13, 8.07062536478042602539e-02) (14, 4.37413677573204040527e-02) (15, 6.18603080511093139648e-02) (16, 7.47135728597640991211e-02) (17, 7.47816264629364013672e-02) (18, -8.24848636984825134277e-02) (19, 9.42693352699279785156e-02) (20, -2.59912181645631790161e-02) (21, -9.77609977126121520996e-02) (22, 2.86759864538908004761e-02) (23, 7.38753825426101684570e-02) (24, -8.33080932497978210449e-02) (25, -5.56349847465753555298e-03) (0, -1.28146320581436157227e-01) (1, -8.43905806541442871094e-02) (2, -1.20779901742935180664e-01) (3, -1.96930795907974243164e-01) (4, -1.58126771450042724609e-01) (5, -1.51529699563980102539e-01) (6, -4.87111173570156097412e-02) (7, -7.84802436828613281250e-02) (8, -1.79787933826446533203e-01) (9, -9.51092243194580078125e-02) (10, -3.01669966429471969604e-02) (11, -1.52179688215255737305e-01) (12, 6.83315634727478027344e-01) (13, -4.99952398240566253662e-02) (14, -5.15711866319179534912e-02) (15, -2.25628316402435302734e-01) (16, -8.74095559120178222656e-02) (17, -1.19907051324844360352e-01) (18, -3.93220745027065277100e-02) (19, -1.38068169355392456055e-01) (20, -1.52446746826171875000e-01) (21, -5.90085051953792572021e-02) (22, -1.57686531543731689453e-01) (23, -1.29331618547439575195e-01) (24, -5.91391585767269134521e-02) (25, -7.80777633190155029297e-02) (0, 6.23473785817623138428e-02) (1, 5.89768104255199432373e-02) (2, 8.52376222610473632812e-02) (3, 8.46392959356307983398e-02) (4, -4.09866943955421447754e-02) (5, -1.34686985984444618225e-02) (6, 2.96887140721082687378e-02) (7, 6.76734149456024169922e-02) (8, 1.90405156463384628296e-02) (9, 1.01001933217048645020e-01) (10, 1.45583719015121459961e-01) (11, -2.30618854402564466000e-04) (12, 7.41721749305725097656e-01) (13, -4.76422253996133804321e-03) (14, 1.34100154042243957520e-01) (15, 5.12346923351287841797e-02) (16, 7.24960938096046447754e-02) (17, -2.67442781478166580200e-02) (18, 3.06794252246618270874e-02) (19, 5.03648966550827026367e-02) (20, -2.29326058179140090942e-02) (21, -2.72901076823472976685e-02) (22, -4.01021763682365417480e-02) (23, -3.28146815299987792969e-02) (24, 6.40817284584045410156e-02) (25, 3.68910804390907287598e-02) (0, 1.37616813182830810547e-01) (1, 1.35835185647010803223e-01) (2, 1.36999458074569702148e-01) (3, 1.07917621731758117676e-01) (4, 8.71974229812622070312e-02) (5, 4.49468307197093963623e-02) (6, 1.24944290146231651306e-02) (7, 1.80350299924612045288e-02) (8, -2.48138774186372756958e-02) (9, 1.71077381819486618042e-02) (10, 5.01663312315940856934e-02) (11, 5.04748374223709106445e-02) (12, 8.20141255855560302734e-01) (13, 1.14806845784187316895e-01) (14, -2.92322877794504165649e-03) (15, 1.21564880013465881348e-01) (16, -3.98237779736518859863e-02) (17, 9.46384668350219726562e-02) (18, -3.75993549823760986328e-02) (19, 1.39876380562782287598e-01) (20, -8.52685514837503433228e-03) (21, 8.04967433214187622070e-02) (22, -4.12679091095924377441e-02) (23, 6.77525699138641357422e-02) (24, -2.35383752733469009399e-02) (25, -1.86005104333162307739e-02) (0, 2.60624568909406661987e-02) (1, -7.80405625700950622559e-02) (2, -6.58152028918266296387e-02) (3, -6.42558261752128601074e-02) (4, 4.45052888244390487671e-03) (5, -8.25984105467796325684e-02) (6, -8.28206464648246765137e-02) (7, -1.29500189796090126038e-02) (8, 7.09192305803298950195e-02) (9, 4.99767661094665527344e-02) (10, 7.75968134403228759766e-02) (11, -7.09863528609275817871e-02) (12, 6.63371860980987548828e-01) (13, -1.01617090404033660889e-01) (14, -8.27860925346612930298e-03) (15, 9.37811937183141708374e-03) (16, -5.54223451763391494751e-03) (17, -3.22974622249603271484e-02) (18, -3.02150417119264602661e-02) (19, 3.71345207095146179199e-02) (20, -6.51326104998588562012e-02) (21, -2.44388151913881301880e-02) (22, -2.26270128041505813599e-02) (23, -5.71319684386253356934e-02) (24, -3.89624461531639099121e-02) (25, 1.44461235031485557556e-02) (0, -5.48752211034297943115e-02) (1, -1.58470332622528076172e-01) (2, -1.96041315793991088867e-01) (3, -3.28135900199413299561e-02) (4, -1.31470859050750732422e-01) (5, -6.43788576126098632812e-02) (6, -2.05254137516021728516e-01) (7, -9.16860401630401611328e-02) (8, -2.23034679889678955078e-01) (9, -9.52036082744598388672e-02) (10, -6.86844289302825927734e-02) (11, -2.00255334377288818359e-01) (12, 6.71046435832977294922e-01) (13, -9.21652019023895263672e-02) (14, -4.46785353124141693115e-02) (15, -2.19356834888458251953e-01) (16, -5.75515590608119964600e-02) (17, -2.25466758012771606445e-01) (18, -2.15373903512954711914e-01) (19, -1.60230189561843872070e-01) (20, -1.10488653182983398438e-01) (21, -1.15316152572631835938e-01) (22, -8.69276523590087890625e-02) (23, -3.51036749780178070068e-02) (24, -1.72581613063812255859e-01) (25, -4.64602373540401458740e-02) (0, -1.53942495584487915039e-01) (1, -8.96086394786834716797e-02) (2, -1.97992205619812011719e-01) (3, -8.73049497604370117188e-02) (4, -1.69562518596649169922e-01) (5, -2.23427414894104003906e-01) (6, -2.16335266828536987305e-01) (7, -1.36163830757141113281e-01) (8, -2.26801007986068725586e-01) (9, -1.18366122245788574219e-01) (10, -1.71102672815322875977e-01) (11, -2.02615171670913696289e-01) (12, 6.92987859249114990234e-01) (13, -1.64697378873825073242e-01) (14, -6.83787763118743896484e-02) (15, -2.19856619834899902344e-01) (16, -1.35512679815292358398e-01) (17, -4.14924137294292449951e-02) (18, -8.25818479061126708984e-02) (19, -1.50751262903213500977e-01) (20, -3.14092449843883514404e-02) (21, -1.10693424940109252930e-01) (22, -1.46778017282485961914e-01) (23, -2.17343151569366455078e-01) (24, -4.14835922420024871826e-02) (25, -2.27826654911041259766e-01) (0, -1.03219300508499145508e-01) (1, -9.89712178707122802734e-02) (2, -3.34903262555599212646e-02) (3, -4.63609062135219573975e-02) (4, -1.15991473197937011719e-01) (5, -1.57992839813232421875e-01) (6, -1.06529563665390014648e-01) (7, -8.45436751842498779297e-02) (8, -2.15857774019241333008e-01) (9, -4.66520451009273529053e-02) (10, -7.85310864448547363281e-02) (11, -2.02753037214279174805e-01) (12, 7.20224201679229736328e-01) (13, -7.58920907974243164062e-02) (14, -9.16791856288909912109e-02) (15, -9.50385630130767822266e-02) (16, -4.90672253072261810303e-02) (17, -4.28513549268245697021e-02) (18, -3.02959363907575607300e-02) (19, -8.80060195922851562500e-02) (20, -3.32680009305477142334e-02) (21, -1.36368632316589355469e-01) (22, -1.00058436393737792969e-01) (23, -8.64098668098449707031e-02) (24, -5.76798580586910247803e-02) (25, -1.02027684450149536133e-01) (0, 1.60176753997802734375e-01) (1, 1.52822121977806091309e-01) (2, 2.37909182906150817871e-01) (3, 1.48133158683776855469e-01) (4, 1.54435455799102783203e-01) (5, 1.64129868149757385254e-01) (6, 2.78601944446563720703e-01) (7, 1.50385126471519470215e-01) (8, 1.47208943963050842285e-01) (9, 1.92050457000732421875e-01) (10, 2.21832305192947387695e-01) (11, 2.70119398832321166992e-01) (12, 6.82706832885742187500e-01) (13, 2.35414534807205200195e-01) (14, 2.52907335758209228516e-01) (15, 2.87855714559555053711e-01) (16, 2.62101501226425170898e-01) (17, 1.28971442580223083496e-01) (18, 2.41403624415397644043e-01) (19, 1.99862301349639892578e-01) (20, 2.63372898101806640625e-01) (21, 2.21776366233825683594e-01) (22, 1.86450928449630737305e-01) (23, 2.62516945600509643555e-01) (24, 1.63210347294807434082e-01) (25, 1.82622939348220825195e-01) (0, -4.84116896986961364746e-02) (1, 8.85919034481048583984e-02) (2, -7.83469304442405700684e-02) (3, -7.66515657305717468262e-02) (4, 1.60042177885770797729e-02) (5, -1.65701825171709060669e-02) (6, -2.22294647246599197388e-02) (7, -4.44866344332695007324e-02) (8, 3.31629663705825805664e-02) (9, 3.38059887290000915527e-02) (10, 2.12432425469160079956e-02) (11, 1.33648803457617759705e-02) (12, 8.35551202297210693359e-01) (13, 7.00521767139434814453e-02) (14, -9.29846987128257751465e-02) (15, 9.22340061515569686890e-03) (16, 4.17715683579444885254e-02) (17, -5.44378980994224548340e-02) (18, -5.37620708346366882324e-02) (19, -3.72110400348901748657e-03) (20, -6.49821981787681579590e-02) (21, -9.00606140494346618652e-02) (22, 2.68503259867429733276e-02) (23, 7.80214220285415649414e-02) (24, 1.14016821607947349548e-02) (25, -8.17680452018976211548e-03) (0, 1.39777257572859525681e-03) (1, -1.00547395646572113037e-01) (2, -4.40598651766777038574e-02) (3, 6.62081092596054077148e-02) (4, -1.63244772702455520630e-02) (5, 1.31284287199378013611e-02) (6, 6.04000091552734375000e-02) (7, 1.09286000952124595642e-02) (8, 4.20768633484840393066e-02) (9, -1.79957766085863113403e-02) (10, -1.00041590631008148193e-01) (11, -7.45526179671287536621e-02) (12, 7.92877674102783203125e-01) (13, 3.87213900685310363770e-02) (14, 6.48533850908279418945e-02) (15, -3.00391633063554763794e-02) (16, -4.23137173056602478027e-02) (17, 5.62444925308227539062e-02) (18, -5.43869957327842712402e-02) (19, -2.96984035521745681763e-02) (20, -2.89321113377809524536e-02) (21, 9.29845869541168212891e-02) (22, 2.14637052267789840698e-02) (23, 2.29058247059583663940e-02) (24, -5.13652060180902481079e-03) (25, 6.20815157890319824219e-02) (0, 2.42445230484008789062e-01) (1, 1.31313815712928771973e-01) (2, 2.49702945351600646973e-01) (3, 1.59446910023689270020e-01) (4, 2.28737026453018188477e-01) (5, 1.56700715422630310059e-01) (6, 1.64499506354331970215e-01) (7, 2.90277153253555297852e-01) (8, 1.28508836030960083008e-01) (9, 2.53775030374526977539e-01) (10, 2.09005594253540039062e-01) (11, 2.94508844614028930664e-01) (12, 7.16063678264617919922e-01) (13, 1.56682461500167846680e-01) (14, 1.82113066315650939941e-01) (15, 1.75862058997154235840e-01) (16, 1.87729850411415100098e-01) (17, 1.30830675363540649414e-01) (18, 1.20183452963829040527e-01) (19, 1.58183246850967407227e-01) (20, 2.06391513347625732422e-01) (21, 1.83469727635383605957e-01) (22, 1.20027735829353332520e-01) (23, 2.57604539394378662109e-01) (24, 2.59371340274810791016e-01) (25, 1.96695625782012939453e-01) (0, 1.12189114093780517578e-01) (1, 4.24350425601005554199e-02) (2, -1.87985617667436599731e-02) (3, 1.26525899395346641541e-02) (4, 1.01165613159537315369e-02) (5, 1.25246658921241760254e-01) (6, 4.55664061009883880615e-02) (7, -3.85805070400238037109e-02) (8, -1.37064540758728981018e-02) (9, -2.40965876728296279907e-02) (10, 1.97202023118734359741e-02) (11, 5.23930415511131286621e-02) (12, 6.57540619373321533203e-01) (13, 4.98290285468101501465e-02) (14, 7.76806380599737167358e-03) (15, 7.83861428499221801758e-02) (16, 4.59378659725189208984e-02) (17, 7.96716958284378051758e-02) (18, 1.36668592691421508789e-01) (19, 1.29650920629501342773e-01) (20, -4.28662672638893127441e-02) (21, 2.59984266012907028198e-02) (22, -3.79184111952781677246e-02) (23, -2.10828203707933425903e-02) (24, 8.57816636562347412109e-02) (25, 7.00730904936790466309e-02) (0, 2.07986921072006225586e-01) (1, 2.51409411430358886719e-01) (2, 1.73277616500854492188e-01) (3, 1.68958246707916259766e-01) (4, 1.49705007672309875488e-01) (5, 1.31066724658012390137e-01) (6, 2.56993293762207031250e-01) (7, 1.76506459712982177734e-01) (8, 1.89319327473640441895e-01) (9, 1.12709842622280120850e-01) (10, 1.47353097796440124512e-01) (11, 2.80485749244689941406e-01) (12, 6.65489375591278076172e-01) (13, 1.79246649146080017090e-01) (14, 1.01989142596721649170e-01) (15, 1.85049533843994140625e-01) (16, 2.77239710092544555664e-01) (17, 1.15369699895381927490e-01) (18, 2.80478566884994506836e-01) (19, 1.30607753992080688477e-01) (20, 2.39355847239494323730e-01) (21, 1.72016412019729614258e-01) (22, 2.55879461765289306641e-01) (23, 2.21624419093132019043e-01) (24, 1.47267326712608337402e-01) (25, 2.58613198995590209961e-01) (0, 2.93222874402999877930e-01) (1, 1.54948920011520385742e-01) (2, 2.83130377531051635742e-01) (3, 2.24604517221450805664e-01) (4, 2.70622014999389648438e-01) (5, 1.92717254161834716797e-01) (6, 1.77613899111747741699e-01) (7, 1.45499616861343383789e-01) (8, 2.63275504112243652344e-01) (9, 2.28918910026550292969e-01) (10, 1.78166344761848449707e-01) (11, 2.21868768334388732910e-01) (12, 6.52785420417785644531e-01) (13, 2.69085675477981567383e-01) (14, 2.36178606748580932617e-01) (15, 1.55978456139564514160e-01) (16, 2.51171380281448364258e-01) (17, 2.57507950067520141602e-01) (18, 2.36825093626976013184e-01) (19, 2.54760533571243286133e-01) (20, 1.44157439470291137695e-01) (21, 2.15664774179458618164e-01) (22, 2.71730214357376098633e-01) (23, 1.26235991716384887695e-01) (24, 2.47872516512870788574e-01) (25, 2.12686032056808471680e-01) (0, -4.14760503917932510376e-03) (1, 1.35192170273512601852e-03) (2, -6.80895671248435974121e-02) (3, 4.47197183966636657715e-02) (4, -3.84349077939987182617e-02) (5, -7.32667371630668640137e-02) (6, -9.87313911318778991699e-02) (7, -5.37045523524284362793e-02) (8, 5.29377758502960205078e-02) (9, 7.34906345605850219727e-02) (10, 4.06126901507377624512e-02) (11, -6.78483471274375915527e-02) (12, 6.70350313186645507812e-01) (13, 5.48817124217748641968e-03) (14, 6.26705586910247802734e-02) (15, 3.56568838469684123993e-04) (16, -7.10430666804313659668e-02) (17, 7.12959021329879760742e-02) (18, -2.89577860385179519653e-02) (19, 6.67355358600616455078e-02) (20, -7.11256787180900573730e-02) (21, -7.61864110827445983887e-02) (22, 2.58434396237134933472e-02) (23, 6.72994107007980346680e-02) (24, 8.01740884780883789062e-02) (25, 7.16008841991424560547e-02) (0, 4.45641763508319854736e-02) (1, 1.13504275679588317871e-01) (2, -4.05631437897682189941e-02) (3, -5.96331898123025894165e-03) (4, 2.77902986854314804077e-02) (5, 6.08892552554607391357e-02) (6, 1.00988611578941345215e-01) (7, 6.53007403016090393066e-02) (8, 1.12089803442358970642e-02) (9, -3.18462923169136047363e-02) (10, 9.76340174674987792969e-02) (11, 1.80776100605726242065e-02) (12, 7.09809243679046630859e-01) (13, 5.61717934906482696533e-02) (14, -2.83175799995660781860e-03) (15, -3.37381660938262939453e-02) (16, 9.39234644174575805664e-02) (17, 2.33584772795438766479e-02) (18, 7.73500055074691772461e-02) (19, 6.21940083801746368408e-02) (20, 1.29315048456192016602e-01) (21, 1.11906945705413818359e-01) (22, 3.90899106860160827637e-02) (23, 5.95726724714040756226e-03) (24, 8.42424631118774414062e-02) (25, 7.35642388463020324707e-02) (0, 1.79370865225791931152e-01) (1, 1.59685909748077392578e-01) (2, 1.90463662147521972656e-01) (3, 1.65144935250282287598e-01) (4, 1.36886790394783020020e-01) (5, 2.80627846717834472656e-01) (6, 1.24249219894409179688e-01) (7, 1.41923651099205017090e-01) (8, 1.20264515280723571777e-01) (9, 1.97639510035514831543e-01) (10, 2.48412922024726867676e-01) (11, 2.66853123903274536133e-01) (12, 6.54300332069396972656e-01) (13, 1.05221897363662719727e-01) (14, 2.80606836080551147461e-01) (15, 2.51774281263351440430e-01) (16, 1.68899506330490112305e-01) (17, 1.46255970001220703125e-01) (18, 1.53546065092086791992e-01) (19, 2.11667746305465698242e-01) (20, 1.58117800951004028320e-01) (21, 2.93069541454315185547e-01) (22, 2.80626237392425537109e-01) (23, 2.81067818403244018555e-01) (24, 2.00863525271415710449e-01) (25, 2.55541294813156127930e-01) (0, 2.38574743270874023438e-01) (1, 2.85553455352783203125e-01) (2, 1.07098534703254699707e-01) (3, 1.68417200446128845215e-01) (4, 2.04717665910720825195e-01) (5, 1.88069388270378112793e-01) (6, 2.29703113436698913574e-01) (7, 2.96781331300735473633e-01) (8, 2.54814326763153076172e-01) (9, 2.68189907073974609375e-01) (10, 2.79009163379669189453e-01) (11, 2.80663549900054931641e-01) (12, 6.57473623752593994141e-01) (13, 1.00873656570911407471e-01) (14, 1.79903030395507812500e-01) (15, 2.61726438999176025391e-01) (16, 2.69326776266098022461e-01) (17, 1.90043270587921142578e-01) (18, 2.68548339605331420898e-01) (19, 2.51533597707748413086e-01) (20, 1.43417537212371826172e-01) (21, 1.39047816395759582520e-01) (22, 9.93895530700683593750e-02) (23, 1.98563590645790100098e-01) (24, 2.52315551042556762695e-01) (25, 1.59107342362403869629e-01) (0, 1.93233102560043334961e-01) (1, 2.34541758894920349121e-01) (2, 1.41775131225585937500e-01) (3, 2.95696645975112915039e-01) (4, 1.91683024168014526367e-01) (5, 2.81949877738952636719e-01) (6, 2.82850056886672973633e-01) (7, 2.00381547212600708008e-01) (8, 1.51967048645019531250e-01) (9, 1.89167708158493041992e-01) (10, 2.90050923824310302734e-01) (11, 2.83270150423049926758e-01) (12, 7.33309090137481689453e-01) (13, 2.46465235948562622070e-01) (14, 2.53060042858123779297e-01) (15, 1.68158173561096191406e-01) (16, 2.28728741407394409180e-01) (17, 2.66373574733734130859e-01) (18, 1.70631811022758483887e-01) (19, 1.10231764614582061768e-01) (20, 2.29699984192848205566e-01) (21, 1.41558572649955749512e-01) (22, 2.01875030994415283203e-01) (23, 1.99848294258117675781e-01) (24, 2.94692188501358032227e-01) (25, 2.46892571449279785156e-01) (0, 2.40496113896369934082e-01) (1, 2.95681715011596679688e-01) (2, 1.47056147456169128418e-01) (3, 1.94411650300025939941e-01) (4, 1.56389042735099792480e-01) (5, 2.41889238357543945312e-01) (6, 1.30553394556045532227e-01) (7, 1.99764162302017211914e-01) (8, 2.39185854792594909668e-01) (9, 2.23836421966552734375e-01) (10, 1.83314010500907897949e-01) (11, 2.23635897040367126465e-01) (12, 6.71577990055084228516e-01) (13, 2.36881062388420104980e-01) (14, 1.14403605461120605469e-01) (15, 1.17468856275081634521e-01) (16, 2.21751198172569274902e-01) (17, 2.03552618622779846191e-01) (18, 2.65534073114395141602e-01) (19, 1.76411211490631103516e-01) (20, 2.73310780525207519531e-01) (21, 1.95862814784049987793e-01) (22, 1.44384741783142089844e-01) (23, 1.45542576909065246582e-01) (24, 2.07694560289382934570e-01) (25, 2.75684744119644165039e-01) (0, 1.88701152801513671875e-01) (1, 1.11169591546058654785e-01) (2, 1.77133008837699890137e-01) (3, 1.84993311762809753418e-01) (4, 2.59662151336669921875e-01) (5, 1.19229108095169067383e-01) (6, 1.82275012135505676270e-01) (7, 1.08318276703357696533e-01) (8, 2.15240746736526489258e-01) (9, 2.40264043211936950684e-01) (10, 2.51807510852813720703e-01) (11, 2.47394129633903503418e-01) (12, 6.87388241291046142578e-01) (13, 1.92593351006507873535e-01) (14, 1.72830536961555480957e-01) (15, 2.26542204618453979492e-01) (16, 1.17829248309135437012e-01) (17, 2.00248464941978454590e-01) (18, 1.65023252367973327637e-01) (19, 1.33832842111587524414e-01) (20, 2.19317317008972167969e-01) (21, 2.88374453783035278320e-01) (22, 2.38985449075698852539e-01) (23, 1.86451390385627746582e-01) (24, 1.66385635733604431152e-01) (25, 2.13896214962005615234e-01) (0, 2.83914208412170410156e-01) (1, 2.12370365858078002930e-01) (2, 2.61038810014724731445e-01) (3, 1.93208739161491394043e-01) (4, 1.89655080437660217285e-01) (5, 1.51339948177337646484e-01) (6, 2.05978319048881530762e-01) (7, 2.68388092517852783203e-01) (8, 2.37933248281478881836e-01) (9, 1.67240440845489501953e-01) (10, 2.89217174053192138672e-01) (11, 1.21808245778083801270e-01) (12, 7.22918748855590820312e-01) (13, 2.06057906150817871094e-01) (14, 2.63672292232513427734e-01) (15, 1.30566209554672241211e-01) (16, 1.55052021145820617676e-01) (17, 1.06900461018085479736e-01) (18, 2.24759563803672790527e-01) (19, 2.29482546448707580566e-01) (20, 2.35042661428451538086e-01) (21, 2.44188800454139709473e-01) (22, 1.31330996751785278320e-01) (23, 1.01665891706943511963e-01) (24, 2.79621630907058715820e-01) (25, 2.52248317003250122070e-01) (0, 2.91640341281890869141e-01) (1, 2.20207065343856811523e-01) (2, 1.40299692749977111816e-01) (3, 1.59625932574272155762e-01) (4, 1.35703265666961669922e-01) (5, 1.25813856720924377441e-01) (6, 2.73596316576004028320e-01) (7, 2.98342078924179077148e-01) (8, 2.20622584223747253418e-01) (9, 1.64851367473602294922e-01) (10, 1.51281997561454772949e-01) (11, 1.28200888633728027344e-01) (12, 6.80599510669708251953e-01) (13, 2.90815234184265136719e-01) (14, 1.97041332721710205078e-01) (15, 1.25656589865684509277e-01) (16, 1.14223472774028778076e-01) (17, 2.75800049304962158203e-01) (18, 2.33314499258995056152e-01) (19, 2.79495745897293090820e-01) (20, 1.07966236770153045654e-01) (21, 2.89966523647308349609e-01) (22, 2.87996202707290649414e-01) (23, 2.34325781464576721191e-01) (24, 2.21049040555953979492e-01) (25, 2.24638834595680236816e-01) (26, -1.47725433111190795898e-01) (27, 2.71740078926086425781e-01) (28, 5.33664762973785400391e-01) (29, 1.21496193110942840576e-01) (30, 1.67988345026969909668e-01) (31, 2.38905042409896850586e-01) (32, 5.88903307914733886719e-01) (33, 5.55488049983978271484e-01) (34, 5.88131010532379150391e-01) (35, -2.07393497228622436523e-01) (36, 2.94901907444000244141e-01) (37, 2.75327265262603759766e-01) (38, -2.07451462745666503906e-01) (39, 1.59524455666542053223e-01) (40, -2.03821420669555664062e-01) (41, -1.54569476842880249023e-01) (42, 2.46925368905067443848e-01) (43, 1.20618022978305816650e-01) (44, -1.62154257297515869141e-01) (45, -2.00033366680145263672e-01) (46, -1.40125393867492675781e-01) (47, -1.46330773830413818359e-01) (48, -2.22633332014083862305e-01) (49, -2.05210924148559570312e-01) (50, -1.65235042572021484375e-01) (51, -2.13067114353179931641e-01) 
