SVM-light Version V6.20
2 # kernel type
3 # kernel parameter -d 
0.1 # kernel parameter -g 
1 # kernel parameter -s 
1 # kernel parameter -r 
empty# kernel parameter -u 
5 # highest feature index 
10 # number of training documents 
3751 # number of support vectors plus 1 
0 # threshold b, each following line is a SV (starting with alpha*y)
56.263095889915497593847248936072 1:0.80000001 2:0.80000001 3:0.80000001 4:0.80000001 #
66.541930715957747111133357975632 1:0.80000001 2:0.80000001 3:0.80000001 4:0.60000002 #
58.246730680906111388139834161848 1:0.80000001 2:0.80000001 3:0.80000001 4:0.40000001 #
-34.803774060107983245870855171233 1:0.80000001 2:0.80000001 3:0.80000001 4:0.2 #
-75.919113364277009736724721733481 1:0.80000001 2:0.80000001 3:0.80000001 4:0 #
66.541930715957747111133357975632 1:0.80000001 2:0.80000001 3:0.60000002 4:0.80000001 #
62.214000262887331871297647012398 1:0.80000001 2:0.80000001 3:0.60000002 4:0.60000002 #
51.754835001300477870245231315494 1:0.80000001 2:0.80000001 3:0.60000002 4:0.40000001 #
-27.590556638323946003765740897506 1:0.80000001 2:0.80000001 3:0.60000002 4:0.2 #
-89.624226465666680496724438853562 1:0.80000001 2:0.80000001 3:0.60000002 4:0 #
58.246730680906111388139834161848 1:0.80000001 2:0.80000001 3:0.40000001 4:0.80000001 #
51.754835001300477870245231315494 1:0.80000001 2:0.80000001 3:0.40000001 4:0.60000002 #
-13.885443536934273467409184377175 1:0.80000001 2:0.80000001 3:0.40000001 4:0.40000001 #
-47.787565419319257387087418464944 1:0.80000001 2:0.80000001 3:0.40000001 4:0.2 #
-83.85365252823945070304034743458 1:0.80000001 2:0.80000001 3:0.40000001 4:0 #
-34.803774060107983245870855171233 1:0.80000001 2:0.80000001 3:0.2 4:0.80000001 #
-27.590556638323946003765740897506 1:0.80000001 2:0.80000001 3:0.2 4:0.60000002 #
-47.787565419319257387087418464944 1:0.80000001 2:0.80000001 3:0.2 4:0.40000001 #
-83.85365252823945070304034743458 1:0.80000001 2:0.80000001 3:0.2 4:0.2 #
-108.37859176230517732619773596525 1:0.80000001 2:0.80000001 3:0.2 4:0 #
-75.919113364277009736724721733481 1:0.80000001 2:0.80000001 3:0 4:0.80000001 #
-89.624226465666680496724438853562 1:0.80000001 2:0.80000001 3:0 4:0.60000002 #
-83.85365252823945070304034743458 1:0.80000001 2:0.80000001 3:0 4:0.40000001 #
-108.37859176230517732619773596525 1:0.80000001 2:0.80000001 3:0 4:0.2 #
-111.98520047319719594725029310212 1:0.80000001 2:0.80000001 3:0 4:0 #
66.541930715957747111133357975632 1:0.80000001 2:0.60000002 3:0.80000001 4:0.80000001 #
56.263095889915497593847248936072 1:0.80000001 2:0.60000002 3:0.80000001 4:0.60000002 #
66.541930715957747111133357975632 1:0.80000001 2:0.60000002 3:0.80000001 4:0.40000001 #
58.246730680906111388139834161848 1:0.80000001 2:0.60000002 3:0.80000001 4:0.2 #
-34.803774060107983245870855171233 1:0.80000001 2:0.60000002 3:0.80000001 4:0 #
62.214000262887331871297647012398 1:0.80000001 2:0.60000002 3:0.60000002 4:0.80000001 #
60.771356778530524422876624157652 1:0.80000001 2:0.60000002 3:0.60000002 4:0.60000002 #
50.672852388032872283929464174435 1:0.80000001 2:0.60000002 3:0.60000002 4:0.40000001 #
45.98426106387324097113378229551 1:0.80000001 2:0.60000002 3:0.60000002 4:0.2 #
-27.590556638323946003765740897506 1:0.80000001 2:0.60000002 3:0.60000002 4:0 #
51.754835001300477870245231315494 1:0.80000001 2:0.60000002 3:0.40000001 4:0.80000001 #
46.705582806051651800771651323885 1:0.80000001 2:0.60000002 3:0.40000001 4:0.60000002 #
40.213687126446011177449690876529 1:0.80000001 2:0.60000002 3:0.40000001 4:0.40000001 #
-25.426591411788734831134206615388 1:0.80000001 2:0.60000002 3:0.40000001 4:0.2 #
-47.787565419319257387087418464944 1:0.80000001 2:0.60000002 3:0.40000001 4:0 #
-27.590556638323946003765740897506 1:0.80000001 2:0.60000002 3:0.2 4:0.80000001 #
-34.803774060107983245870855171233 1:0.80000001 2:0.60000002 3:0.2 4:0.60000002 #
-33.361130575751175797449832316488 1:0.80000001 2:0.60000002 3:0.2 4:0.40000001 #
-59.328713294173716974455601302907 1:0.80000001 2:0.60000002 3:0.2 4:0.2 #
-83.85365252823945070304034743458 1:0.80000001 2:0.60000002 3:0.2 4:0 #
-89.624226465666680496724438853562 1:0.80000001 2:0.60000002 3:0 4:0.80000001 #
-75.919113364277009736724721733481 1:0.80000001 2:0.60000002 3:0 4:0.60000002 #
-92.509513434380295393566484563053 1:0.80000001 2:0.60000002 3:0 4:0.40000001 #
-89.624226465666680496724438853562 1:0.80000001 2:0.60000002 3:0 4:0.2 #
-108.37859176230517732619773596525 1:0.80000001 2:0.60000002 3:0 4:0 #
58.246730680906111388139834161848 1:0.80000001 2:0.40000001 3:0.80000001 4:0.80000001 #
66.541930715957747111133357975632 1:0.80000001 2:0.40000001 3:0.80000001 4:0.60000002 #
56.263095889915497593847248936072 1:0.80000001 2:0.40000001 3:0.80000001 4:0.40000001 #
66.541930715957747111133357975632 1:0.80000001 2:0.40000001 3:0.80000001 4:0.2 #
58.246730680906111388139834161848 1:0.80000001 2:0.40000001 3:0.80000001 4:0 #
51.754835001300477870245231315494 1:0.80000001 2:0.40000001 3:0.60000002 4:0.80000001 #
50.672852388032872283929464174435 1:0.80000001 2:0.40000001 3:0.60000002 4:0.60000002 #
60.771356778530524422876624157652 1:0.80000001 2:0.40000001 3:0.60000002 4:0.40000001 #
50.672852388032872283929464174435 1:0.80000001 2:0.40000001 3:0.60000002 4:0.2 #
51.754835001300477870245231315494 1:0.80000001 2:0.40000001 3:0.60000002 4:0 #
-13.885443536934273467409184377175 1:0.80000001 2:0.40000001 3:0.40000001 4:0.80000001 #
40.213687126446011177449690876529 1:0.80000001 2:0.40000001 3:0.40000001 4:0.60000002 #
38.049721899910800004818156594411 1:0.80000001 2:0.40000001 3:0.40000001 4:0.40000001 #
40.213687126446011177449690876529 1:0.80000001 2:0.40000001 3:0.40000001 4:0.2 #
-13.885443536934273467409184377175 1:0.80000001 2:0.40000001 3:0.40000001 4:0 #
-47.787565419319257387087418464944 1:0.80000001 2:0.40000001 3:0.2 4:0.80000001 #
-33.361130575751175797449832316488 1:0.80000001 2:0.40000001 3:0.2 4:0.60000002 #
-34.803774060107983245870855171233 1:0.80000001 2:0.40000001 3:0.2 4:0.40000001 #
-33.361130575751175797449832316488 1:0.80000001 2:0.40000001 3:0.2 4:0.2 #
-47.787565419319257387087418464944 1:0.80000001 2:0.40000001 3:0.2 4:0 #
-83.85365252823945070304034743458 1:0.80000001 2:0.40000001 3:0 4:0.80000001 #
-92.509513434380295393566484563053 1:0.80000001 2:0.40000001 3:0 4:0.60000002 #
-75.919113364277009736724721733481 1:0.80000001 2:0.40000001 3:0 4:0.40000001 #
-92.509513434380295393566484563053 1:0.80000001 2:0.40000001 3:0 4:0.2 #
-83.85365252823945070304034743458 1:0.80000001 2:0.40000001 3:0 4:0 #
-34.803774060107983245870855171233 1:0.80000001 2:0.2 3:0.80000001 4:0.80000001 #
58.246730680906111388139834161848 1:0.80000001 2:0.2 3:0.80000001 4:0.60000002 #
66.541930715957747111133357975632 1:0.80000001 2:0.2 3:0.80000001 4:0.40000001 #
56.263095889915497593847248936072 1:0.80000001 2:0.2 3:0.80000001 4:0.2 #
66.541930715957747111133357975632 1:0.80000001 2:0.2 3:0.80000001 4:0 #
-27.590556638323946003765740897506 1:0.80000001 2:0.2 3:0.60000002 4:0.80000001 #
45.98426106387324097113378229551 1:0.80000001 2:0.2 3:0.60000002 4:0.60000002 #
50.672852388032872283929464174435 1:0.80000001 2:0.2 3:0.60000002 4:0.40000001 #
60.771356778530524422876624157652 1:0.80000001 2:0.2 3:0.60000002 4:0.2 #
62.214000262887331871297647012398 1:0.80000001 2:0.2 3:0.60000002 4:0 #
-47.787565419319257387087418464944 1:0.80000001 2:0.2 3:0.40000001 4:0.80000001 #
-25.426591411788734831134206615388 1:0.80000001 2:0.2 3:0.40000001 4:0.60000002 #
40.213687126446011177449690876529 1:0.80000001 2:0.2 3:0.40000001 4:0.40000001 #
46.705582806051651800771651323885 1:0.80000001 2:0.2 3:0.40000001 4:0.2 #
51.754835001300477870245231315494 1:0.80000001 2:0.2 3:0.40000001 4:0 #
-83.85365252823945070304034743458 1:0.80000001 2:0.2 3:0.2 4:0.80000001 #
-59.328713294173716974455601302907 1:0.80000001 2:0.2 3:0.2 4:0.60000002 #
-33.361130575751175797449832316488 1:0.80000001 2:0.2 3:0.2 4:0.40000001 #
-34.803774060107983245870855171233 1:0.80000001 2:0.2 3:0.2 4:0.2 #
-27.590556638323946003765740897506 1:0.80000001 2:0.2 3:0.2 4:0 #
-108.37859176230517732619773596525 1:0.80000001 2:0.2 3:0 4:0.80000001 #
-89.624226465666680496724438853562 1:0.80000001 2:0.2 3:0 4:0.60000002 #
-92.509513434380295393566484563053 1:0.80000001 2:0.2 3:0 4:0.40000001 #
-75.919113364277009736724721733481 1:0.80000001 2:0.2 3:0 4:0.2 #
-89.624226465666680496724438853562 1:0.80000001 2:0.2 3:0 4:0 #
-75.919113364277009736724721733481 1:0.80000001 2:0 3:0.80000001 4:0.80000001 #
-34.803774060107983245870855171233 1:0.80000001 2:0 3:0.80000001 4:0.60000002 #
58.246730680906111388139834161848 1:0.80000001 2:0 3:0.80000001 4:0.40000001 #
66.541930715957747111133357975632 1:0.80000001 2:0 3:0.80000001 4:0.2 #
56.263095889915497593847248936072 1:0.80000001 2:0 3:0.80000001 4:0 #
-89.624226465666680496724438853562 1:0.80000001 2:0 3:0.60000002 4:0.80000001 #
-27.590556638323946003765740897506 1:0.80000001 2:0 3:0.60000002 4:0.60000002 #
51.754835001300477870245231315494 1:0.80000001 2:0 3:0.60000002 4:0.40000001 #
62.214000262887331871297647012398 1:0.80000001 2:0 3:0.60000002 4:0.2 #
66.541930715957747111133357975632 1:0.80000001 2:0 3:0.60000002 4:0 #
-83.85365252823945070304034743458 1:0.80000001 2:0 3:0.40000001 4:0.80000001 #
-47.787565419319257387087418464944 1:0.80000001 2:0 3:0.40000001 4:0.60000002 #
-13.885443536934273467409184377175 1:0.80000001 2:0 3:0.40000001 4:0.40000001 #
51.754835001300477870245231315494 1:0.80000001 2:0 3:0.40000001 4:0.2 #
58.246730680906111388139834161848 1:0.80000001 2:0 3:0.40000001 4:0 #
-108.37859176230517732619773596525 1:0.80000001 2:0 3:0.2 4:0.80000001 #
-83.85365252823945070304034743458 1:0.80000001 2:0 3:0.2 4:0.60000002 #
-47.787565419319257387087418464944 1:0.80000001 2:0 3:0.2 4:0.40000001 #
-27.590556638323946003765740897506 1:0.80000001 2:0 3:0.2 4:0.2 #
-34.803774060107983245870855171233 1:0.80000001 2:0 3:0.2 4:0 #
-111.98520047319719594725029310212 1:0.80000001 2:0 3:0 4:0.80000001 #
-108.37859176230517732619773596525 1:0.80000001 2:0 3:0 4:0.60000002 #
-83.85365252823945070304034743458 1:0.80000001 2:0 3:0 4:0.40000001 #
-89.624226465666680496724438853562 1:0.80000001 2:0 3:0 4:0.2 #
-75.919113364277009736724721733481 1:0.80000001 2:0 3:0 4:0 #
66.541930715957747111133357975632 1:0.60000002 2:0.80000001 3:0.80000001 4:0.80000001 #
62.214000262887331871297647012398 1:0.60000002 2:0.80000001 3:0.80000001 4:0.60000002 #
51.754835001300477870245231315494 1:0.60000002 2:0.80000001 3:0.80000001 4:0.40000001 #
-27.590556638323946003765740897506 1:0.60000002 2:0.80000001 3:0.80000001 4:0.2 #
-89.624226465666680496724438853562 1:0.60000002 2:0.80000001 3:0.80000001 4:0 #
56.263095889915497593847248936072 1:0.60000002 2:0.80000001 3:0.60000002 4:0.80000001 #
60.771356778530524422876624157652 1:0.60000002 2:0.80000001 3:0.60000002 4:0.60000002 #
46.705582806051651800771651323885 1:0.60000002 2:0.80000001 3:0.60000002 4:0.40000001 #
-34.803774060107983245870855171233 1:0.60000002 2:0.80000001 3:0.60000002 4:0.2 #
-75.919113364277009736724721733481 1:0.60000002 2:0.80000001 3:0.60000002 4:0 #
66.541930715957747111133357975632 1:0.60000002 2:0.80000001 3:0.40000001 4:0.80000001 #
50.672852388032872283929464174435 1:0.60000002 2:0.80000001 3:0.40000001 4:0.60000002 #
40.213687126446011177449690876529 1:0.60000002 2:0.80000001 3:0.40000001 4:0.40000001 #
-33.361130575751175797449832316488 1:0.60000002 2:0.80000001 3:0.40000001 4:0.2 #
-92.509513434380295393566484563053 1:0.60000002 2:0.80000001 3:0.40000001 4:0 #
58.246730680906111388139834161848 1:0.60000002 2:0.80000001 3:0.2 4:0.80000001 #
45.98426106387324097113378229551 1:0.60000002 2:0.80000001 3:0.2 4:0.60000002 #
-25.426591411788734831134206615388 1:0.60000002 2:0.80000001 3:0.2 4:0.40000001 #
-59.328713294173716974455601302907 1:0.60000002 2:0.80000001 3:0.2 4:0.2 #
-89.624226465666680496724438853562 1:0.60000002 2:0.80000001 3:0.2 4:0 #
-34.803774060107983245870855171233 1:0.60000002 2:0.80000001 3:0 4:0.80000001 #
-27.590556638323946003765740897506 1:0.60000002 2:0.80000001 3:0 4:0.60000002 #
-47.787565419319257387087418464944 1:0.60000002 2:0.80000001 3:0 4:0.40000001 #
-83.85365252823945070304034743458 1:0.60000002 2:0.80000001 3:0 4:0.2 #
-108.37859176230517732619773596525 1:0.60000002 2:0.80000001 3:0 4:0 #
62.214000262887331871297647012398 1:0.60000002 2:0.60000002 3:0.80000001 4:0.80000001 #
60.771356778530524422876624157652 1:0.60000002 2:0.60000002 3:0.80000001 4:0.60000002 #
50.672852388032872283929464174435 1:0.60000002 2:0.60000002 3:0.80000001 4:0.40000001 #
45.98426106387324097113378229551 1:0.60000002 2:0.60000002 3:0.80000001 4:0.2 #
-27.590556638323946003765740897506 1:0.60000002 2:0.60000002 3:0.80000001 4:0 #
60.771356778530524422876624157652 1:0.60000002 2:0.60000002 3:0.60000002 4:0.80000001 #
56.263095889915497593847248936072 1:0.60000002 2:0.60000002 3:0.60000002 4:0.60000002 #
55.000782841103294629192532738671 1:0.60000002 2:0.60000002 3:0.60000002 4:0.40000001 #
38.049721899910800004818156594411 1:0.60000002 2:0.60000002 3:0.60000002 4:0.2 #
-34.803774060107983245870855171233 1:0.60000002 2:0.60000002 3:0.60000002 4:0 #
50.672852388032872283929464174435 1:0.60000002 2:0.60000002 3:0.40000001 4:0.80000001 #
55.000782841103294629192532738671 1:0.60000002 2:0.60000002 3:0.40000001 4:0.60000002 #
44.902278450605635384818015154451 1:0.60000002 2:0.60000002 3:0.40000001 4:0.40000001 #
27.22989576723474414166048518382 1:0.60000002 2:0.60000002 3:0.40000001 4:0.2 #
-33.361130575751175797449832316488 1:0.60000002 2:0.60000002 3:0.40000001 4:0 #
45.98426106387324097113378229551 1:0.60000002 2:0.60000002 3:0.2 4:0.80000001 #
38.049721899910800004818156594411 1:0.60000002 2:0.60000002 3:0.2 4:0.60000002 #
27.22989576723474414166048518382 1:0.60000002 2:0.60000002 3:0.2 4:0.40000001 #
-42.738313224070424212186480872333 1:0.60000002 2:0.60000002 3:0.2 4:0.2 #
-59.328713294173716974455601302907 1:0.60000002 2:0.60000002 3:0.2 4:0 #
-27.590556638323946003765740897506 1:0.60000002 2:0.60000002 3:0 4:0.80000001 #
-34.803774060107983245870855171233 1:0.60000002 2:0.60000002 3:0 4:0.60000002 #
-33.361130575751175797449832316488 1:0.60000002 2:0.60000002 3:0 4:0.40000001 #
-59.328713294173716974455601302907 1:0.60000002 2:0.60000002 3:0 4:0.2 #
-83.85365252823945070304034743458 1:0.60000002 2:0.60000002 3:0 4:0 #
51.754835001300477870245231315494 1:0.60000002 2:0.40000001 3:0.80000001 4:0.80000001 #
50.672852388032872283929464174435 1:0.60000002 2:0.40000001 3:0.80000001 4:0.60000002 #
60.771356778530524422876624157652 1:0.60000002 2:0.40000001 3:0.80000001 4:0.40000001 #
50.672852388032872283929464174435 1:0.60000002 2:0.40000001 3:0.80000001 4:0.2 #
51.754835001300477870245231315494 1:0.60000002 2:0.40000001 3:0.80000001 4:0 #
46.705582806051651800771651323885 1:0.60000002 2:0.40000001 3:0.60000002 4:0.80000001 #
55.000782841103294629192532738671 1:0.60000002 2:0.40000001 3:0.60000002 4:0.60000002 #
56.263095889915497593847248936072 1:0.60000002 2:0.40000001 3:0.60000002 4:0.40000001 #
55.000782841103294629192532738671 1:0.60000002 2:0.40000001 3:0.60000002 4:0.2 #
46.705582806051651800771651323885 1:0.60000002 2:0.40000001 3:0.60000002 4:0 #
40.213687126446011177449690876529 1:0.60000002 2:0.40000001 3:0.40000001 4:0.80000001 #
44.902278450605635384818015154451 1:0.60000002 2:0.40000001 3:0.40000001 4:0.60000002 #
53.558139356746487180771509883925 1:0.60000002 2:0.40000001 3:0.40000001 4:0.40000001 #
44.902278450605635384818015154451 1:0.60000002 2:0.40000001 3:0.40000001 4:0.2 #
40.213687126446011177449690876529 1:0.60000002 2:0.40000001 3:0.40000001 4:0 #
-25.426591411788734831134206615388 1:0.60000002 2:0.40000001 3:0.2 4:0.80000001 #
27.22989576723474414166048518382 1:0.60000002 2:0.40000001 3:0.2 4:0.60000002 #
32.279147962483570211134065175429 1:0.60000002 2:0.40000001 3:0.2 4:0.40000001 #
27.22989576723474414166048518382 1:0.60000002 2:0.40000001 3:0.2 4:0.2 #
-25.426591411788734831134206615388 1:0.60000002 2:0.40000001 3:0.2 4:0 #
-47.787565419319257387087418464944 1:0.60000002 2:0.40000001 3:0 4:0.80000001 #
-33.361130575751175797449832316488 1:0.60000002 2:0.40000001 3:0 4:0.60000002 #
-34.803774060107983245870855171233 1:0.60000002 2:0.40000001 3:0 4:0.40000001 #
-33.361130575751175797449832316488 1:0.60000002 2:0.40000001 3:0 4:0.2 #
-47.787565419319257387087418464944 1:0.60000002 2:0.40000001 3:0 4:0 #
-27.590556638323946003765740897506 1:0.60000002 2:0.2 3:0.80000001 4:0.80000001 #
45.98426106387324097113378229551 1:0.60000002 2:0.2 3:0.80000001 4:0.60000002 #
50.672852388032872283929464174435 1:0.60000002 2:0.2 3:0.80000001 4:0.40000001 #
60.771356778530524422876624157652 1:0.60000002 2:0.2 3:0.80000001 4:0.2 #
62.214000262887331871297647012398 1:0.60000002 2:0.2 3:0.80000001 4:0 #
-34.803774060107983245870855171233 1:0.60000002 2:0.2 3:0.60000002 4:0.80000001 #
38.049721899910800004818156594411 1:0.60000002 2:0.2 3:0.60000002 4:0.60000002 #
55.000782841103294629192532738671 1:0.60000002 2:0.2 3:0.60000002 4:0.40000001 #
56.263095889915497593847248936072 1:0.60000002 2:0.2 3:0.60000002 4:0.2 #
60.771356778530524422876624157652 1:0.60000002 2:0.2 3:0.60000002 4:0 #
-33.361130575751175797449832316488 1:0.60000002 2:0.2 3:0.40000001 4:0.80000001 #
27.22989576723474414166048518382 1:0.60000002 2:0.2 3:0.40000001 4:0.60000002 #
44.902278450605635384818015154451 1:0.60000002 2:0.2 3:0.40000001 4:0.40000001 #
55.000782841103294629192532738671 1:0.60000002 2:0.2 3:0.40000001 4:0.2 #
50.672852388032872283929464174435 1:0.60000002 2:0.2 3:0.40000001 4:0 #
-59.328713294173716974455601302907 1:0.60000002 2:0.2 3:0.2 4:0.80000001 #
-42.738313224070424212186480872333 1:0.60000002 2:0.2 3:0.2 4:0.60000002 #
27.22989576723474414166048518382 1:0.60000002 2:0.2 3:0.2 4:0.40000001 #
38.049721899910800004818156594411 1:0.60000002 2:0.2 3:0.2 4:0.2 #
45.98426106387324097113378229551 1:0.60000002 2:0.2 3:0.2 4:0 #
-83.85365252823945070304034743458 1:0.60000002 2:0.2 3:0 4:0.80000001 #
-59.328713294173716974455601302907 1:0.60000002 2:0.2 3:0 4:0.60000002 #
-33.361130575751175797449832316488 1:0.60000002 2:0.2 3:0 4:0.40000001 #
-34.803774060107983245870855171233 1:0.60000002 2:0.2 3:0 4:0.2 #
-27.590556638323946003765740897506 1:0.60000002 2:0.2 3:0 4:0 #
-89.624226465666680496724438853562 1:0.60000002 2:0 3:0.80000001 4:0.80000001 #
-27.590556638323946003765740897506 1:0.60000002 2:0 3:0.80000001 4:0.60000002 #
51.754835001300477870245231315494 1:0.60000002 2:0 3:0.80000001 4:0.40000001 #
62.214000262887331871297647012398 1:0.60000002 2:0 3:0.80000001 4:0.2 #
66.541930715957747111133357975632 1:0.60000002 2:0 3:0.80000001 4:0 #
-75.919113364277009736724721733481 1:0.60000002 2:0 3:0.60000002 4:0.80000001 #
-34.803774060107983245870855171233 1:0.60000002 2:0 3:0.60000002 4:0.60000002 #
46.705582806051651800771651323885 1:0.60000002 2:0 3:0.60000002 4:0.40000001 #
60.771356778530524422876624157652 1:0.60000002 2:0 3:0.60000002 4:0.2 #
56.263095889915497593847248936072 1:0.60000002 2:0 3:0.60000002 4:0 #
-92.509513434380295393566484563053 1:0.60000002 2:0 3:0.40000001 4:0.80000001 #
-33.361130575751175797449832316488 1:0.60000002 2:0 3:0.40000001 4:0.60000002 #
40.213687126446011177449690876529 1:0.60000002 2:0 3:0.40000001 4:0.40000001 #
50.672852388032872283929464174435 1:0.60000002 2:0 3:0.40000001 4:0.2 #
66.541930715957747111133357975632 1:0.60000002 2:0 3:0.40000001 4:0 #
-89.624226465666680496724438853562 1:0.60000002 2:0 3:0.2 4:0.80000001 #
-59.328713294173716974455601302907 1:0.60000002 2:0 3:0.2 4:0.60000002 #
-25.426591411788734831134206615388 1:0.60000002 2:0 3:0.2 4:0.40000001 #
45.98426106387324097113378229551 1:0.60000002 2:0 3:0.2 4:0.2 #
58.246730680906111388139834161848 1:0.60000002 2:0 3:0.2 4:0 #
-108.37859176230517732619773596525 1:0.60000002 2:0 3:0 4:0.80000001 #
-83.85365252823945070304034743458 1:0.60000002 2:0 3:0 4:0.60000002 #
-47.787565419319257387087418464944 1:0.60000002 2:0 3:0 4:0.40000001 #
-27.590556638323946003765740897506 1:0.60000002 2:0 3:0 4:0.2 #
-34.803774060107983245870855171233 1:0.60000002 2:0 3:0 4:0 #
58.246730680906111388139834161848 1:0.40000001 2:0.80000001 3:0.80000001 4:0.80000001 #
51.754835001300477870245231315494 1:0.40000001 2:0.80000001 3:0.80000001 4:0.60000002 #
-13.885443536934273467409184377175 1:0.40000001 2:0.80000001 3:0.80000001 4:0.40000001 #
-47.787565419319257387087418464944 1:0.40000001 2:0.80000001 3:0.80000001 4:0.2 #
-83.85365252823945070304034743458 1:0.40000001 2:0.80000001 3:0.80000001 4:0 #
66.541930715957747111133357975632 1:0.40000001 2:0.80000001 3:0.60000002 4:0.80000001 #
50.672852388032872283929464174435 1:0.40000001 2:0.80000001 3:0.60000002 4:0.60000002 #
40.213687126446011177449690876529 1:0.40000001 2:0.80000001 3:0.60000002 4:0.40000001 #
-33.361130575751175797449832316488 1:0.40000001 2:0.80000001 3:0.60000002 4:0.2 #
-92.509513434380295393566484563053 1:0.40000001 2:0.80000001 3:0.60000002 4:0 #
56.263095889915497593847248936072 1:0.40000001 2:0.80000001 3:0.40000001 4:0.80000001 #
60.771356778530524422876624157652 1:0.40000001 2:0.80000001 3:0.40000001 4:0.60000002 #
38.049721899910800004818156594411 1:0.40000001 2:0.80000001 3:0.40000001 4:0.40000001 #
-34.803774060107983245870855171233 1:0.40000001 2:0.80000001 3:0.40000001 4:0.2 #
-75.919113364277009736724721733481 1:0.40000001 2:0.80000001 3:0.40000001 4:0 #
66.541930715957747111133357975632 1:0.40000001 2:0.80000001 3:0.2 4:0.80000001 #
50.672852388032872283929464174435 1:0.40000001 2:0.80000001 3:0.2 4:0.60000002 #
40.213687126446011177449690876529 1:0.40000001 2:0.80000001 3:0.2 4:0.40000001 #
-33.361130575751175797449832316488 1:0.40000001 2:0.80000001 3:0.2 4:0.2 #
-92.509513434380295393566484563053 1:0.40000001 2:0.80000001 3:0.2 4:0 #
58.246730680906111388139834161848 1:0.40000001 2:0.80000001 3:0 4:0.80000001 #
51.754835001300477870245231315494 1:0.40000001 2:0.80000001 3:0 4:0.60000002 #
-13.885443536934273467409184377175 1:0.40000001 2:0.80000001 3:0 4:0.40000001 #
-47.787565419319257387087418464944 1:0.40000001 2:0.80000001 3:0 4:0.2 #
-83.85365252823945070304034743458 1:0.40000001 2:0.80000001 3:0 4:0 #
51.754835001300477870245231315494 1:0.40000001 2:0.60000002 3:0.80000001 4:0.80000001 #
46.705582806051651800771651323885 1:0.40000001 2:0.60000002 3:0.80000001 4:0.60000002 #
40.213687126446011177449690876529 1:0.40000001 2:0.60000002 3:0.80000001 4:0.40000001 #
-25.426591411788734831134206615388 1:0.40000001 2:0.60000002 3:0.80000001 4:0.2 #
-47.787565419319257387087418464944 1:0.40000001 2:0.60000002 3:0.80000001 4:0 #
50.672852388032872283929464174435 1:0.40000001 2:0.60000002 3:0.60000002 4:0.80000001 #
55.000782841103294629192532738671 1:0.40000001 2:0.60000002 3:0.60000002 4:0.60000002 #
44.902278450605635384818015154451 1:0.40000001 2:0.60000002 3:0.60000002 4:0.40000001 #
27.22989576723474414166048518382 1:0.40000001 2:0.60000002 3:0.60000002 4:0.2 #
-33.361130575751175797449832316488 1:0.40000001 2:0.60000002 3:0.60000002 4:0 #
60.771356778530524422876624157652 1:0.40000001 2:0.60000002 3:0.40000001 4:0.80000001 #
56.263095889915497593847248936072 1:0.40000001 2:0.60000002 3:0.40000001 4:0.60000002 #
53.558139356746487180771509883925 1:0.40000001 2:0.60000002 3:0.40000001 4:0.40000001 #
32.279147962483570211134065175429 1:0.40000001 2:0.60000002 3:0.40000001 4:0.2 #
-34.803774060107983245870855171233 1:0.40000001 2:0.60000002 3:0.40000001 4:0 #
50.672852388032872283929464174435 1:0.40000001 2:0.60000002 3:0.2 4:0.80000001 #
55.000782841103294629192532738671 1:0.40000001 2:0.60000002 3:0.2 4:0.60000002 #
44.902278450605635384818015154451 1:0.40000001 2:0.60000002 3:0.2 4:0.40000001 #
27.22989576723474414166048518382 1:0.40000001 2:0.60000002 3:0.2 4:0.2 #
-33.361130575751175797449832316488 1:0.40000001 2:0.60000002 3:0.2 4:0 #
51.754835001300477870245231315494 1:0.40000001 2:0.60000002 3:0 4:0.80000001 #
46.705582806051651800771651323885 1:0.40000001 2:0.60000002 3:0 4:0.60000002 #
40.213687126446011177449690876529 1:0.40000001 2:0.60000002 3:0 4:0.40000001 #
-25.426591411788734831134206615388 1:0.40000001 2:0.60000002 3:0 4:0.2 #
-47.787565419319257387087418464944 1:0.40000001 2:0.60000002 3:0 4:0 #
-13.885443536934273467409184377175 1:0.40000001 2:0.40000001 3:0.80000001 4:0.80000001 #
40.213687126446011177449690876529 1:0.40000001 2:0.40000001 3:0.80000001 4:0.60000002 #
38.049721899910800004818156594411 1:0.40000001 2:0.40000001 3:0.80000001 4:0.40000001 #
40.213687126446011177449690876529 1:0.40000001 2:0.40000001 3:0.80000001 4:0.2 #
-13.885443536934273467409184377175 1:0.40000001 2:0.40000001 3:0.80000001 4:0 #
40.213687126446011177449690876529 1:0.40000001 2:0.40000001 3:0.60000002 4:0.80000001 #
44.902278450605635384818015154451 1:0.40000001 2:0.40000001 3:0.60000002 4:0.60000002 #
53.558139356746487180771509883925 1:0.40000001 2:0.40000001 3:0.60000002 4:0.40000001 #
44.902278450605635384818015154451 1:0.40000001 2:0.40000001 3:0.60000002 4:0.2 #
40.213687126446011177449690876529 1:0.40000001 2:0.40000001 3:0.60000002 4:0 #
38.049721899910800004818156594411 1:0.40000001 2:0.40000001 3:0.40000001 4:0.80000001 #
53.558139356746487180771509883925 1:0.40000001 2:0.40000001 3:0.40000001 4:0.60000002 #
56.263095889915497593847248936072 1:0.40000001 2:0.40000001 3:0.40000001 4:0.40000001 #
53.558139356746487180771509883925 1:0.40000001 2:0.40000001 3:0.40000001 4:0.2 #
38.049721899910800004818156594411 1:0.40000001 2:0.40000001 3:0.40000001 4:0 #
40.213687126446011177449690876529 1:0.40000001 2:0.40000001 3:0.2 4:0.80000001 #
44.902278450605635384818015154451 1:0.40000001 2:0.40000001 3:0.2 4:0.60000002 #
53.558139356746487180771509883925 1:0.40000001 2:0.40000001 3:0.2 4:0.40000001 #
44.902278450605635384818015154451 1:0.40000001 2:0.40000001 3:0.2 4:0.2 #
40.213687126446011177449690876529 1:0.40000001 2:0.40000001 3:0.2 4:0 #
-13.885443536934273467409184377175 1:0.40000001 2:0.40000001 3:0 4:0.80000001 #
40.213687126446011177449690876529 1:0.40000001 2:0.40000001 3:0 4:0.60000002 #
38.049721899910800004818156594411 1:0.40000001 2:0.40000001 3:0 4:0.40000001 #
40.213687126446011177449690876529 1:0.40000001 2:0.40000001 3:0 4:0.2 #
-13.885443536934273467409184377175 1:0.40000001 2:0.40000001 3:0 4:0 #
-47.787565419319257387087418464944 1:0.40000001 2:0.2 3:0.80000001 4:0.80000001 #
-25.426591411788734831134206615388 1:0.40000001 2:0.2 3:0.80000001 4:0.60000002 #
40.213687126446011177449690876529 1:0.40000001 2:0.2 3:0.80000001 4:0.40000001 #
46.705582806051651800771651323885 1:0.40000001 2:0.2 3:0.80000001 4:0.2 #
51.754835001300477870245231315494 1:0.40000001 2:0.2 3:0.80000001 4:0 #
-33.361130575751175797449832316488 1:0.40000001 2:0.2 3:0.60000002 4:0.80000001 #
27.22989576723474414166048518382 1:0.40000001 2:0.2 3:0.60000002 4:0.60000002 #
44.902278450605635384818015154451 1:0.40000001 2:0.2 3:0.60000002 4:0.40000001 #
55.000782841103294629192532738671 1:0.40000001 2:0.2 3:0.60000002 4:0.2 #
50.672852388032872283929464174435 1:0.40000001 2:0.2 3:0.60000002 4:0 #
-34.803774060107983245870855171233 1:0.40000001 2:0.2 3:0.40000001 4:0.80000001 #
32.279147962483570211134065175429 1:0.40000001 2:0.2 3:0.40000001 4:0.60000002 #
53.558139356746487180771509883925 1:0.40000001 2:0.2 3:0.40000001 4:0.40000001 #
56.263095889915497593847248936072 1:0.40000001 2:0.2 3:0.40000001 4:0.2 #
60.771356778530524422876624157652 1:0.40000001 2:0.2 3:0.40000001 4:0 #
-33.361130575751175797449832316488 1:0.40000001 2:0.2 3:0.2 4:0.80000001 #
27.22989576723474414166048518382 1:0.40000001 2:0.2 3:0.2 4:0.60000002 #
44.902278450605635384818015154451 1:0.40000001 2:0.2 3:0.2 4:0.40000001 #
55.000782841103294629192532738671 1:0.40000001 2:0.2 3:0.2 4:0.2 #
50.672852388032872283929464174435 1:0.40000001 2:0.2 3:0.2 4:0 #
-47.787565419319257387087418464944 1:0.40000001 2:0.2 3:0 4:0.80000001 #
-25.426591411788734831134206615388 1:0.40000001 2:0.2 3:0 4:0.60000002 #
40.213687126446011177449690876529 1:0.40000001 2:0.2 3:0 4:0.40000001 #
46.705582806051651800771651323885 1:0.40000001 2:0.2 3:0 4:0.2 #
51.754835001300477870245231315494 1:0.40000001 2:0.2 3:0 4:0 #
-83.85365252823945070304034743458 1:0.40000001 2:0 3:0.80000001 4:0.80000001 #
-47.787565419319257387087418464944 1:0.40000001 2:0 3:0.80000001 4:0.60000002 #
-13.885443536934273467409184377175 1:0.40000001 2:0 3:0.80000001 4:0.40000001 #
51.754835001300477870245231315494 1:0.40000001 2:0 3:0.80000001 4:0.2 #
58.246730680906111388139834161848 1:0.40000001 2:0 3:0.80000001 4:0 #
-92.509513434380295393566484563053 1:0.40000001 2:0 3:0.60000002 4:0.80000001 #
-33.361130575751175797449832316488 1:0.40000001 2:0 3:0.60000002 4:0.60000002 #
40.213687126446011177449690876529 1:0.40000001 2:0 3:0.60000002 4:0.40000001 #
50.672852388032872283929464174435 1:0.40000001 2:0 3:0.60000002 4:0.2 #
66.541930715957747111133357975632 1:0.40000001 2:0 3:0.60000002 4:0 #
-75.919113364277009736724721733481 1:0.40000001 2:0 3:0.40000001 4:0.80000001 #
-34.803774060107983245870855171233 1:0.40000001 2:0 3:0.40000001 4:0.60000002 #
38.049721899910800004818156594411 1:0.40000001 2:0 3:0.40000001 4:0.40000001 #
60.771356778530524422876624157652 1:0.40000001 2:0 3:0.40000001 4:0.2 #
56.263095889915497593847248936072 1:0.40000001 2:0 3:0.40000001 4:0 #
-92.509513434380295393566484563053 1:0.40000001 2:0 3:0.2 4:0.80000001 #
-33.361130575751175797449832316488 1:0.40000001 2:0 3:0.2 4:0.60000002 #
40.213687126446011177449690876529 1:0.40000001 2:0 3:0.2 4:0.40000001 #
50.672852388032872283929464174435 1:0.40000001 2:0 3:0.2 4:0.2 #
66.541930715957747111133357975632 1:0.40000001 2:0 3:0.2 4:0 #
-83.85365252823945070304034743458 1:0.40000001 2:0 3:0 4:0.80000001 #
-47.787565419319257387087418464944 1:0.40000001 2:0 3:0 4:0.60000002 #
-13.885443536934273467409184377175 1:0.40000001 2:0 3:0 4:0.40000001 #
51.754835001300477870245231315494 1:0.40000001 2:0 3:0 4:0.2 #
58.246730680906111388139834161848 1:0.40000001 2:0 3:0 4:0 #
-34.803774060107983245870855171233 1:0.2 2:0.80000001 3:0.80000001 4:0.80000001 #
-27.590556638323946003765740897506 1:0.2 2:0.80000001 3:0.80000001 4:0.60000002 #
-47.787565419319257387087418464944 1:0.2 2:0.80000001 3:0.80000001 4:0.40000001 #
-83.85365252823945070304034743458 1:0.2 2:0.80000001 3:0.80000001 4:0.2 #
-108.37859176230517732619773596525 1:0.2 2:0.80000001 3:0.80000001 4:0 #
58.246730680906111388139834161848 1:0.2 2:0.80000001 3:0.60000002 4:0.80000001 #
45.98426106387324097113378229551 1:0.2 2:0.80000001 3:0.60000002 4:0.60000002 #
-25.426591411788734831134206615388 1:0.2 2:0.80000001 3:0.60000002 4:0.40000001 #
-59.328713294173716974455601302907 1:0.2 2:0.80000001 3:0.60000002 4:0.2 #
-89.624226465666680496724438853562 1:0.2 2:0.80000001 3:0.60000002 4:0 #
66.541930715957747111133357975632 1:0.2 2:0.80000001 3:0.40000001 4:0.80000001 #
50.672852388032872283929464174435 1:0.2 2:0.80000001 3:0.40000001 4:0.60000002 #
40.213687126446011177449690876529 1:0.2 2:0.80000001 3:0.40000001 4:0.40000001 #
-33.361130575751175797449832316488 1:0.2 2:0.80000001 3:0.40000001 4:0.2 #
-92.509513434380295393566484563053 1:0.2 2:0.80000001 3:0.40000001 4:0 #
56.263095889915497593847248936072 1:0.2 2:0.80000001 3:0.2 4:0.80000001 #
60.771356778530524422876624157652 1:0.2 2:0.80000001 3:0.2 4:0.60000002 #
46.705582806051651800771651323885 1:0.2 2:0.80000001 3:0.2 4:0.40000001 #
-34.803774060107983245870855171233 1:0.2 2:0.80000001 3:0.2 4:0.2 #
-75.919113364277009736724721733481 1:0.2 2:0.80000001 3:0.2 4:0 #
66.541930715957747111133357975632 1:0.2 2:0.80000001 3:0 4:0.80000001 #
62.214000262887331871297647012398 1:0.2 2:0.80000001 3:0 4:0.60000002 #
51.754835001300477870245231315494 1:0.2 2:0.80000001 3:0 4:0.40000001 #
-27.590556638323946003765740897506 1:0.2 2:0.80000001 3:0 4:0.2 #
-89.624226465666680496724438853562 1:0.2 2:0.80000001 3:0 4:0 #
-27.590556638323946003765740897506 1:0.2 2:0.60000002 3:0.80000001 4:0.80000001 #
-34.803774060107983245870855171233 1:0.2 2:0.60000002 3:0.80000001 4:0.60000002 #
-33.361130575751175797449832316488 1:0.2 2:0.60000002 3:0.80000001 4:0.40000001 #
-59.328713294173716974455601302907 1:0.2 2:0.60000002 3:0.80000001 4:0.2 #
-83.85365252823945070304034743458 1:0.2 2:0.60000002 3:0.80000001 4:0 #
45.98426106387324097113378229551 1:0.2 2:0.60000002 3:0.60000002 4:0.80000001 #
38.049721899910800004818156594411 1:0.2 2:0.60000002 3:0.60000002 4:0.60000002 #
27.22989576723474414166048518382 1:0.2 2:0.60000002 3:0.60000002 4:0.40000001 #
-42.738313224070424212186480872333 1:0.2 2:0.60000002 3:0.60000002 4:0.2 #
-59.328713294173716974455601302907 1:0.2 2:0.60000002 3:0.60000002 4:0 #
50.672852388032872283929464174435 1:0.2 2:0.60000002 3:0.40000001 4:0.80000001 #
55.000782841103294629192532738671 1:0.2 2:0.60000002 3:0.40000001 4:0.60000002 #
44.902278450605635384818015154451 1:0.2 2:0.60000002 3:0.40000001 4:0.40000001 #
27.22989576723474414166048518382 1:0.2 2:0.60000002 3:0.40000001 4:0.2 #
-33.361130575751175797449832316488 1:0.2 2:0.60000002 3:0.40000001 4:0 #
60.771356778530524422876624157652 1:0.2 2:0.60000002 3:0.2 4:0.80000001 #
56.263095889915497593847248936072 1:0.2 2:0.60000002 3:0.2 4:0.60000002 #
55.000782841103294629192532738671 1:0.2 2:0.60000002 3:0.2 4:0.40000001 #
38.049721899910800004818156594411 1:0.2 2:0.60000002 3:0.2 4:0.2 #
-34.803774060107983245870855171233 1:0.2 2:0.60000002 3:0.2 4:0 #
62.214000262887331871297647012398 1:0.2 2:0.60000002 3:0 4:0.80000001 #
60.771356778530524422876624157652 1:0.2 2:0.60000002 3:0 4:0.60000002 #
50.672852388032872283929464174435 1:0.2 2:0.60000002 3:0 4:0.40000001 #
45.98426106387324097113378229551 1:0.2 2:0.60000002 3:0 4:0.2 #
-27.590556638323946003765740897506 1:0.2 2:0.60000002 3:0 4:0 #
-47.787565419319257387087418464944 1:0.2 2:0.40000001 3:0.80000001 4:0.80000001 #
-33.361130575751175797449832316488 1:0.2 2:0.40000001 3:0.80000001 4:0.60000002 #
-34.803774060107983245870855171233 1:0.2 2:0.40000001 3:0.80000001 4:0.40000001 #
-33.361130575751175797449832316488 1:0.2 2:0.40000001 3:0.80000001 4:0.2 #
-47.787565419319257387087418464944 1:0.2 2:0.40000001 3:0.80000001 4:0 #
-25.426591411788734831134206615388 1:0.2 2:0.40000001 3:0.60000002 4:0.80000001 #
27.22989576723474414166048518382 1:0.2 2:0.40000001 3:0.60000002 4:0.60000002 #
32.279147962483570211134065175429 1:0.2 2:0.40000001 3:0.60000002 4:0.40000001 #
27.22989576723474414166048518382 1:0.2 2:0.40000001 3:0.60000002 4:0.2 #
-25.426591411788734831134206615388 1:0.2 2:0.40000001 3:0.60000002 4:0 #
40.213687126446011177449690876529 1:0.2 2:0.40000001 3:0.40000001 4:0.80000001 #
44.902278450605635384818015154451 1:0.2 2:0.40000001 3:0.40000001 4:0.60000002 #
53.558139356746487180771509883925 1:0.2 2:0.40000001 3:0.40000001 4:0.40000001 #
44.902278450605635384818015154451 1:0.2 2:0.40000001 3:0.40000001 4:0.2 #
40.213687126446011177449690876529 1:0.2 2:0.40000001 3:0.40000001 4:0 #
46.705582806051651800771651323885 1:0.2 2:0.40000001 3:0.2 4:0.80000001 #
55.000782841103294629192532738671 1:0.2 2:0.40000001 3:0.2 4:0.60000002 #
56.263095889915497593847248936072 1:0.2 2:0.40000001 3:0.2 4:0.40000001 #
55.000782841103294629192532738671 1:0.2 2:0.40000001 3:0.2 4:0.2 #
46.705582806051651800771651323885 1:0.2 2:0.40000001 3:0.2 4:0 #
51.754835001300477870245231315494 1:0.2 2:0.40000001 3:0 4:0.80000001 #
50.672852388032872283929464174435 1:0.2 2:0.40000001 3:0 4:0.60000002 #
60.771356778530524422876624157652 1:0.2 2:0.40000001 3:0 4:0.40000001 #
50.672852388032872283929464174435 1:0.2 2:0.40000001 3:0 4:0.2 #
51.754835001300477870245231315494 1:0.2 2:0.40000001 3:0 4:0 #
-83.85365252823945070304034743458 1:0.2 2:0.2 3:0.80000001 4:0.80000001 #
-59.328713294173716974455601302907 1:0.2 2:0.2 3:0.80000001 4:0.60000002 #
-33.361130575751175797449832316488 1:0.2 2:0.2 3:0.80000001 4:0.40000001 #
-34.803774060107983245870855171233 1:0.2 2:0.2 3:0.80000001 4:0.2 #
-27.590556638323946003765740897506 1:0.2 2:0.2 3:0.80000001 4:0 #
-59.328713294173716974455601302907 1:0.2 2:0.2 3:0.60000002 4:0.80000001 #
-42.738313224070424212186480872333 1:0.2 2:0.2 3:0.60000002 4:0.60000002 #
27.22989576723474414166048518382 1:0.2 2:0.2 3:0.60000002 4:0.40000001 #
38.049721899910800004818156594411 1:0.2 2:0.2 3:0.60000002 4:0.2 #
45.98426106387324097113378229551 1:0.2 2:0.2 3:0.60000002 4:0 #
-33.361130575751175797449832316488 1:0.2 2:0.2 3:0.40000001 4:0.80000001 #
27.22989576723474414166048518382 1:0.2 2:0.2 3:0.40000001 4:0.60000002 #
44.902278450605635384818015154451 1:0.2 2:0.2 3:0.40000001 4:0.40000001 #
55.000782841103294629192532738671 1:0.2 2:0.2 3:0.40000001 4:0.2 #
50.672852388032872283929464174435 1:0.2 2:0.2 3:0.40000001 4:0 #
-34.803774060107983245870855171233 1:0.2 2:0.2 3:0.2 4:0.80000001 #
38.049721899910800004818156594411 1:0.2 2:0.2 3:0.2 4:0.60000002 #
55.000782841103294629192532738671 1:0.2 2:0.2 3:0.2 4:0.40000001 #
56.263095889915497593847248936072 1:0.2 2:0.2 3:0.2 4:0.2 #
60.771356778530524422876624157652 1:0.2 2:0.2 3:0.2 4:0 #
-27.590556638323946003765740897506 1:0.2 2:0.2 3:0 4:0.80000001 #
45.98426106387324097113378229551 1:0.2 2:0.2 3:0 4:0.60000002 #
50.672852388032872283929464174435 1:0.2 2:0.2 3:0 4:0.40000001 #
60.771356778530524422876624157652 1:0.2 2:0.2 3:0 4:0.2 #
62.214000262887331871297647012398 1:0.2 2:0.2 3:0 4:0 #
-108.37859176230517732619773596525 1:0.2 2:0 3:0.80000001 4:0.80000001 #
-83.85365252823945070304034743458 1:0.2 2:0 3:0.80000001 4:0.60000002 #
-47.787565419319257387087418464944 1:0.2 2:0 3:0.80000001 4:0.40000001 #
-27.590556638323946003765740897506 1:0.2 2:0 3:0.80000001 4:0.2 #
-34.803774060107983245870855171233 1:0.2 2:0 3:0.80000001 4:0 #
-89.624226465666680496724438853562 1:0.2 2:0 3:0.60000002 4:0.80000001 #
-59.328713294173716974455601302907 1:0.2 2:0 3:0.60000002 4:0.60000002 #
-25.426591411788734831134206615388 1:0.2 2:0 3:0.60000002 4:0.40000001 #
45.98426106387324097113378229551 1:0.2 2:0 3:0.60000002 4:0.2 #
58.246730680906111388139834161848 1:0.2 2:0 3:0.60000002 4:0 #
-92.509513434380295393566484563053 1:0.2 2:0 3:0.40000001 4:0.80000001 #
-33.361130575751175797449832316488 1:0.2 2:0 3:0.40000001 4:0.60000002 #
40.213687126446011177449690876529 1:0.2 2:0 3:0.40000001 4:0.40000001 #
50.672852388032872283929464174435 1:0.2 2:0 3:0.40000001 4:0.2 #
66.541930715957747111133357975632 1:0.2 2:0 3:0.40000001 4:0 #
-75.919113364277009736724721733481 1:0.2 2:0 3:0.2 4:0.80000001 #
-34.803774060107983245870855171233 1:0.2 2:0 3:0.2 4:0.60000002 #
46.705582806051651800771651323885 1:0.2 2:0 3:0.2 4:0.40000001 #
60.771356778530524422876624157652 1:0.2 2:0 3:0.2 4:0.2 #
56.263095889915497593847248936072 1:0.2 2:0 3:0.2 4:0 #
-89.624226465666680496724438853562 1:0.2 2:0 3:0 4:0.80000001 #
-27.590556638323946003765740897506 1:0.2 2:0 3:0 4:0.60000002 #
51.754835001300477870245231315494 1:0.2 2:0 3:0 4:0.40000001 #
62.214000262887331871297647012398 1:0.2 2:0 3:0 4:0.2 #
66.541930715957747111133357975632 1:0.2 2:0 3:0 4:0 #
-75.919113364277009736724721733481 1:0 2:0.80000001 3:0.80000001 4:0.80000001 #
-89.624226465666680496724438853562 1:0 2:0.80000001 3:0.80000001 4:0.60000002 #
-83.85365252823945070304034743458 1:0 2:0.80000001 3:0.80000001 4:0.40000001 #
-108.37859176230517732619773596525 1:0 2:0.80000001 3:0.80000001 4:0.2 #
-111.98520047319719594725029310212 1:0 2:0.80000001 3:0.80000001 4:0 #
-34.803774060107983245870855171233 1:0 2:0.80000001 3:0.60000002 4:0.80000001 #
-27.590556638323946003765740897506 1:0 2:0.80000001 3:0.60000002 4:0.60000002 #
-47.787565419319257387087418464944 1:0 2:0.80000001 3:0.60000002 4:0.40000001 #
-83.85365252823945070304034743458 1:0 2:0.80000001 3:0.60000002 4:0.2 #
-108.37859176230517732619773596525 1:0 2:0.80000001 3:0.60000002 4:0 #
58.246730680906111388139834161848 1:0 2:0.80000001 3:0.40000001 4:0.80000001 #
51.754835001300477870245231315494 1:0 2:0.80000001 3:0.40000001 4:0.60000002 #
-13.885443536934273467409184377175 1:0 2:0.80000001 3:0.40000001 4:0.40000001 #
-47.787565419319257387087418464944 1:0 2:0.80000001 3:0.40000001 4:0.2 #
-83.85365252823945070304034743458 1:0 2:0.80000001 3:0.40000001 4:0 #
66.541930715957747111133357975632 1:0 2:0.80000001 3:0.2 4:0.80000001 #
62.214000262887331871297647012398 1:0 2:0.80000001 3:0.2 4:0.60000002 #
51.754835001300477870245231315494 1:0 2:0.80000001 3:0.2 4:0.40000001 #
-27.590556638323946003765740897506 1:0 2:0.80000001 3:0.2 4:0.2 #
-89.624226465666680496724438853562 1:0 2:0.80000001 3:0.2 4:0 #
56.263095889915497593847248936072 1:0 2:0.80000001 3:0 4:0.80000001 #
66.541930715957747111133357975632 1:0 2:0.80000001 3:0 4:0.60000002 #
58.246730680906111388139834161848 1:0 2:0.80000001 3:0 4:0.40000001 #
-34.803774060107983245870855171233 1:0 2:0.80000001 3:0 4:0.2 #
-75.919113364277009736724721733481 1:0 2:0.80000001 3:0 4:0 #
-89.624226465666680496724438853562 1:0 2:0.60000002 3:0.80000001 4:0.80000001 #
-75.919113364277009736724721733481 1:0 2:0.60000002 3:0.80000001 4:0.60000002 #
-92.509513434380295393566484563053 1:0 2:0.60000002 3:0.80000001 4:0.40000001 #
-89.624226465666680496724438853562 1:0 2:0.60000002 3:0.80000001 4:0.2 #
-108.37859176230517732619773596525 1:0 2:0.60000002 3:0.80000001 4:0 #
-27.590556638323946003765740897506 1:0 2:0.60000002 3:0.60000002 4:0.80000001 #
-34.803774060107983245870855171233 1:0 2:0.60000002 3:0.60000002 4:0.60000002 #
-33.361130575751175797449832316488 1:0 2:0.60000002 3:0.60000002 4:0.40000001 #
-59.328713294173716974455601302907 1:0 2:0.60000002 3:0.60000002 4:0.2 #
-83.85365252823945070304034743458 1:0 2:0.60000002 3:0.60000002 4:0 #
51.754835001300477870245231315494 1:0 2:0.60000002 3:0.40000001 4:0.80000001 #
46.705582806051651800771651323885 1:0 2:0.60000002 3:0.40000001 4:0.60000002 #
40.213687126446011177449690876529 1:0 2:0.60000002 3:0.40000001 4:0.40000001 #
-25.426591411788734831134206615388 1:0 2:0.60000002 3:0.40000001 4:0.2 #
-47.787565419319257387087418464944 1:0 2:0.60000002 3:0.40000001 4:0 #
62.214000262887331871297647012398 1:0 2:0.60000002 3:0.2 4:0.80000001 #
60.771356778530524422876624157652 1:0 2:0.60000002 3:0.2 4:0.60000002 #
50.672852388032872283929464174435 1:0 2:0.60000002 3:0.2 4:0.40000001 #
45.98426106387324097113378229551 1:0 2:0.60000002 3:0.2 4:0.2 #
-27.590556638323946003765740897506 1:0 2:0.60000002 3:0.2 4:0 #
66.541930715957747111133357975632 1:0 2:0.60000002 3:0 4:0.80000001 #
56.263095889915497593847248936072 1:0 2:0.60000002 3:0 4:0.60000002 #
66.541930715957747111133357975632 1:0 2:0.60000002 3:0 4:0.40000001 #
58.246730680906111388139834161848 1:0 2:0.60000002 3:0 4:0.2 #
-34.803774060107983245870855171233 1:0 2:0.60000002 3:0 4:0 #
-83.85365252823945070304034743458 1:0 2:0.40000001 3:0.80000001 4:0.80000001 #
-92.509513434380295393566484563053 1:0 2:0.40000001 3:0.80000001 4:0.60000002 #
-75.919113364277009736724721733481 1:0 2:0.40000001 3:0.80000001 4:0.40000001 #
-92.509513434380295393566484563053 1:0 2:0.40000001 3:0.80000001 4:0.2 #
-83.85365252823945070304034743458 1:0 2:0.40000001 3:0.80000001 4:0 #
-47.787565419319257387087418464944 1:0 2:0.40000001 3:0.60000002 4:0.80000001 #
-33.361130575751175797449832316488 1:0 2:0.40000001 3:0.60000002 4:0.60000002 #
-34.803774060107983245870855171233 1:0 2:0.40000001 3:0.60000002 4:0.40000001 #
-33.361130575751175797449832316488 1:0 2:0.40000001 3:0.60000002 4:0.2 #
-47.787565419319257387087418464944 1:0 2:0.40000001 3:0.60000002 4:0 #
-13.885443536934273467409184377175 1:0 2:0.40000001 3:0.40000001 4:0.80000001 #
40.213687126446011177449690876529 1:0 2:0.40000001 3:0.40000001 4:0.60000002 #
38.049721899910800004818156594411 1:0 2:0.40000001 3:0.40000001 4:0.40000001 #
40.213687126446011177449690876529 1:0 2:0.40000001 3:0.40000001 4:0.2 #
-13.885443536934273467409184377175 1:0 2:0.40000001 3:0.40000001 4:0 #
51.754835001300477870245231315494 1:0 2:0.40000001 3:0.2 4:0.80000001 #
50.672852388032872283929464174435 1:0 2:0.40000001 3:0.2 4:0.60000002 #
60.771356778530524422876624157652 1:0 2:0.40000001 3:0.2 4:0.40000001 #
50.672852388032872283929464174435 1:0 2:0.40000001 3:0.2 4:0.2 #
51.754835001300477870245231315494 1:0 2:0.40000001 3:0.2 4:0 #
58.246730680906111388139834161848 1:0 2:0.40000001 3:0 4:0.80000001 #
66.541930715957747111133357975632 1:0 2:0.40000001 3:0 4:0.60000002 #
56.263095889915497593847248936072 1:0 2:0.40000001 3:0 4:0.40000001 #
66.541930715957747111133357975632 1:0 2:0.40000001 3:0 4:0.2 #
58.246730680906111388139834161848 1:0 2:0.40000001 3:0 4:0 #
-108.37859176230517732619773596525 1:0 2:0.2 3:0.80000001 4:0.80000001 #
-89.624226465666680496724438853562 1:0 2:0.2 3:0.80000001 4:0.60000002 #
-92.509513434380295393566484563053 1:0 2:0.2 3:0.80000001 4:0.40000001 #
-75.919113364277009736724721733481 1:0 2:0.2 3:0.80000001 4:0.2 #
-89.624226465666680496724438853562 1:0 2:0.2 3:0.80000001 4:0 #
-83.85365252823945070304034743458 1:0 2:0.2 3:0.60000002 4:0.80000001 #
-59.328713294173716974455601302907 1:0 2:0.2 3:0.60000002 4:0.60000002 #
-33.361130575751175797449832316488 1:0 2:0.2 3:0.60000002 4:0.40000001 #
-34.803774060107983245870855171233 1:0 2:0.2 3:0.60000002 4:0.2 #
-27.590556638323946003765740897506 1:0 2:0.2 3:0.60000002 4:0 #
-47.787565419319257387087418464944 1:0 2:0.2 3:0.40000001 4:0.80000001 #
-25.426591411788734831134206615388 1:0 2:0.2 3:0.40000001 4:0.60000002 #
40.213687126446011177449690876529 1:0 2:0.2 3:0.40000001 4:0.40000001 #
46.705582806051651800771651323885 1:0 2:0.2 3:0.40000001 4:0.2 #
51.754835001300477870245231315494 1:0 2:0.2 3:0.40000001 4:0 #
-27.590556638323946003765740897506 1:0 2:0.2 3:0.2 4:0.80000001 #
45.98426106387324097113378229551 1:0 2:0.2 3:0.2 4:0.60000002 #
50.672852388032872283929464174435 1:0 2:0.2 3:0.2 4:0.40000001 #
60.771356778530524422876624157652 1:0 2:0.2 3:0.2 4:0.2 #
62.214000262887331871297647012398 1:0 2:0.2 3:0.2 4:0 #
-34.803774060107983245870855171233 1:0 2:0.2 3:0 4:0.80000001 #
58.246730680906111388139834161848 1:0 2:0.2 3:0 4:0.60000002 #
66.541930715957747111133357975632 1:0 2:0.2 3:0 4:0.40000001 #
56.263095889915497593847248936072 1:0 2:0.2 3:0 4:0.2 #
66.541930715957747111133357975632 1:0 2:0.2 3:0 4:0 #
-111.98520047319719594725029310212 1:0 2:0 3:0.80000001 4:0.80000001 #
-108.37859176230517732619773596525 1:0 2:0 3:0.80000001 4:0.60000002 #
-83.85365252823945070304034743458 1:0 2:0 3:0.80000001 4:0.40000001 #
-89.624226465666680496724438853562 1:0 2:0 3:0.80000001 4:0.2 #
-75.919113364277009736724721733481 1:0 2:0 3:0.80000001 4:0 #
-108.37859176230517732619773596525 1:0 2:0 3:0.60000002 4:0.80000001 #
-83.85365252823945070304034743458 1:0 2:0 3:0.60000002 4:0.60000002 #
-47.787565419319257387087418464944 1:0 2:0 3:0.60000002 4:0.40000001 #
-27.590556638323946003765740897506 1:0 2:0 3:0.60000002 4:0.2 #
-34.803774060107983245870855171233 1:0 2:0 3:0.60000002 4:0 #
-83.85365252823945070304034743458 1:0 2:0 3:0.40000001 4:0.80000001 #
-47.787565419319257387087418464944 1:0 2:0 3:0.40000001 4:0.60000002 #
-13.885443536934273467409184377175 1:0 2:0 3:0.40000001 4:0.40000001 #
51.754835001300477870245231315494 1:0 2:0 3:0.40000001 4:0.2 #
58.246730680906111388139834161848 1:0 2:0 3:0.40000001 4:0 #
-89.624226465666680496724438853562 1:0 2:0 3:0.2 4:0.80000001 #
-27.590556638323946003765740897506 1:0 2:0 3:0.2 4:0.60000002 #
51.754835001300477870245231315494 1:0 2:0 3:0.2 4:0.40000001 #
62.214000262887331871297647012398 1:0 2:0 3:0.2 4:0.2 #
66.541930715957747111133357975632 1:0 2:0 3:0.2 4:0 #
-75.919113364277009736724721733481 1:0 2:0 3:0 4:0.80000001 #
-34.803774060107983245870855171233 1:0 2:0 3:0 4:0.60000002 #
58.246730680906111388139834161848 1:0 2:0 3:0 4:0.40000001 #
66.541930715957747111133357975632 1:0 2:0 3:0 4:0.2 #
56.263095889915497593847248936072 1:0 2:0 3:0 4:0 #
-108.19826132676057284243142930791 1:0.80000001 2:0.80000001 3:0.80000001 4:0.80000001 #
-89.263565594577471529191825538874 1:0.80000001 2:0.80000001 3:0.80000001 4:0.60000002 #
-40.935008868624414901660202303901 1:0.80000001 2:0.80000001 3:0.80000001 4:0.40000001 #
24.705269669610331106923695188016 1:0.80000001 2:0.80000001 3:0.80000001 4:0.2 #
75.919113364277009736724721733481 1:0.80000001 2:0.80000001 3:0.80000001 4:0 #
-89.263565594577471529191825538874 1:0.80000001 2:0.80000001 3:0.60000002 4:0.80000001 #
-63.295982876154937457613414153457 1:0.80000001 2:0.80000001 3:0.60000002 4:0.60000002 #
-12.803460923666667881093417236116 1:0.80000001 2:0.80000001 3:0.60000002 4:0.40000001 #
43.459634966248827936396992299706 1:0.80000001 2:0.80000001 3:0.60000002 4:0.2 #
85.296296012596258151461370289326 1:0.80000001 2:0.80000001 3:0.60000002 4:0 #
-40.935008868624414901660202303901 1:0.80000001 2:0.80000001 3:0.40000001 4:0.80000001 #
-12.803460923666667881093417236116 1:0.80000001 2:0.80000001 3:0.40000001 4:0.60000002 #
11.000156568220658570567138667684 1:0.80000001 2:0.80000001 3:0.40000001 4:0.40000001 #
63.656643747244139319718669867143 1:0.80000001 2:0.80000001 3:0.40000001 4:0.2 #
101.16537434052114008409262169152 1:0.80000001 2:0.80000001 3:0.40000001 4:0 #
24.705269669610331106923695188016 1:0.80000001 2:0.80000001 3:0.2 4:0.80000001 #
43.459634966248827936396992299706 1:0.80000001 2:0.80000001 3:0.2 4:0.60000002 #
63.656643747244139319718669867143 1:0.80000001 2:0.80000001 3:0.2 4:0.40000001 #
93.952156918737102841987507417798 1:0.80000001 2:0.80000001 3:0.2 4:0.2 #
108.37859176230517732619773596525 1:0.80000001 2:0.80000001 3:0.2 4:0 #
75.919113364277009736724721733481 1:0.80000001 2:0.80000001 3:0 4:0.80000001 #
85.296296012596258151461370289326 1:0.80000001 2:0.80000001 3:0 4:0.60000002 #
101.16537434052114008409262169152 1:0.80000001 2:0.80000001 3:0 4:0.40000001 #
108.37859176230517732619773596525 1:0.80000001 2:0.80000001 3:0 4:0.2 #
111.98520047319719594725029310212 1:0.80000001 2:0.80000001 3:0 4:0 #
-89.263565594577471529191825538874 1:0.80000001 2:0.60000002 3:0.80000001 4:0.80000001 #
-108.19826132676057284243142930791 1:0.80000001 2:0.60000002 3:0.80000001 4:0.60000002 #
-89.263565594577471529191825538874 1:0.80000001 2:0.60000002 3:0.80000001 4:0.40000001 #
-40.935008868624414901660202303901 1:0.80000001 2:0.60000002 3:0.80000001 4:0.2 #
24.705269669610331106923695188016 1:0.80000001 2:0.60000002 3:0.80000001 4:0 #
-63.295982876154937457613414153457 1:0.80000001 2:0.60000002 3:0.60000002 4:0.80000001 #
-89.263565594577471529191825538874 1:0.80000001 2:0.60000002 3:0.60000002 4:0.60000002 #
-63.295982876154937457613414153457 1:0.80000001 2:0.60000002 3:0.60000002 4:0.40000001 #
-12.803460923666667881093417236116 1:0.80000001 2:0.60000002 3:0.60000002 4:0.2 #
43.459634966248827936396992299706 1:0.80000001 2:0.60000002 3:0.60000002 4:0 #
-12.803460923666667881093417236116 1:0.80000001 2:0.60000002 3:0.40000001 4:0.80000001 #
-40.935008868624414901660202303901 1:0.80000001 2:0.60000002 3:0.40000001 4:0.60000002 #
-12.803460923666667881093417236116 1:0.80000001 2:0.60000002 3:0.40000001 4:0.40000001 #
11.000156568220658570567138667684 1:0.80000001 2:0.60000002 3:0.40000001 4:0.2 #
63.656643747244139319718669867143 1:0.80000001 2:0.60000002 3:0.40000001 4:0 #
43.459634966248827936396992299706 1:0.80000001 2:0.60000002 3:0.2 4:0.80000001 #
24.705269669610331106923695188016 1:0.80000001 2:0.60000002 3:0.2 4:0.60000002 #
43.459634966248827936396992299706 1:0.80000001 2:0.60000002 3:0.2 4:0.40000001 #
63.656643747244139319718669867143 1:0.80000001 2:0.60000002 3:0.2 4:0.2 #
93.952156918737102841987507417798 1:0.80000001 2:0.60000002 3:0.2 4:0 #
85.296296012596258151461370289326 1:0.80000001 2:0.60000002 3:0 4:0.80000001 #
75.919113364277009736724721733481 1:0.80000001 2:0.60000002 3:0 4:0.60000002 #
85.296296012596258151461370289326 1:0.80000001 2:0.60000002 3:0 4:0.40000001 #
101.16537434052114008409262169152 1:0.80000001 2:0.60000002 3:0 4:0.2 #
108.37859176230517732619773596525 1:0.80000001 2:0.60000002 3:0 4:0 #
-40.935008868624414901660202303901 1:0.80000001 2:0.40000001 3:0.80000001 4:0.80000001 #
-89.263565594577471529191825538874 1:0.80000001 2:0.40000001 3:0.80000001 4:0.60000002 #
-108.19826132676057284243142930791 1:0.80000001 2:0.40000001 3:0.80000001 4:0.40000001 #
-89.263565594577471529191825538874 1:0.80000001 2:0.40000001 3:0.80000001 4:0.2 #
-40.935008868624414901660202303901 1:0.80000001 2:0.40000001 3:0.80000001 4:0 #
-12.803460923666667881093417236116 1:0.80000001 2:0.40000001 3:0.60000002 4:0.80000001 #
-63.295982876154937457613414153457 1:0.80000001 2:0.40000001 3:0.60000002 4:0.60000002 #
-89.263565594577471529191825538874 1:0.80000001 2:0.40000001 3:0.60000002 4:0.40000001 #
-63.295982876154937457613414153457 1:0.80000001 2:0.40000001 3:0.60000002 4:0.2 #
-12.803460923666667881093417236116 1:0.80000001 2:0.40000001 3:0.60000002 4:0 #
11.000156568220658570567138667684 1:0.80000001 2:0.40000001 3:0.40000001 4:0.80000001 #
-12.803460923666667881093417236116 1:0.80000001 2:0.40000001 3:0.40000001 4:0.60000002 #
-40.935008868624414901660202303901 1:0.80000001 2:0.40000001 3:0.40000001 4:0.40000001 #
-12.803460923666667881093417236116 1:0.80000001 2:0.40000001 3:0.40000001 4:0.2 #
11.000156568220658570567138667684 1:0.80000001 2:0.40000001 3:0.40000001 4:0 #
63.656643747244139319718669867143 1:0.80000001 2:0.40000001 3:0.2 4:0.80000001 #
43.459634966248827936396992299706 1:0.80000001 2:0.40000001 3:0.2 4:0.60000002 #
24.705269669610331106923695188016 1:0.80000001 2:0.40000001 3:0.2 4:0.40000001 #
43.459634966248827936396992299706 1:0.80000001 2:0.40000001 3:0.2 4:0.2 #
63.656643747244139319718669867143 1:0.80000001 2:0.40000001 3:0.2 4:0 #
101.16537434052114008409262169152 1:0.80000001 2:0.40000001 3:0 4:0.80000001 #
85.296296012596258151461370289326 1:0.80000001 2:0.40000001 3:0 4:0.60000002 #
75.919113364277009736724721733481 1:0.80000001 2:0.40000001 3:0 4:0.40000001 #
85.296296012596258151461370289326 1:0.80000001 2:0.40000001 3:0 4:0.2 #
101.16537434052114008409262169152 1:0.80000001 2:0.40000001 3:0 4:0 #
24.705269669610331106923695188016 1:0.80000001 2:0.2 3:0.80000001 4:0.80000001 #
-40.935008868624414901660202303901 1:0.80000001 2:0.2 3:0.80000001 4:0.60000002 #
-89.263565594577471529191825538874 1:0.80000001 2:0.2 3:0.80000001 4:0.40000001 #
-108.19826132676057284243142930791 1:0.80000001 2:0.2 3:0.80000001 4:0.2 #
-89.263565594577471529191825538874 1:0.80000001 2:0.2 3:0.80000001 4:0 #
43.459634966248827936396992299706 1:0.80000001 2:0.2 3:0.60000002 4:0.80000001 #
-12.803460923666667881093417236116 1:0.80000001 2:0.2 3:0.60000002 4:0.60000002 #
-63.295982876154937457613414153457 1:0.80000001 2:0.2 3:0.60000002 4:0.40000001 #
-89.263565594577471529191825538874 1:0.80000001 2:0.2 3:0.60000002 4:0.2 #
-63.295982876154937457613414153457 1:0.80000001 2:0.2 3:0.60000002 4:0 #
63.656643747244139319718669867143 1:0.80000001 2:0.2 3:0.40000001 4:0.80000001 #
11.000156568220658570567138667684 1:0.80000001 2:0.2 3:0.40000001 4:0.60000002 #
-12.803460923666667881093417236116 1:0.80000001 2:0.2 3:0.40000001 4:0.40000001 #
-40.935008868624414901660202303901 1:0.80000001 2:0.2 3:0.40000001 4:0.2 #
-12.803460923666667881093417236116 1:0.80000001 2:0.2 3:0.40000001 4:0 #
93.952156918737102841987507417798 1:0.80000001 2:0.2 3:0.2 4:0.80000001 #
63.656643747244139319718669867143 1:0.80000001 2:0.2 3:0.2 4:0.60000002 #
43.459634966248827936396992299706 1:0.80000001 2:0.2 3:0.2 4:0.40000001 #
24.705269669610331106923695188016 1:0.80000001 2:0.2 3:0.2 4:0.2 #
43.459634966248827936396992299706 1:0.80000001 2:0.2 3:0.2 4:0 #
108.37859176230517732619773596525 1:0.80000001 2:0.2 3:0 4:0.80000001 #
101.16537434052114008409262169152 1:0.80000001 2:0.2 3:0 4:0.60000002 #
85.296296012596258151461370289326 1:0.80000001 2:0.2 3:0 4:0.40000001 #
75.919113364277009736724721733481 1:0.80000001 2:0.2 3:0 4:0.2 #
85.296296012596258151461370289326 1:0.80000001 2:0.2 3:0 4:0 #
75.919113364277009736724721733481 1:0.80000001 2:0 3:0.80000001 4:0.80000001 #
24.705269669610331106923695188016 1:0.80000001 2:0 3:0.80000001 4:0.60000002 #
-40.935008868624414901660202303901 1:0.80000001 2:0 3:0.80000001 4:0.40000001 #
-89.263565594577471529191825538874 1:0.80000001 2:0 3:0.80000001 4:0.2 #
-108.19826132676057284243142930791 1:0.80000001 2:0 3:0.80000001 4:0 #
85.296296012596258151461370289326 1:0.80000001 2:0 3:0.60000002 4:0.80000001 #
43.459634966248827936396992299706 1:0.80000001 2:0 3:0.60000002 4:0.60000002 #
-12.803460923666667881093417236116 1:0.80000001 2:0 3:0.60000002 4:0.40000001 #
-63.295982876154937457613414153457 1:0.80000001 2:0 3:0.60000002 4:0.2 #
-89.263565594577471529191825538874 1:0.80000001 2:0 3:0.60000002 4:0 #
101.16537434052114008409262169152 1:0.80000001 2:0 3:0.40000001 4:0.80000001 #
63.656643747244139319718669867143 1:0.80000001 2:0 3:0.40000001 4:0.60000002 #
11.000156568220658570567138667684 1:0.80000001 2:0 3:0.40000001 4:0.40000001 #
-12.803460923666667881093417236116 1:0.80000001 2:0 3:0.40000001 4:0.2 #
-40.935008868624414901660202303901 1:0.80000001 2:0 3:0.40000001 4:0 #
108.37859176230517732619773596525 1:0.80000001 2:0 3:0.2 4:0.80000001 #
93.952156918737102841987507417798 1:0.80000001 2:0 3:0.2 4:0.60000002 #
63.656643747244139319718669867143 1:0.80000001 2:0 3:0.2 4:0.40000001 #
43.459634966248827936396992299706 1:0.80000001 2:0 3:0.2 4:0.2 #
24.705269669610331106923695188016 1:0.80000001 2:0 3:0.2 4:0 #
111.98520047319719594725029310212 1:0.80000001 2:0 3:0 4:0.80000001 #
108.37859176230517732619773596525 1:0.80000001 2:0 3:0 4:0.60000002 #
101.16537434052114008409262169152 1:0.80000001 2:0 3:0 4:0.40000001 #
85.296296012596258151461370289326 1:0.80000001 2:0 3:0 4:0.2 #
75.919113364277009736724721733481 1:0.80000001 2:0 3:0 4:0 #
-89.263565594577471529191825538874 1:0.60000002 2:0.80000001 3:0.80000001 4:0.80000001 #
-63.295982876154937457613414153457 1:0.60000002 2:0.80000001 3:0.80000001 4:0.60000002 #
-12.803460923666667881093417236116 1:0.60000002 2:0.80000001 3:0.80000001 4:0.40000001 #
43.459634966248827936396992299706 1:0.60000002 2:0.80000001 3:0.80000001 4:0.2 #
85.296296012596258151461370289326 1:0.60000002 2:0.80000001 3:0.80000001 4:0 #
-108.19826132676057284243142930791 1:0.60000002 2:0.80000001 3:0.60000002 4:0.80000001 #
-89.263565594577471529191825538874 1:0.60000002 2:0.80000001 3:0.60000002 4:0.60000002 #
-40.935008868624414901660202303901 1:0.60000002 2:0.80000001 3:0.60000002 4:0.40000001 #
24.705269669610331106923695188016 1:0.60000002 2:0.80000001 3:0.60000002 4:0.2 #
75.919113364277009736724721733481 1:0.60000002 2:0.80000001 3:0.60000002 4:0 #
-89.263565594577471529191825538874 1:0.60000002 2:0.80000001 3:0.40000001 4:0.80000001 #
-63.295982876154937457613414153457 1:0.60000002 2:0.80000001 3:0.40000001 4:0.60000002 #
-12.803460923666667881093417236116 1:0.60000002 2:0.80000001 3:0.40000001 4:0.40000001 #
43.459634966248827936396992299706 1:0.60000002 2:0.80000001 3:0.40000001 4:0.2 #
85.296296012596258151461370289326 1:0.60000002 2:0.80000001 3:0.40000001 4:0 #
-40.935008868624414901660202303901 1:0.60000002 2:0.80000001 3:0.2 4:0.80000001 #
-12.803460923666667881093417236116 1:0.60000002 2:0.80000001 3:0.2 4:0.60000002 #
11.000156568220658570567138667684 1:0.60000002 2:0.80000001 3:0.2 4:0.40000001 #
63.656643747244139319718669867143 1:0.60000002 2:0.80000001 3:0.2 4:0.2 #
101.16537434052114008409262169152 1:0.60000002 2:0.80000001 3:0.2 4:0 #
24.705269669610331106923695188016 1:0.60000002 2:0.80000001 3:0 4:0.80000001 #
43.459634966248827936396992299706 1:0.60000002 2:0.80000001 3:0 4:0.60000002 #
63.656643747244139319718669867143 1:0.60000002 2:0.80000001 3:0 4:0.40000001 #
93.952156918737102841987507417798 1:0.60000002 2:0.80000001 3:0 4:0.2 #
108.37859176230517732619773596525 1:0.60000002 2:0.80000001 3:0 4:0 #
-63.295982876154937457613414153457 1:0.60000002 2:0.60000002 3:0.80000001 4:0.80000001 #
-89.263565594577471529191825538874 1:0.60000002 2:0.60000002 3:0.80000001 4:0.60000002 #
-63.295982876154937457613414153457 1:0.60000002 2:0.60000002 3:0.80000001 4:0.40000001 #
-12.803460923666667881093417236116 1:0.60000002 2:0.60000002 3:0.80000001 4:0.2 #
43.459634966248827936396992299706 1:0.60000002 2:0.60000002 3:0.80000001 4:0 #
-89.263565594577471529191825538874 1:0.60000002 2:0.60000002 3:0.60000002 4:0.80000001 #
-108.19826132676057284243142930791 1:0.60000002 2:0.60000002 3:0.60000002 4:0.60000002 #
-89.263565594577471529191825538874 1:0.60000002 2:0.60000002 3:0.60000002 4:0.40000001 #
-40.935008868624414901660202303901 1:0.60000002 2:0.60000002 3:0.60000002 4:0.2 #
24.705269669610331106923695188016 1:0.60000002 2:0.60000002 3:0.60000002 4:0 #
-63.295982876154937457613414153457 1:0.60000002 2:0.60000002 3:0.40000001 4:0.80000001 #
-89.263565594577471529191825538874 1:0.60000002 2:0.60000002 3:0.40000001 4:0.60000002 #
-63.295982876154937457613414153457 1:0.60000002 2:0.60000002 3:0.40000001 4:0.40000001 #
-12.803460923666667881093417236116 1:0.60000002 2:0.60000002 3:0.40000001 4:0.2 #
43.459634966248827936396992299706 1:0.60000002 2:0.60000002 3:0.40000001 4:0 #
-12.803460923666667881093417236116 1:0.60000002 2:0.60000002 3:0.2 4:0.80000001 #
-40.935008868624414901660202303901 1:0.60000002 2:0.60000002 3:0.2 4:0.60000002 #
-12.803460923666667881093417236116 1:0.60000002 2:0.60000002 3:0.2 4:0.40000001 #
11.000156568220658570567138667684 1:0.60000002 2:0.60000002 3:0.2 4:0.2 #
63.656643747244139319718669867143 1:0.60000002 2:0.60000002 3:0.2 4:0 #
43.459634966248827936396992299706 1:0.60000002 2:0.60000002 3:0 4:0.80000001 #
24.705269669610331106923695188016 1:0.60000002 2:0.60000002 3:0 4:0.60000002 #
43.459634966248827936396992299706 1:0.60000002 2:0.60000002 3:0 4:0.40000001 #
63.656643747244139319718669867143 1:0.60000002 2:0.60000002 3:0 4:0.2 #
93.952156918737102841987507417798 1:0.60000002 2:0.60000002 3:0 4:0 #
-12.803460923666667881093417236116 1:0.60000002 2:0.40000001 3:0.80000001 4:0.80000001 #
-63.295982876154937457613414153457 1:0.60000002 2:0.40000001 3:0.80000001 4:0.60000002 #
-89.263565594577471529191825538874 1:0.60000002 2:0.40000001 3:0.80000001 4:0.40000001 #
-63.295982876154937457613414153457 1:0.60000002 2:0.40000001 3:0.80000001 4:0.2 #
-12.803460923666667881093417236116 1:0.60000002 2:0.40000001 3:0.80000001 4:0 #
-40.935008868624414901660202303901 1:0.60000002 2:0.40000001 3:0.60000002 4:0.80000001 #
-89.263565594577471529191825538874 1:0.60000002 2:0.40000001 3:0.60000002 4:0.60000002 #
-108.19826132676057284243142930791 1:0.60000002 2:0.40000001 3:0.60000002 4:0.40000001 #
-89.263565594577471529191825538874 1:0.60000002 2:0.40000001 3:0.60000002 4:0.2 #
-40.935008868624414901660202303901 1:0.60000002 2:0.40000001 3:0.60000002 4:0 #
-12.803460923666667881093417236116 1:0.60000002 2:0.40000001 3:0.40000001 4:0.80000001 #
-63.295982876154937457613414153457 1:0.60000002 2:0.40000001 3:0.40000001 4:0.60000002 #
-89.263565594577471529191825538874 1:0.60000002 2:0.40000001 3:0.40000001 4:0.40000001 #
-63.295982876154937457613414153457 1:0.60000002 2:0.40000001 3:0.40000001 4:0.2 #
-12.803460923666667881093417236116 1:0.60000002 2:0.40000001 3:0.40000001 4:0 #
11.000156568220658570567138667684 1:0.60000002 2:0.40000001 3:0.2 4:0.80000001 #
-12.803460923666667881093417236116 1:0.60000002 2:0.40000001 3:0.2 4:0.60000002 #
-40.935008868624414901660202303901 1:0.60000002 2:0.40000001 3:0.2 4:0.40000001 #
-12.803460923666667881093417236116 1:0.60000002 2:0.40000001 3:0.2 4:0.2 #
11.000156568220658570567138667684 1:0.60000002 2:0.40000001 3:0.2 4:0 #
63.656643747244139319718669867143 1:0.60000002 2:0.40000001 3:0 4:0.80000001 #
43.459634966248827936396992299706 1:0.60000002 2:0.40000001 3:0 4:0.60000002 #
24.705269669610331106923695188016 1:0.60000002 2:0.40000001 3:0 4:0.40000001 #
43.459634966248827936396992299706 1:0.60000002 2:0.40000001 3:0 4:0.2 #
63.656643747244139319718669867143 1:0.60000002 2:0.40000001 3:0 4:0 #
43.459634966248827936396992299706 1:0.60000002 2:0.2 3:0.80000001 4:0.80000001 #
-12.803460923666667881093417236116 1:0.60000002 2:0.2 3:0.80000001 4:0.60000002 #
-63.295982876154937457613414153457 1:0.60000002 2:0.2 3:0.80000001 4:0.40000001 #
-89.263565594577471529191825538874 1:0.60000002 2:0.2 3:0.80000001 4:0.2 #
-63.295982876154937457613414153457 1:0.60000002 2:0.2 3:0.80000001 4:0 #
24.705269669610331106923695188016 1:0.60000002 2:0.2 3:0.60000002 4:0.80000001 #
-40.935008868624414901660202303901 1:0.60000002 2:0.2 3:0.60000002 4:0.60000002 #
-89.263565594577471529191825538874 1:0.60000002 2:0.2 3:0.60000002 4:0.40000001 #
-108.19826132676057284243142930791 1:0.60000002 2:0.2 3:0.60000002 4:0.2 #
-89.263565594577471529191825538874 1:0.60000002 2:0.2 3:0.60000002 4:0 #
43.459634966248827936396992299706 1:0.60000002 2:0.2 3:0.40000001 4:0.80000001 #
-12.803460923666667881093417236116 1:0.60000002 2:0.2 3:0.40000001 4:0.60000002 #
-63.295982876154937457613414153457 1:0.60000002 2:0.2 3:0.40000001 4:0.40000001 #
-89.263565594577471529191825538874 1:0.60000002 2:0.2 3:0.40000001 4:0.2 #
-63.295982876154937457613414153457 1:0.60000002 2:0.2 3:0.40000001 4:0 #
63.656643747244139319718669867143 1:0.60000002 2:0.2 3:0.2 4:0.80000001 #
11.000156568220658570567138667684 1:0.60000002 2:0.2 3:0.2 4:0.60000002 #
-12.803460923666667881093417236116 1:0.60000002 2:0.2 3:0.2 4:0.40000001 #
-40.935008868624414901660202303901 1:0.60000002 2:0.2 3:0.2 4:0.2 #
-12.803460923666667881093417236116 1:0.60000002 2:0.2 3:0.2 4:0 #
93.952156918737102841987507417798 1:0.60000002 2:0.2 3:0 4:0.80000001 #
63.656643747244139319718669867143 1:0.60000002 2:0.2 3:0 4:0.60000002 #
43.459634966248827936396992299706 1:0.60000002 2:0.2 3:0 4:0.40000001 #
24.705269669610331106923695188016 1:0.60000002 2:0.2 3:0 4:0.2 #
43.459634966248827936396992299706 1:0.60000002 2:0.2 3:0 4:0 #
85.296296012596258151461370289326 1:0.60000002 2:0 3:0.80000001 4:0.80000001 #
43.459634966248827936396992299706 1:0.60000002 2:0 3:0.80000001 4:0.60000002 #
-12.803460923666667881093417236116 1:0.60000002 2:0 3:0.80000001 4:0.40000001 #
-63.295982876154937457613414153457 1:0.60000002 2:0 3:0.80000001 4:0.2 #
-89.263565594577471529191825538874 1:0.60000002 2:0 3:0.80000001 4:0 #
75.919113364277009736724721733481 1:0.60000002 2:0 3:0.60000002 4:0.80000001 #
24.705269669610331106923695188016 1:0.60000002 2:0 3:0.60000002 4:0.60000002 #
-40.935008868624414901660202303901 1:0.60000002 2:0 3:0.60000002 4:0.40000001 #
-89.263565594577471529191825538874 1:0.60000002 2:0 3:0.60000002 4:0.2 #
-108.19826132676057284243142930791 1:0.60000002 2:0 3:0.60000002 4:0 #
85.296296012596258151461370289326 1:0.60000002 2:0 3:0.40000001 4:0.80000001 #
43.459634966248827936396992299706 1:0.60000002 2:0 3:0.40000001 4:0.60000002 #
-12.803460923666667881093417236116 1:0.60000002 2:0 3:0.40000001 4:0.40000001 #
-63.295982876154937457613414153457 1:0.60000002 2:0 3:0.40000001 4:0.2 #
-89.263565594577471529191825538874 1:0.60000002 2:0 3:0.40000001 4:0 #
101.16537434052114008409262169152 1:0.60000002 2:0 3:0.2 4:0.80000001 #
63.656643747244139319718669867143 1:0.60000002 2:0 3:0.2 4:0.60000002 #
11.000156568220658570567138667684 1:0.60000002 2:0 3:0.2 4:0.40000001 #
-12.803460923666667881093417236116 1:0.60000002 2:0 3:0.2 4:0.2 #
-40.935008868624414901660202303901 1:0.60000002 2:0 3:0.2 4:0 #
108.37859176230517732619773596525 1:0.60000002 2:0 3:0 4:0.80000001 #
93.952156918737102841987507417798 1:0.60000002 2:0 3:0 4:0.60000002 #
63.656643747244139319718669867143 1:0.60000002 2:0 3:0 4:0.40000001 #
43.459634966248827936396992299706 1:0.60000002 2:0 3:0 4:0.2 #
24.705269669610331106923695188016 1:0.60000002 2:0 3:0 4:0 #
-40.935008868624414901660202303901 1:0.40000001 2:0.80000001 3:0.80000001 4:0.80000001 #
-12.803460923666667881093417236116 1:0.40000001 2:0.80000001 3:0.80000001 4:0.60000002 #
11.000156568220658570567138667684 1:0.40000001 2:0.80000001 3:0.80000001 4:0.40000001 #
63.656643747244139319718669867143 1:0.40000001 2:0.80000001 3:0.80000001 4:0.2 #
101.16537434052114008409262169152 1:0.40000001 2:0.80000001 3:0.80000001 4:0 #
-89.263565594577471529191825538874 1:0.40000001 2:0.80000001 3:0.60000002 4:0.80000001 #
-63.295982876154937457613414153457 1:0.40000001 2:0.80000001 3:0.60000002 4:0.60000002 #
-12.803460923666667881093417236116 1:0.40000001 2:0.80000001 3:0.60000002 4:0.40000001 #
43.459634966248827936396992299706 1:0.40000001 2:0.80000001 3:0.60000002 4:0.2 #
85.296296012596258151461370289326 1:0.40000001 2:0.80000001 3:0.60000002 4:0 #
-108.19826132676057284243142930791 1:0.40000001 2:0.80000001 3:0.40000001 4:0.80000001 #
-89.263565594577471529191825538874 1:0.40000001 2:0.80000001 3:0.40000001 4:0.60000002 #
-40.935008868624414901660202303901 1:0.40000001 2:0.80000001 3:0.40000001 4:0.40000001 #
24.705269669610331106923695188016 1:0.40000001 2:0.80000001 3:0.40000001 4:0.2 #
75.919113364277009736724721733481 1:0.40000001 2:0.80000001 3:0.40000001 4:0 #
-89.263565594577471529191825538874 1:0.40000001 2:0.80000001 3:0.2 4:0.80000001 #
-63.295982876154937457613414153457 1:0.40000001 2:0.80000001 3:0.2 4:0.60000002 #
-12.803460923666667881093417236116 1:0.40000001 2:0.80000001 3:0.2 4:0.40000001 #
43.459634966248827936396992299706 1:0.40000001 2:0.80000001 3:0.2 4:0.2 #
85.296296012596258151461370289326 1:0.40000001 2:0.80000001 3:0.2 4:0 #
-40.935008868624414901660202303901 1:0.40000001 2:0.80000001 3:0 4:0.80000001 #
-12.803460923666667881093417236116 1:0.40000001 2:0.80000001 3:0 4:0.60000002 #
11.000156568220658570567138667684 1:0.40000001 2:0.80000001 3:0 4:0.40000001 #
63.656643747244139319718669867143 1:0.40000001 2:0.80000001 3:0 4:0.2 #
101.16537434052114008409262169152 1:0.40000001 2:0.80000001 3:0 4:0 #
-12.803460923666667881093417236116 1:0.40000001 2:0.60000002 3:0.80000001 4:0.80000001 #
-40.935008868624414901660202303901 1:0.40000001 2:0.60000002 3:0.80000001 4:0.60000002 #
-12.803460923666667881093417236116 1:0.40000001 2:0.60000002 3:0.80000001 4:0.40000001 #
11.000156568220658570567138667684 1:0.40000001 2:0.60000002 3:0.80000001 4:0.2 #
63.656643747244139319718669867143 1:0.40000001 2:0.60000002 3:0.80000001 4:0 #
-63.295982876154937457613414153457 1:0.40000001 2:0.60000002 3:0.60000002 4:0.80000001 #
-89.263565594577471529191825538874 1:0.40000001 2:0.60000002 3:0.60000002 4:0.60000002 #
-63.295982876154937457613414153457 1:0.40000001 2:0.60000002 3:0.60000002 4:0.40000001 #
-12.803460923666667881093417236116 1:0.40000001 2:0.60000002 3:0.60000002 4:0.2 #
43.459634966248827936396992299706 1:0.40000001 2:0.60000002 3:0.60000002 4:0 #
-89.263565594577471529191825538874 1:0.40000001 2:0.60000002 3:0.40000001 4:0.80000001 #
-108.19826132676057284243142930791 1:0.40000001 2:0.60000002 3:0.40000001 4:0.60000002 #
-89.263565594577471529191825538874 1:0.40000001 2:0.60000002 3:0.40000001 4:0.40000001 #
-40.935008868624414901660202303901 1:0.40000001 2:0.60000002 3:0.40000001 4:0.2 #
24.705269669610331106923695188016 1:0.40000001 2:0.60000002 3:0.40000001 4:0 #
-63.295982876154937457613414153457 1:0.40000001 2:0.60000002 3:0.2 4:0.80000001 #
-89.263565594577471529191825538874 1:0.40000001 2:0.60000002 3:0.2 4:0.60000002 #
-63.295982876154937457613414153457 1:0.40000001 2:0.60000002 3:0.2 4:0.40000001 #
-12.803460923666667881093417236116 1:0.40000001 2:0.60000002 3:0.2 4:0.2 #
43.459634966248827936396992299706 1:0.40000001 2:0.60000002 3:0.2 4:0 #
-12.803460923666667881093417236116 1:0.40000001 2:0.60000002 3:0 4:0.80000001 #
-40.935008868624414901660202303901 1:0.40000001 2:0.60000002 3:0 4:0.60000002 #
-12.803460923666667881093417236116 1:0.40000001 2:0.60000002 3:0 4:0.40000001 #
11.000156568220658570567138667684 1:0.40000001 2:0.60000002 3:0 4:0.2 #
63.656643747244139319718669867143 1:0.40000001 2:0.60000002 3:0 4:0 #
11.000156568220658570567138667684 1:0.40000001 2:0.40000001 3:0.80000001 4:0.80000001 #
-12.803460923666667881093417236116 1:0.40000001 2:0.40000001 3:0.80000001 4:0.60000002 #
-40.935008868624414901660202303901 1:0.40000001 2:0.40000001 3:0.80000001 4:0.40000001 #
-12.803460923666667881093417236116 1:0.40000001 2:0.40000001 3:0.80000001 4:0.2 #
11.000156568220658570567138667684 1:0.40000001 2:0.40000001 3:0.80000001 4:0 #
-12.803460923666667881093417236116 1:0.40000001 2:0.40000001 3:0.60000002 4:0.80000001 #
-63.295982876154937457613414153457 1:0.40000001 2:0.40000001 3:0.60000002 4:0.60000002 #
-89.263565594577471529191825538874 1:0.40000001 2:0.40000001 3:0.60000002 4:0.40000001 #
-63.295982876154937457613414153457 1:0.40000001 2:0.40000001 3:0.60000002 4:0.2 #
-12.803460923666667881093417236116 1:0.40000001 2:0.40000001 3:0.60000002 4:0 #
-40.935008868624414901660202303901 1:0.40000001 2:0.40000001 3:0.40000001 4:0.80000001 #
-89.263565594577471529191825538874 1:0.40000001 2:0.40000001 3:0.40000001 4:0.60000002 #
-108.19826132676057284243142930791 1:0.40000001 2:0.40000001 3:0.40000001 4:0.40000001 #
-89.263565594577471529191825538874 1:0.40000001 2:0.40000001 3:0.40000001 4:0.2 #
-40.935008868624414901660202303901 1:0.40000001 2:0.40000001 3:0.40000001 4:0 #
-12.803460923666667881093417236116 1:0.40000001 2:0.40000001 3:0.2 4:0.80000001 #
-63.295982876154937457613414153457 1:0.40000001 2:0.40000001 3:0.2 4:0.60000002 #
-89.263565594577471529191825538874 1:0.40000001 2:0.40000001 3:0.2 4:0.40000001 #
-63.295982876154937457613414153457 1:0.40000001 2:0.40000001 3:0.2 4:0.2 #
-12.803460923666667881093417236116 1:0.40000001 2:0.40000001 3:0.2 4:0 #
11.000156568220658570567138667684 1:0.40000001 2:0.40000001 3:0 4:0.80000001 #
-12.803460923666667881093417236116 1:0.40000001 2:0.40000001 3:0 4:0.60000002 #
-40.935008868624414901660202303901 1:0.40000001 2:0.40000001 3:0 4:0.40000001 #
-12.803460923666667881093417236116 1:0.40000001 2:0.40000001 3:0 4:0.2 #
11.000156568220658570567138667684 1:0.40000001 2:0.40000001 3:0 4:0 #
63.656643747244139319718669867143 1:0.40000001 2:0.2 3:0.80000001 4:0.80000001 #
11.000156568220658570567138667684 1:0.40000001 2:0.2 3:0.80000001 4:0.60000002 #
-12.803460923666667881093417236116 1:0.40000001 2:0.2 3:0.80000001 4:0.40000001 #
-40.935008868624414901660202303901 1:0.40000001 2:0.2 3:0.80000001 4:0.2 #
-12.803460923666667881093417236116 1:0.40000001 2:0.2 3:0.80000001 4:0 #
43.459634966248827936396992299706 1:0.40000001 2:0.2 3:0.60000002 4:0.80000001 #
-12.803460923666667881093417236116 1:0.40000001 2:0.2 3:0.60000002 4:0.60000002 #
-63.295982876154937457613414153457 1:0.40000001 2:0.2 3:0.60000002 4:0.40000001 #
-89.263565594577471529191825538874 1:0.40000001 2:0.2 3:0.60000002 4:0.2 #
-63.295982876154937457613414153457 1:0.40000001 2:0.2 3:0.60000002 4:0 #
24.705269669610331106923695188016 1:0.40000001 2:0.2 3:0.40000001 4:0.80000001 #
-40.935008868624414901660202303901 1:0.40000001 2:0.2 3:0.40000001 4:0.60000002 #
-89.263565594577471529191825538874 1:0.40000001 2:0.2 3:0.40000001 4:0.40000001 #
-108.19826132676057284243142930791 1:0.40000001 2:0.2 3:0.40000001 4:0.2 #
-89.263565594577471529191825538874 1:0.40000001 2:0.2 3:0.40000001 4:0 #
43.459634966248827936396992299706 1:0.40000001 2:0.2 3:0.2 4:0.80000001 #
-12.803460923666667881093417236116 1:0.40000001 2:0.2 3:0.2 4:0.60000002 #
-63.295982876154937457613414153457 1:0.40000001 2:0.2 3:0.2 4:0.40000001 #
-89.263565594577471529191825538874 1:0.40000001 2:0.2 3:0.2 4:0.2 #
-63.295982876154937457613414153457 1:0.40000001 2:0.2 3:0.2 4:0 #
63.656643747244139319718669867143 1:0.40000001 2:0.2 3:0 4:0.80000001 #
11.000156568220658570567138667684 1:0.40000001 2:0.2 3:0 4:0.60000002 #
-12.803460923666667881093417236116 1:0.40000001 2:0.2 3:0 4:0.40000001 #
-40.935008868624414901660202303901 1:0.40000001 2:0.2 3:0 4:0.2 #
-12.803460923666667881093417236116 1:0.40000001 2:0.2 3:0 4:0 #
101.16537434052114008409262169152 1:0.40000001 2:0 3:0.80000001 4:0.80000001 #
63.656643747244139319718669867143 1:0.40000001 2:0 3:0.80000001 4:0.60000002 #
11.000156568220658570567138667684 1:0.40000001 2:0 3:0.80000001 4:0.40000001 #
-12.803460923666667881093417236116 1:0.40000001 2:0 3:0.80000001 4:0.2 #
-40.935008868624414901660202303901 1:0.40000001 2:0 3:0.80000001 4:0 #
85.296296012596258151461370289326 1:0.40000001 2:0 3:0.60000002 4:0.80000001 #
43.459634966248827936396992299706 1:0.40000001 2:0 3:0.60000002 4:0.60000002 #
-12.803460923666667881093417236116 1:0.40000001 2:0 3:0.60000002 4:0.40000001 #
-63.295982876154937457613414153457 1:0.40000001 2:0 3:0.60000002 4:0.2 #
-89.263565594577471529191825538874 1:0.40000001 2:0 3:0.60000002 4:0 #
75.919113364277009736724721733481 1:0.40000001 2:0 3:0.40000001 4:0.80000001 #
24.705269669610331106923695188016 1:0.40000001 2:0 3:0.40000001 4:0.60000002 #
-40.935008868624414901660202303901 1:0.40000001 2:0 3:0.40000001 4:0.40000001 #
-89.263565594577471529191825538874 1:0.40000001 2:0 3:0.40000001 4:0.2 #
-108.19826132676057284243142930791 1:0.40000001 2:0 3:0.40000001 4:0 #
85.296296012596258151461370289326 1:0.40000001 2:0 3:0.2 4:0.80000001 #
43.459634966248827936396992299706 1:0.40000001 2:0 3:0.2 4:0.60000002 #
-12.803460923666667881093417236116 1:0.40000001 2:0 3:0.2 4:0.40000001 #
-63.295982876154937457613414153457 1:0.40000001 2:0 3:0.2 4:0.2 #
-89.263565594577471529191825538874 1:0.40000001 2:0 3:0.2 4:0 #
101.16537434052114008409262169152 1:0.40000001 2:0 3:0 4:0.80000001 #
63.656643747244139319718669867143 1:0.40000001 2:0 3:0 4:0.60000002 #
11.000156568220658570567138667684 1:0.40000001 2:0 3:0 4:0.40000001 #
-12.803460923666667881093417236116 1:0.40000001 2:0 3:0 4:0.2 #
-40.935008868624414901660202303901 1:0.40000001 2:0 3:0 4:0 #
24.705269669610331106923695188016 1:0.2 2:0.80000001 3:0.80000001 4:0.80000001 #
43.459634966248827936396992299706 1:0.2 2:0.80000001 3:0.80000001 4:0.60000002 #
63.656643747244139319718669867143 1:0.2 2:0.80000001 3:0.80000001 4:0.40000001 #
93.952156918737102841987507417798 1:0.2 2:0.80000001 3:0.80000001 4:0.2 #
108.37859176230517732619773596525 1:0.2 2:0.80000001 3:0.80000001 4:0 #
-40.935008868624414901660202303901 1:0.2 2:0.80000001 3:0.60000002 4:0.80000001 #
-12.803460923666667881093417236116 1:0.2 2:0.80000001 3:0.60000002 4:0.60000002 #
11.000156568220658570567138667684 1:0.2 2:0.80000001 3:0.60000002 4:0.40000001 #
63.656643747244139319718669867143 1:0.2 2:0.80000001 3:0.60000002 4:0.2 #
101.16537434052114008409262169152 1:0.2 2:0.80000001 3:0.60000002 4:0 #
-89.263565594577471529191825538874 1:0.2 2:0.80000001 3:0.40000001 4:0.80000001 #
-63.295982876154937457613414153457 1:0.2 2:0.80000001 3:0.40000001 4:0.60000002 #
-12.803460923666667881093417236116 1:0.2 2:0.80000001 3:0.40000001 4:0.40000001 #
43.459634966248827936396992299706 1:0.2 2:0.80000001 3:0.40000001 4:0.2 #
85.296296012596258151461370289326 1:0.2 2:0.80000001 3:0.40000001 4:0 #
-108.19826132676057284243142930791 1:0.2 2:0.80000001 3:0.2 4:0.80000001 #
-89.263565594577471529191825538874 1:0.2 2:0.80000001 3:0.2 4:0.60000002 #
-40.935008868624414901660202303901 1:0.2 2:0.80000001 3:0.2 4:0.40000001 #
24.705269669610331106923695188016 1:0.2 2:0.80000001 3:0.2 4:0.2 #
75.919113364277009736724721733481 1:0.2 2:0.80000001 3:0.2 4:0 #
-89.263565594577471529191825538874 1:0.2 2:0.80000001 3:0 4:0.80000001 #
-63.295982876154937457613414153457 1:0.2 2:0.80000001 3:0 4:0.60000002 #
-12.803460923666667881093417236116 1:0.2 2:0.80000001 3:0 4:0.40000001 #
43.459634966248827936396992299706 1:0.2 2:0.80000001 3:0 4:0.2 #
85.296296012596258151461370289326 1:0.2 2:0.80000001 3:0 4:0 #
43.459634966248827936396992299706 1:0.2 2:0.60000002 3:0.80000001 4:0.80000001 #
24.705269669610331106923695188016 1:0.2 2:0.60000002 3:0.80000001 4:0.60000002 #
43.459634966248827936396992299706 1:0.2 2:0.60000002 3:0.80000001 4:0.40000001 #
63.656643747244139319718669867143 1:0.2 2:0.60000002 3:0.80000001 4:0.2 #
93.952156918737102841987507417798 1:0.2 2:0.60000002 3:0.80000001 4:0 #
-12.803460923666667881093417236116 1:0.2 2:0.60000002 3:0.60000002 4:0.80000001 #
-40.935008868624414901660202303901 1:0.2 2:0.60000002 3:0.60000002 4:0.60000002 #
-12.803460923666667881093417236116 1:0.2 2:0.60000002 3:0.60000002 4:0.40000001 #
11.000156568220658570567138667684 1:0.2 2:0.60000002 3:0.60000002 4:0.2 #
63.656643747244139319718669867143 1:0.2 2:0.60000002 3:0.60000002 4:0 #
-63.295982876154937457613414153457 1:0.2 2:0.60000002 3:0.40000001 4:0.80000001 #
-89.263565594577471529191825538874 1:0.2 2:0.60000002 3:0.40000001 4:0.60000002 #
-63.295982876154937457613414153457 1:0.2 2:0.60000002 3:0.40000001 4:0.40000001 #
-12.803460923666667881093417236116 1:0.2 2:0.60000002 3:0.40000001 4:0.2 #
43.459634966248827936396992299706 1:0.2 2:0.60000002 3:0.40000001 4:0 #
-89.263565594577471529191825538874 1:0.2 2:0.60000002 3:0.2 4:0.80000001 #
-108.19826132676057284243142930791 1:0.2 2:0.60000002 3:0.2 4:0.60000002 #
-89.263565594577471529191825538874 1:0.2 2:0.60000002 3:0.2 4:0.40000001 #
-40.935008868624414901660202303901 1:0.2 2:0.60000002 3:0.2 4:0.2 #
24.705269669610331106923695188016 1:0.2 2:0.60000002 3:0.2 4:0 #
-63.295982876154937457613414153457 1:0.2 2:0.60000002 3:0 4:0.80000001 #
-89.263565594577471529191825538874 1:0.2 2:0.60000002 3:0 4:0.60000002 #
-63.295982876154937457613414153457 1:0.2 2:0.60000002 3:0 4:0.40000001 #
-12.803460923666667881093417236116 1:0.2 2:0.60000002 3:0 4:0.2 #
43.459634966248827936396992299706 1:0.2 2:0.60000002 3:0 4:0 #
63.656643747244139319718669867143 1:0.2 2:0.40000001 3:0.80000001 4:0.80000001 #
43.459634966248827936396992299706 1:0.2 2:0.40000001 3:0.80000001 4:0.60000002 #
24.705269669610331106923695188016 1:0.2 2:0.40000001 3:0.80000001 4:0.40000001 #
43.459634966248827936396992299706 1:0.2 2:0.40000001 3:0.80000001 4:0.2 #
63.656643747244139319718669867143 1:0.2 2:0.40000001 3:0.80000001 4:0 #
11.000156568220658570567138667684 1:0.2 2:0.40000001 3:0.60000002 4:0.80000001 #
-12.803460923666667881093417236116 1:0.2 2:0.40000001 3:0.60000002 4:0.60000002 #
-40.935008868624414901660202303901 1:0.2 2:0.40000001 3:0.60000002 4:0.40000001 #
-12.803460923666667881093417236116 1:0.2 2:0.40000001 3:0.60000002 4:0.2 #
11.000156568220658570567138667684 1:0.2 2:0.40000001 3:0.60000002 4:0 #
-12.803460923666667881093417236116 1:0.2 2:0.40000001 3:0.40000001 4:0.80000001 #
-63.295982876154937457613414153457 1:0.2 2:0.40000001 3:0.40000001 4:0.60000002 #
-89.263565594577471529191825538874 1:0.2 2:0.40000001 3:0.40000001 4:0.40000001 #
-63.295982876154937457613414153457 1:0.2 2:0.40000001 3:0.40000001 4:0.2 #
-12.803460923666667881093417236116 1:0.2 2:0.40000001 3:0.40000001 4:0 #
-40.935008868624414901660202303901 1:0.2 2:0.40000001 3:0.2 4:0.80000001 #
-89.263565594577471529191825538874 1:0.2 2:0.40000001 3:0.2 4:0.60000002 #
-108.19826132676057284243142930791 1:0.2 2:0.40000001 3:0.2 4:0.40000001 #
-89.263565594577471529191825538874 1:0.2 2:0.40000001 3:0.2 4:0.2 #
-40.935008868624414901660202303901 1:0.2 2:0.40000001 3:0.2 4:0 #
-12.803460923666667881093417236116 1:0.2 2:0.40000001 3:0 4:0.80000001 #
-63.295982876154937457613414153457 1:0.2 2:0.40000001 3:0 4:0.60000002 #
-89.263565594577471529191825538874 1:0.2 2:0.40000001 3:0 4:0.40000001 #
-63.295982876154937457613414153457 1:0.2 2:0.40000001 3:0 4:0.2 #
-12.803460923666667881093417236116 1:0.2 2:0.40000001 3:0 4:0 #
93.952156918737102841987507417798 1:0.2 2:0.2 3:0.80000001 4:0.80000001 #
63.656643747244139319718669867143 1:0.2 2:0.2 3:0.80000001 4:0.60000002 #
43.459634966248827936396992299706 1:0.2 2:0.2 3:0.80000001 4:0.40000001 #
24.705269669610331106923695188016 1:0.2 2:0.2 3:0.80000001 4:0.2 #
43.459634966248827936396992299706 1:0.2 2:0.2 3:0.80000001 4:0 #
63.656643747244139319718669867143 1:0.2 2:0.2 3:0.60000002 4:0.80000001 #
11.000156568220658570567138667684 1:0.2 2:0.2 3:0.60000002 4:0.60000002 #
-12.803460923666667881093417236116 1:0.2 2:0.2 3:0.60000002 4:0.40000001 #
-40.935008868624414901660202303901 1:0.2 2:0.2 3:0.60000002 4:0.2 #
-12.803460923666667881093417236116 1:0.2 2:0.2 3:0.60000002 4:0 #
43.459634966248827936396992299706 1:0.2 2:0.2 3:0.40000001 4:0.80000001 #
-12.803460923666667881093417236116 1:0.2 2:0.2 3:0.40000001 4:0.60000002 #
-63.295982876154937457613414153457 1:0.2 2:0.2 3:0.40000001 4:0.40000001 #
-89.263565594577471529191825538874 1:0.2 2:0.2 3:0.40000001 4:0.2 #
-63.295982876154937457613414153457 1:0.2 2:0.2 3:0.40000001 4:0 #
24.705269669610331106923695188016 1:0.2 2:0.2 3:0.2 4:0.80000001 #
-40.935008868624414901660202303901 1:0.2 2:0.2 3:0.2 4:0.60000002 #
-89.263565594577471529191825538874 1:0.2 2:0.2 3:0.2 4:0.40000001 #
-108.19826132676057284243142930791 1:0.2 2:0.2 3:0.2 4:0.2 #
-89.263565594577471529191825538874 1:0.2 2:0.2 3:0.2 4:0 #
43.459634966248827936396992299706 1:0.2 2:0.2 3:0 4:0.80000001 #
-12.803460923666667881093417236116 1:0.2 2:0.2 3:0 4:0.60000002 #
-63.295982876154937457613414153457 1:0.2 2:0.2 3:0 4:0.40000001 #
-89.263565594577471529191825538874 1:0.2 2:0.2 3:0 4:0.2 #
-63.295982876154937457613414153457 1:0.2 2:0.2 3:0 4:0 #
108.37859176230517732619773596525 1:0.2 2:0 3:0.80000001 4:0.80000001 #
93.952156918737102841987507417798 1:0.2 2:0 3:0.80000001 4:0.60000002 #
63.656643747244139319718669867143 1:0.2 2:0 3:0.80000001 4:0.40000001 #
43.459634966248827936396992299706 1:0.2 2:0 3:0.80000001 4:0.2 #
24.705269669610331106923695188016 1:0.2 2:0 3:0.80000001 4:0 #
101.16537434052114008409262169152 1:0.2 2:0 3:0.60000002 4:0.80000001 #
63.656643747244139319718669867143 1:0.2 2:0 3:0.60000002 4:0.60000002 #
11.000156568220658570567138667684 1:0.2 2:0 3:0.60000002 4:0.40000001 #
-12.803460923666667881093417236116 1:0.2 2:0 3:0.60000002 4:0.2 #
-40.935008868624414901660202303901 1:0.2 2:0 3:0.60000002 4:0 #
85.296296012596258151461370289326 1:0.2 2:0 3:0.40000001 4:0.80000001 #
43.459634966248827936396992299706 1:0.2 2:0 3:0.40000001 4:0.60000002 #
-12.803460923666667881093417236116 1:0.2 2:0 3:0.40000001 4:0.40000001 #
-63.295982876154937457613414153457 1:0.2 2:0 3:0.40000001 4:0.2 #
-89.263565594577471529191825538874 1:0.2 2:0 3:0.40000001 4:0 #
75.919113364277009736724721733481 1:0.2 2:0 3:0.2 4:0.80000001 #
24.705269669610331106923695188016 1:0.2 2:0 3:0.2 4:0.60000002 #
-40.935008868624414901660202303901 1:0.2 2:0 3:0.2 4:0.40000001 #
-89.263565594577471529191825538874 1:0.2 2:0 3:0.2 4:0.2 #
-108.19826132676057284243142930791 1:0.2 2:0 3:0.2 4:0 #
85.296296012596258151461370289326 1:0.2 2:0 3:0 4:0.80000001 #
43.459634966248827936396992299706 1:0.2 2:0 3:0 4:0.60000002 #
-12.803460923666667881093417236116 1:0.2 2:0 3:0 4:0.40000001 #
-63.295982876154937457613414153457 1:0.2 2:0 3:0 4:0.2 #
-89.263565594577471529191825538874 1:0.2 2:0 3:0 4:0 #
75.919113364277009736724721733481 1:0 2:0.80000001 3:0.80000001 4:0.80000001 #
85.296296012596258151461370289326 1:0 2:0.80000001 3:0.80000001 4:0.60000002 #
101.16537434052114008409262169152 1:0 2:0.80000001 3:0.80000001 4:0.40000001 #
108.37859176230517732619773596525 1:0 2:0.80000001 3:0.80000001 4:0.2 #
111.98520047319719594725029310212 1:0 2:0.80000001 3:0.80000001 4:0 #
24.705269669610331106923695188016 1:0 2:0.80000001 3:0.60000002 4:0.80000001 #
43.459634966248827936396992299706 1:0 2:0.80000001 3:0.60000002 4:0.60000002 #
63.656643747244139319718669867143 1:0 2:0.80000001 3:0.60000002 4:0.40000001 #
93.952156918737102841987507417798 1:0 2:0.80000001 3:0.60000002 4:0.2 #
108.37859176230517732619773596525 1:0 2:0.80000001 3:0.60000002 4:0 #
-40.935008868624414901660202303901 1:0 2:0.80000001 3:0.40000001 4:0.80000001 #
-12.803460923666667881093417236116 1:0 2:0.80000001 3:0.40000001 4:0.60000002 #
11.000156568220658570567138667684 1:0 2:0.80000001 3:0.40000001 4:0.40000001 #
63.656643747244139319718669867143 1:0 2:0.80000001 3:0.40000001 4:0.2 #
101.16537434052114008409262169152 1:0 2:0.80000001 3:0.40000001 4:0 #
-89.263565594577471529191825538874 1:0 2:0.80000001 3:0.2 4:0.80000001 #
-63.295982876154937457613414153457 1:0 2:0.80000001 3:0.2 4:0.60000002 #
-12.803460923666667881093417236116 1:0 2:0.80000001 3:0.2 4:0.40000001 #
43.459634966248827936396992299706 1:0 2:0.80000001 3:0.2 4:0.2 #
85.296296012596258151461370289326 1:0 2:0.80000001 3:0.2 4:0 #
-108.19826132676057284243142930791 1:0 2:0.80000001 3:0 4:0.80000001 #
-89.263565594577471529191825538874 1:0 2:0.80000001 3:0 4:0.60000002 #
-40.935008868624414901660202303901 1:0 2:0.80000001 3:0 4:0.40000001 #
24.705269669610331106923695188016 1:0 2:0.80000001 3:0 4:0.2 #
75.919113364277009736724721733481 1:0 2:0.80000001 3:0 4:0 #
85.296296012596258151461370289326 1:0 2:0.60000002 3:0.80000001 4:0.80000001 #
75.919113364277009736724721733481 1:0 2:0.60000002 3:0.80000001 4:0.60000002 #
85.296296012596258151461370289326 1:0 2:0.60000002 3:0.80000001 4:0.40000001 #
101.16537434052114008409262169152 1:0 2:0.60000002 3:0.80000001 4:0.2 #
108.37859176230517732619773596525 1:0 2:0.60000002 3:0.80000001 4:0 #
43.459634966248827936396992299706 1:0 2:0.60000002 3:0.60000002 4:0.80000001 #
24.705269669610331106923695188016 1:0 2:0.60000002 3:0.60000002 4:0.60000002 #
43.459634966248827936396992299706 1:0 2:0.60000002 3:0.60000002 4:0.40000001 #
63.656643747244139319718669867143 1:0 2:0.60000002 3:0.60000002 4:0.2 #
93.952156918737102841987507417798 1:0 2:0.60000002 3:0.60000002 4:0 #
-12.803460923666667881093417236116 1:0 2:0.60000002 3:0.40000001 4:0.80000001 #
-40.935008868624414901660202303901 1:0 2:0.60000002 3:0.40000001 4:0.60000002 #
-12.803460923666667881093417236116 1:0 2:0.60000002 3:0.40000001 4:0.40000001 #
11.000156568220658570567138667684 1:0 2:0.60000002 3:0.40000001 4:0.2 #
63.656643747244139319718669867143 1:0 2:0.60000002 3:0.40000001 4:0 #
-63.295982876154937457613414153457 1:0 2:0.60000002 3:0.2 4:0.80000001 #
-89.263565594577471529191825538874 1:0 2:0.60000002 3:0.2 4:0.60000002 #
-63.295982876154937457613414153457 1:0 2:0.60000002 3:0.2 4:0.40000001 #
-12.803460923666667881093417236116 1:0 2:0.60000002 3:0.2 4:0.2 #
43.459634966248827936396992299706 1:0 2:0.60000002 3:0.2 4:0 #
-89.263565594577471529191825538874 1:0 2:0.60000002 3:0 4:0.80000001 #
-108.19826132676057284243142930791 1:0 2:0.60000002 3:0 4:0.60000002 #
-89.263565594577471529191825538874 1:0 2:0.60000002 3:0 4:0.40000001 #
-40.935008868624414901660202303901 1:0 2:0.60000002 3:0 4:0.2 #
24.705269669610331106923695188016 1:0 2:0.60000002 3:0 4:0 #
101.16537434052114008409262169152 1:0 2:0.40000001 3:0.80000001 4:0.80000001 #
85.296296012596258151461370289326 1:0 2:0.40000001 3:0.80000001 4:0.60000002 #
75.919113364277009736724721733481 1:0 2:0.40000001 3:0.80000001 4:0.40000001 #
85.296296012596258151461370289326 1:0 2:0.40000001 3:0.80000001 4:0.2 #
101.16537434052114008409262169152 1:0 2:0.40000001 3:0.80000001 4:0 #
63.656643747244139319718669867143 1:0 2:0.40000001 3:0.60000002 4:0.80000001 #
43.459634966248827936396992299706 1:0 2:0.40000001 3:0.60000002 4:0.60000002 #
24.705269669610331106923695188016 1:0 2:0.40000001 3:0.60000002 4:0.40000001 #
43.459634966248827936396992299706 1:0 2:0.40000001 3:0.60000002 4:0.2 #
63.656643747244139319718669867143 1:0 2:0.40000001 3:0.60000002 4:0 #
11.000156568220658570567138667684 1:0 2:0.40000001 3:0.40000001 4:0.80000001 #
-12.803460923666667881093417236116 1:0 2:0.40000001 3:0.40000001 4:0.60000002 #
-40.935008868624414901660202303901 1:0 2:0.40000001 3:0.40000001 4:0.40000001 #
-12.803460923666667881093417236116 1:0 2:0.40000001 3:0.40000001 4:0.2 #
11.000156568220658570567138667684 1:0 2:0.40000001 3:0.40000001 4:0 #
-12.803460923666667881093417236116 1:0 2:0.40000001 3:0.2 4:0.80000001 #
-63.295982876154937457613414153457 1:0 2:0.40000001 3:0.2 4:0.60000002 #
-89.263565594577471529191825538874 1:0 2:0.40000001 3:0.2 4:0.40000001 #
-63.295982876154937457613414153457 1:0 2:0.40000001 3:0.2 4:0.2 #
-12.803460923666667881093417236116 1:0 2:0.40000001 3:0.2 4:0 #
-40.935008868624414901660202303901 1:0 2:0.40000001 3:0 4:0.80000001 #
-89.263565594577471529191825538874 1:0 2:0.40000001 3:0 4:0.60000002 #
-108.19826132676057284243142930791 1:0 2:0.40000001 3:0 4:0.40000001 #
-89.263565594577471529191825538874 1:0 2:0.40000001 3:0 4:0.2 #
-40.935008868624414901660202303901 1:0 2:0.40000001 3:0 4:0 #
108.37859176230517732619773596525 1:0 2:0.2 3:0.80000001 4:0.80000001 #
101.16537434052114008409262169152 1:0 2:0.2 3:0.80000001 4:0.60000002 #
85.296296012596258151461370289326 1:0 2:0.2 3:0.80000001 4:0.40000001 #
75.919113364277009736724721733481 1:0 2:0.2 3:0.80000001 4:0.2 #
85.296296012596258151461370289326 1:0 2:0.2 3:0.80000001 4:0 #
93.952156918737102841987507417798 1:0 2:0.2 3:0.60000002 4:0.80000001 #
63.656643747244139319718669867143 1:0 2:0.2 3:0.60000002 4:0.60000002 #
43.459634966248827936396992299706 1:0 2:0.2 3:0.60000002 4:0.40000001 #
24.705269669610331106923695188016 1:0 2:0.2 3:0.60000002 4:0.2 #
43.459634966248827936396992299706 1:0 2:0.2 3:0.60000002 4:0 #
63.656643747244139319718669867143 1:0 2:0.2 3:0.40000001 4:0.80000001 #
11.000156568220658570567138667684 1:0 2:0.2 3:0.40000001 4:0.60000002 #
-12.803460923666667881093417236116 1:0 2:0.2 3:0.40000001 4:0.40000001 #
-40.935008868624414901660202303901 1:0 2:0.2 3:0.40000001 4:0.2 #
-12.803460923666667881093417236116 1:0 2:0.2 3:0.40000001 4:0 #
43.459634966248827936396992299706 1:0 2:0.2 3:0.2 4:0.80000001 #
-12.803460923666667881093417236116 1:0 2:0.2 3:0.2 4:0.60000002 #
-63.295982876154937457613414153457 1:0 2:0.2 3:0.2 4:0.40000001 #
-89.263565594577471529191825538874 1:0 2:0.2 3:0.2 4:0.2 #
-63.295982876154937457613414153457 1:0 2:0.2 3:0.2 4:0 #
24.705269669610331106923695188016 1:0 2:0.2 3:0 4:0.80000001 #
-40.935008868624414901660202303901 1:0 2:0.2 3:0 4:0.60000002 #
-89.263565594577471529191825538874 1:0 2:0.2 3:0 4:0.40000001 #
-108.19826132676057284243142930791 1:0 2:0.2 3:0 4:0.2 #
-89.263565594577471529191825538874 1:0 2:0.2 3:0 4:0 #
111.98520047319719594725029310212 1:0 2:0 3:0.80000001 4:0.80000001 #
108.37859176230517732619773596525 1:0 2:0 3:0.80000001 4:0.60000002 #
101.16537434052114008409262169152 1:0 2:0 3:0.80000001 4:0.40000001 #
85.296296012596258151461370289326 1:0 2:0 3:0.80000001 4:0.2 #
75.919113364277009736724721733481 1:0 2:0 3:0.80000001 4:0 #
108.37859176230517732619773596525 1:0 2:0 3:0.60000002 4:0.80000001 #
93.952156918737102841987507417798 1:0 2:0 3:0.60000002 4:0.60000002 #
63.656643747244139319718669867143 1:0 2:0 3:0.60000002 4:0.40000001 #
43.459634966248827936396992299706 1:0 2:0 3:0.60000002 4:0.2 #
24.705269669610331106923695188016 1:0 2:0 3:0.60000002 4:0 #
101.16537434052114008409262169152 1:0 2:0 3:0.40000001 4:0.80000001 #
63.656643747244139319718669867143 1:0 2:0 3:0.40000001 4:0.60000002 #
11.000156568220658570567138667684 1:0 2:0 3:0.40000001 4:0.40000001 #
-12.803460923666667881093417236116 1:0 2:0 3:0.40000001 4:0.2 #
-40.935008868624414901660202303901 1:0 2:0 3:0.40000001 4:0 #
85.296296012596258151461370289326 1:0 2:0 3:0.2 4:0.80000001 #
43.459634966248827936396992299706 1:0 2:0 3:0.2 4:0.60000002 #
-12.803460923666667881093417236116 1:0 2:0 3:0.2 4:0.40000001 #
-63.295982876154937457613414153457 1:0 2:0 3:0.2 4:0.2 #
-89.263565594577471529191825538874 1:0 2:0 3:0.2 4:0 #
75.919113364277009736724721733481 1:0 2:0 3:0 4:0.80000001 #
24.705269669610331106923695188016 1:0 2:0 3:0 4:0.60000002 #
-40.935008868624414901660202303901 1:0 2:0 3:0 4:0.40000001 #
-89.263565594577471529191825538874 1:0 2:0 3:0 4:0.2 #
-108.19826132676057284243142930791 1:0 2:0 3:0 4:0 #
33.421682666786161064464977243915 1:0.80000001 2:0.80000001 3:0.80000001 4:0.80000001 #
44.669364333493042806821904378012 1:0.80000001 2:0.80000001 3:0.80000001 4:0.60000002 #
17.460686777840205508027793257497 1:0.80000001 2:0.80000001 3:0.80000001 4:0.40000001 #
-20.674310111185029370517440838739 1:0.80000001 2:0.80000001 3:0.80000001 4:0.2 #
-55.381442111309119979978277115151 1:0.80000001 2:0.80000001 3:0.80000001 4:0 #
44.669364333493042806821904378012 1:0.80000001 2:0.80000001 3:0.60000002 4:0.80000001 #
47.240263000168901896813622443005 1:0.80000001 2:0.80000001 3:0.60000002 4:0.60000002 #
20.460068555628708963922690600157 1:0.80000001 2:0.80000001 3:0.60000002 4:0.40000001 #
-9.5337492222563096078147282241844 1:0.80000001 2:0.80000001 3:0.60000002 4:0.2 #
-49.811161666844760986805340507999 1:0.80000001 2:0.80000001 3:0.60000002 4:0 #
17.460686777840205508027793257497 1:0.80000001 2:0.80000001 3:0.40000001 4:0.80000001 #
20.460068555628708963922690600157 1:0.80000001 2:0.80000001 3:0.40000001 4:0.60000002 #
-28.815489222325247453682095510885 1:0.80000001 2:0.80000001 3:0.40000001 4:0.40000001 #
-37.813634555690754268653108738363 1:0.80000001 2:0.80000001 3:0.40000001 4:0.2 #
-56.666891444647049524974136147648 1:0.80000001 2:0.80000001 3:0.40000001 4:0 #
-20.674310111185029370517440838739 1:0.80000001 2:0.80000001 3:0.2 4:0.80000001 #
-9.5337492222563096078147282241844 1:0.80000001 2:0.80000001 3:0.2 4:0.60000002 #
-37.813634555690754268653108738363 1:0.80000001 2:0.80000001 3:0.2 4:0.40000001 #
-49.811161666844760986805340507999 1:0.80000001 2:0.80000001 3:0.2 4:0.2 #
-64.379587444674626794949290342629 1:0.80000001 2:0.80000001 3:0.2 4:0 #
-55.381442111309119979978277115151 1:0.80000001 2:0.80000001 3:0 4:0.80000001 #
-49.811161666844760986805340507999 1:0.80000001 2:0.80000001 3:0 4:0.60000002 #
-56.666891444647049524974136147648 1:0.80000001 2:0.80000001 3:0 4:0.40000001 #
-64.379587444674626794949290342629 1:0.80000001 2:0.80000001 3:0 4:0.2 #
-66.522003000237845071751507930458 1:0.80000001 2:0.80000001 3:0 4:0 #
44.669364333493042806821904378012 1:0.80000001 2:0.60000002 3:0.80000001 4:0.80000001 #
33.421682666786161064464977243915 1:0.80000001 2:0.60000002 3:0.80000001 4:0.60000002 #
44.669364333493042806821904378012 1:0.80000001 2:0.60000002 3:0.80000001 4:0.40000001 #
17.460686777840205508027793257497 1:0.80000001 2:0.60000002 3:0.80000001 4:0.2 #
-20.674310111185029370517440838739 1:0.80000001 2:0.60000002 3:0.80000001 4:0 #
47.240263000168901896813622443005 1:0.80000001 2:0.60000002 3:0.60000002 4:0.80000001 #
44.669364333493042806821904378012 1:0.80000001 2:0.60000002 3:0.60000002 4:0.60000002 #
47.240263000168901896813622443005 1:0.80000001 2:0.60000002 3:0.60000002 4:0.40000001 #
20.460068555628708963922690600157 1:0.80000001 2:0.60000002 3:0.60000002 4:0.2 #
-9.5337492222563096078147282241844 1:0.80000001 2:0.60000002 3:0.60000002 4:0 #
20.460068555628708963922690600157 1:0.80000001 2:0.60000002 3:0.40000001 4:0.80000001 #
17.460686777840205508027793257497 1:0.80000001 2:0.60000002 3:0.40000001 4:0.60000002 #
20.460068555628708963922690600157 1:0.80000001 2:0.60000002 3:0.40000001 4:0.40000001 #
-28.815489222325247453682095510885 1:0.80000001 2:0.60000002 3:0.40000001 4:0.2 #
-37.813634555690754268653108738363 1:0.80000001 2:0.60000002 3:0.40000001 4:0 #
-9.5337492222563096078147282241844 1:0.80000001 2:0.60000002 3:0.2 4:0.80000001 #
-20.674310111185029370517440838739 1:0.80000001 2:0.60000002 3:0.2 4:0.60000002 #
-9.5337492222563096078147282241844 1:0.80000001 2:0.60000002 3:0.2 4:0.40000001 #
-37.813634555690754268653108738363 1:0.80000001 2:0.60000002 3:0.2 4:0.2 #
-49.811161666844760986805340507999 1:0.80000001 2:0.60000002 3:0.2 4:0 #
-49.811161666844760986805340507999 1:0.80000001 2:0.60000002 3:0 4:0.80000001 #
-55.381442111309119979978277115151 1:0.80000001 2:0.60000002 3:0 4:0.60000002 #
-49.811161666844760986805340507999 1:0.80000001 2:0.60000002 3:0 4:0.40000001 #
-56.666891444647049524974136147648 1:0.80000001 2:0.60000002 3:0 4:0.2 #
-64.379587444674626794949290342629 1:0.80000001 2:0.60000002 3:0 4:0 #
17.460686777840205508027793257497 1:0.80000001 2:0.40000001 3:0.80000001 4:0.80000001 #
44.669364333493042806821904378012 1:0.80000001 2:0.40000001 3:0.80000001 4:0.60000002 #
33.421682666786161064464977243915 1:0.80000001 2:0.40000001 3:0.80000001 4:0.40000001 #
44.669364333493042806821904378012 1:0.80000001 2:0.40000001 3:0.80000001 4:0.2 #
17.460686777840205508027793257497 1:0.80000001 2:0.40000001 3:0.80000001 4:0 #
20.460068555628708963922690600157 1:0.80000001 2:0.40000001 3:0.60000002 4:0.80000001 #
47.240263000168901896813622443005 1:0.80000001 2:0.40000001 3:0.60000002 4:0.60000002 #
44.669364333493042806821904378012 1:0.80000001 2:0.40000001 3:0.60000002 4:0.40000001 #
47.240263000168901896813622443005 1:0.80000001 2:0.40000001 3:0.60000002 4:0.2 #
20.460068555628708963922690600157 1:0.80000001 2:0.40000001 3:0.60000002 4:0 #
-28.815489222325247453682095510885 1:0.80000001 2:0.40000001 3:0.40000001 4:0.80000001 #
